<?xml version="1.0"?>
<opencv_storage>
<cascade>
  <stageType>BOOST</stageType>
  <featureType>LBP</featureType>
  <height>10</height>
  <width>50</width>
  <stageParams>
    <boostType>GAB</boostType>
    <minHitRate>9.9500000476837158e-01</minHitRate>
    <maxFalseAlarm>5.0000000000000000e-01</maxFalseAlarm>
    <weightTrimRate>9.4999999999999996e-01</weightTrimRate>
    <maxDepth>1</maxDepth>
    <maxWeakCount>100</maxWeakCount></stageParams>
  <featureParams>
    <maxCatCount>256</maxCatCount>
    <featSize>1</featSize></featureParams>
  <stageNum>6</stageNum>
  <stages>
    <!-- stage 0 -->
    <_>
      <maxWeakCount>3</maxWeakCount>
      <stageThreshold>-1.1356110572814941e+00</stageThreshold>
      <weakClassifiers>
        <_>
          <internalNodes>
            0 -1 8 -134481921 -10628641 1603649535 2147425787
            -1410680065 -4586497 195636223 264120831</internalNodes>
          <leafValues>
            -9.2349725961685181e-01 6.8070954084396362e-01</leafValues></_>
        <_>
          <internalNodes>
            0 -1 11 801056127 1073560021 2109823967 1071504863
            -1146200065 -1146137880 -71832577 -12665857</internalNodes>
          <leafValues>
            -8.3379822969436646e-01 5.8849775791168213e-01</leafValues></_>
        <_>
          <internalNodes>
            0 -1 28 717225983 -1078486049 -137898497 -1075976193
            -1176896513 -6567685 -1076958209 -1346699266</internalNodes>
          <leafValues>
            -7.0183897018432617e-01 6.2168449163436890e-01</leafValues></_></weakClassifiers></_>
    <!-- stage 1 -->
    <_>
      <maxWeakCount>5</maxWeakCount>
      <stageThreshold>-1.2832655906677246e+00</stageThreshold>
      <weakClassifiers>
        <_>
          <internalNodes>
            0 -1 18 -1344274433 1073551711 -1076232225 1063195103
            -1966481409 -1074078977 -90439937 -1073754913</internalNodes>
          <leafValues>
            -7.5322163105010986e-01 7.0569622516632080e-01</leafValues></_>
        <_>
          <internalNodes>
            0 -1 9 -303105 -706789889 -654737921 2147425759 -1432567825
            -272717073 -1519771651 295575001</internalNodes>
          <leafValues>
            -8.7614428997039795e-01 4.4549936056137085e-01</leafValues></_>
        <_>
          <internalNodes>
            0 -1 24 787154815 -172545 -262145 -2383877 -1141145601
            -3162113 2078207983 -1346437633</internalNodes>
          <leafValues>
            -7.9586589336395264e-01 4.3056917190551758e-01</leafValues></_>
        <_>
          <internalNodes>
            0 -1 19 -54002177 -4210753 -6422529 -35723842 -471888673
            -34128913 -1450488577 -1397602264</internalNodes>
          <leafValues>
            -6.2161916494369507e-01 5.4008847475051880e-01</leafValues></_>
        <_>
          <internalNodes>
            0 -1 1 1467959165 -581476517 -370419745 1067976117
            2065128445 -120599061 -1997709329 -268483076</internalNodes>
          <leafValues>
            -5.9470528364181519e-01 5.3715038299560547e-01</leafValues></_></weakClassifiers></_>
    <!-- stage 2 -->
    <_>
      <maxWeakCount>5</maxWeakCount>
      <stageThreshold>-1.7321918010711670e+00</stageThreshold>
      <weakClassifiers>
        <_>
          <internalNodes>
            0 -1 23 -2621441 -35792489 -787087403 -44573347 -1612996609
            -2302763 -1148477441 -1078272001</internalNodes>
          <leafValues>
            -6.6450816392898560e-01 6.5737050771713257e-01</leafValues></_>
        <_>
          <internalNodes>
            0 -1 26 -1209091077 -36865 -1 -6 1073741311 -1 -303154177
            -352572384</internalNodes>
          <leafValues>
            -5.3001332283020020e-01 5.8615124225616455e-01</leafValues></_>
        <_>
          <internalNodes>
            0 -1 25 -1427163137 -75811337 -209199393 1071600637
            -1146532865 -35993190 -87183937 -1611990037</internalNodes>
          <leafValues>
            -6.2195616960525513e-01 4.6158304810523987e-01</leafValues></_>
        <_>
          <internalNodes>
            0 -1 13 -536870985 2111688095 -645007873 -2146861 -86052867
            -18038115 -50807364 682689808</internalNodes>
          <leafValues>
            -7.0304381847381592e-01 3.6584094166755676e-01</leafValues></_>
        <_>
          <internalNodes>
            0 -1 2 -246986923 1493919511 -783990305 -1357846057
            -1182635011 -1476157257 -1142719505 -1348515457</internalNodes>
          <leafValues>
            -5.3454905748367310e-01 4.7453543543815613e-01</leafValues></_></weakClassifiers></_>
    <!-- stage 3 -->
    <_>
      <maxWeakCount>6</maxWeakCount>
      <stageThreshold>-1.7212740182876587e+00</stageThreshold>
      <weakClassifiers>
        <_>
          <internalNodes>
            0 -1 17 -1 -1 -1 -134217729 -1342242819 -32769 -1073758209
            -1078198273</internalNodes>
          <leafValues>
            -5.9051853418350220e-01 6.1107695102691650e-01</leafValues></_>
        <_>
          <internalNodes>
            0 -1 4 2107600895 -369396265 -788019257 -308516393 992631775
            -74558677 -607159857 -268474764</internalNodes>
          <leafValues>
            -5.8827608823776245e-01 4.0300685167312622e-01</leafValues></_>
        <_>
          <internalNodes>
            0 -1 15 -547891249 -141315755 -586752681 -6883333
            -1357705459 -5509637 -2549377 -2143652834</internalNodes>
          <leafValues>
            -5.9176629781723022e-01 3.6903822422027588e-01</leafValues></_>
        <_>
          <internalNodes>
            0 -1 10 800792427 869750575 1997265309 1072683935 2106817111
            -1352857285 1887551625 -1434793763</internalNodes>
          <leafValues>
            -7.7776163816452026e-01 2.5614997744560242e-01</leafValues></_>
        <_>
          <internalNodes>
            0 -1 0 -52439073 -86044566 -728577828 1904099259 -896804615
            -1652030804 -654710292 -214751456</internalNodes>
          <leafValues>
            -5.5186456441879272e-01 3.5162663459777832e-01</leafValues></_>
        <_>
          <internalNodes>
            0 -1 31 -1285867681 -1411589531 1494532503 -1227589313
            -1458832546 -27594734 -1441202181 -1996694089</internalNodes>
          <leafValues>
            -5.6716531515121460e-01 3.4500142931938171e-01</leafValues></_></weakClassifiers></_>
    <!-- stage 4 -->
    <_>
      <maxWeakCount>7</maxWeakCount>
      <stageThreshold>-1.2381833791732788e+00</stageThreshold>
      <weakClassifiers>
        <_>
          <internalNodes>
            0 -1 27 -1346512897 -2109229 -2063477291 -4333857
            -1249520403 -574304111 -1467885057 -1078200353</internalNodes>
          <leafValues>
            -7.0184135437011719e-01 4.5128676295280457e-01</leafValues></_>
        <_>
          <internalNodes>
            0 -1 12 -33568769 -2101281 -1077880403 -4458245 -1383427
            -533067 -77272452 -321326780</internalNodes>
          <leafValues>
            -5.4743784666061401e-01 4.4684451818466187e-01</leafValues></_>
        <_>
          <internalNodes>
            0 -1 3 1318537183 -10751089 -164896097 -285316460 2081385463
            -87138625 -604284673 -285776268</internalNodes>
          <leafValues>
            -6.1558097600936890e-01 3.9013019204139709e-01</leafValues></_>
        <_>
          <internalNodes>
            0 -1 16 -82843684 -70827563 -788244195 -1298606967 -87093435
            -712015677 -1144057922 54259247</internalNodes>
          <leafValues>
            -6.5800118446350098e-01 3.2673195004463196e-01</leafValues></_>
        <_>
          <internalNodes>
            0 -1 30 2096610271 -606241 -16879745 -139526147 -16924673
            -1048579 -229413 -1364638423</internalNodes>
          <leafValues>
            -3.6862546205520630e-01 5.2009582519531250e-01</leafValues></_>
        <_>
          <internalNodes>
            0 -1 20 -408631962 -1425148518 -53313037 -1569562709
            -343322835 -308803115 -343541249 -827594489</internalNodes>
          <leafValues>
            -5.2058625221252441e-01 3.3091574907302856e-01</leafValues></_>
        <_>
          <internalNodes>
            0 -1 22 629368407 298678743 -1054794785 -1076111170
            2080472389 -121519237 -1108330055 -1426571908</internalNodes>
          <leafValues>
            -5.4272824525833130e-01 3.2810530066490173e-01</leafValues></_></weakClassifiers></_>
    <!-- stage 5 -->
    <_>
      <maxWeakCount>7</maxWeakCount>
      <stageThreshold>-1.1778081655502319e+00</stageThreshold>
      <weakClassifiers>
        <_>
          <internalNodes>
            0 -1 32 -270337 -167772161 -536871073 -1392508993 -513
            2113929215 -16609 -1392508929</internalNodes>
          <leafValues>
            -5.1760762929916382e-01 5.9915614128112793e-01</leafValues></_>
        <_>
          <internalNodes>
            0 -1 14 -1056443939 -178765435 -804138604 1996603841
            -1467702826 -708614144 952384719 1001345023</internalNodes>
          <leafValues>
            -6.8494087457656860e-01 3.3046916127204895e-01</leafValues></_>
        <_>
          <internalNodes>
            0 -1 21 1474245631 -144751169 -1517167268 -24247636
            1000963071 -5990470 1759215551 -289525984</internalNodes>
          <leafValues>
            -5.2882379293441772e-01 3.9584967494010925e-01</leafValues></_>
        <_>
          <internalNodes>
            0 -1 5 1175932483 -2015894641 -303998781 1052520539
            2053069213 2017140891 -847025201 -823245185</internalNodes>
          <leafValues>
            -5.1824605464935303e-01 3.5845357179641724e-01</leafValues></_>
        <_>
          <internalNodes>
            0 -1 29 -2073231527 -1717832327 1564990429 -1097863268
            -1038413393 -102735445 720550485 -1088358537</internalNodes>
          <leafValues>
            -4.4917804002761841e-01 3.9890587329864502e-01</leafValues></_>
        <_>
          <internalNodes>
            0 -1 7 -50593795 -44236577 -170867499 672737916 -659563556
            -1433743937 -1056155 78673008</internalNodes>
          <leafValues>
            -6.8969637155532837e-01 2.2643223404884338e-01</leafValues></_>
        <_>
          <internalNodes>
            0 -1 6 -293605513 -177157 -16816449 -282267658 2138996597
            -134742026 2147450751 -947919504</internalNodes>
          <leafValues>
            -4.0289938449859619e-01 4.4647204875946045e-01</leafValues></_></weakClassifiers></_></stages>
  <features>
    <_>
      <rect>
        0 0 7 2</rect></_>
    <_>
      <rect>
        0 1 3 3</rect></_>
    <_>
      <rect>
        0 1 5 3</rect></_>
    <_>
      <rect>
        0 2 2 2</rect></_>
    <_>
      <rect>
        0 2 3 2</rect></_>
    <_>
      <rect>
        0 4 1 2</rect></_>
    <_>
      <rect>
        0 4 2 1</rect></_>
    <_>
      <rect>
        2 0 3 1</rect></_>
    <_>
      <rect>
        2 0 15 3</rect></_>
    <_>
      <rect>
        3 0 8 3</rect></_>
    <_>
      <rect>
        3 4 14 2</rect></_>
    <_>
      <rect>
        4 4 12 2</rect></_>
    <_>
      <rect>
        5 0 4 1</rect></_>
    <_>
      <rect>
        6 0 5 2</rect></_>
    <_>
      <rect>
        7 0 14 3</rect></_>
    <_>
      <rect>
        8 0 14 2</rect></_>
    <_>
      <rect>
        8 1 14 2</rect></_>
    <_>
      <rect>
        13 0 12 3</rect></_>
    <_>
      <rect>
        15 3 11 2</rect></_>
    <_>
      <rect>
        17 0 5 2</rect></_>
    <_>
      <rect>
        17 3 10 1</rect></_>
    <_>
      <rect>
        18 0 8 1</rect></_>
    <_>
      <rect>
        18 4 2 1</rect></_>
    <_>
      <rect>
        22 0 9 3</rect></_>
    <_>
      <rect>
        22 4 4 2</rect></_>
    <_>
      <rect>
        22 4 6 2</rect></_>
    <_>
      <rect>
        27 0 6 1</rect></_>
    <_>
      <rect>
        27 1 7 3</rect></_>
    <_>
      <rect>
        29 1 6 3</rect></_>
    <_>
      <rect>
        30 4 3 1</rect></_>
    <_>
      <rect>
        35 0 4 1</rect></_>
    <_>
      <rect>
        36 1 4 2</rect></_>
    <_>
      <rect>
        47 0 1 1</rect></_></features></cascade>
</opencv_storage>
