<?xml version="1.0"?>
<opencv_storage>
<cascade>
  <stageType>BOOST</stageType>
  <featureType>LBP</featureType>
  <height>25</height>
  <width>20</width>
  <stageParams>
    <boostType>RAB</boostType>
    <minHitRate>9.9500000476837158e-01</minHitRate>
    <maxFalseAlarm>5.0000000000000000e-01</maxFalseAlarm>
    <weightTrimRate>9.4999999999999996e-01</weightTrimRate>
    <maxDepth>1</maxDepth>
    <maxWeakCount>100</maxWeakCount></stageParams>
  <featureParams>
    <maxCatCount>256</maxCatCount>
    <featSize>1</featSize></featureParams>
  <stageNum>5</stageNum>
  <stages>
    <!-- stage 0 -->
    <_>
      <maxWeakCount>2</maxWeakCount>
      <stageThreshold>-7.0008301734924316e-01</stageThreshold>
      <weakClassifiers>
        <_>
          <internalNodes>
            0 -1 10 -1 -1 -1 -1 -1 -1 -1 -318832641</internalNodes>
          <leafValues>
            -1.9648612737655640e+00 1.4532682895660400e+00</leafValues></_>
        <_>
          <internalNodes>
            0 -1 6 -1 805306367 -1 -1358954497 -1 -1 -1 -16777217</internalNodes>
          <leafValues>
            -1.4477123022079468e+00 1.2647782564163208e+00</leafValues></_></weakClassifiers></_>
    <!-- stage 1 -->
    <_>
      <maxWeakCount>2</maxWeakCount>
      <stageThreshold>-5.0584542751312256e-01</stageThreshold>
      <weakClassifiers>
        <_>
          <internalNodes>
            0 -1 2 -1 -1 -1 -1 -1 -1 -1 -8423561</internalNodes>
          <leafValues>
            -1.3761858940124512e+00 1.2646791934967041e+00</leafValues></_>
        <_>
          <internalNodes>
            0 -1 7 -1 -1 -1 -1 -1 -1 -1 -855703553</internalNodes>
          <leafValues>
            -1.7386116981506348e+00 8.7034040689468384e-01</leafValues></_></weakClassifiers></_>
    <!-- stage 2 -->
    <_>
      <maxWeakCount>2</maxWeakCount>
      <stageThreshold>-6.2875306606292725e-01</stageThreshold>
      <weakClassifiers>
        <_>
          <internalNodes>
            0 -1 4 -9 -1 -1 -1 -32905 -1 -137 -1</internalNodes>
          <leafValues>
            -1.4045130014419556e+00 1.0174949169158936e+00</leafValues></_>
        <_>
          <internalNodes>
            0 -1 11 -1 -1 -1 -16842753 -1 -1 -1 -184614913</internalNodes>
          <leafValues>
            -1.3069955110549927e+00 7.7575999498367310e-01</leafValues></_></weakClassifiers></_>
    <!-- stage 3 -->
    <_>
      <maxWeakCount>2</maxWeakCount>
      <stageThreshold>-3.5605993866920471e-01</stageThreshold>
      <weakClassifiers>
        <_>
          <internalNodes>
            0 -1 8 -1 -1342177281 -1 -1 -1 -1 -1 -1</internalNodes>
          <leafValues>
            -1.0726346969604492e+00 1.2426555156707764e+00</leafValues></_>
        <_>
          <internalNodes>
            0 -1 1 -1 -1 -1 -1 -1 -1 -1 -8913040</internalNodes>
          <leafValues>
            -1.5020422935485840e+00 7.1657472848892212e-01</leafValues></_></weakClassifiers></_>
    <!-- stage 4 -->
    <_>
      <maxWeakCount>4</maxWeakCount>
      <stageThreshold>-1.2203468084335327e+00</stageThreshold>
      <weakClassifiers>
        <_>
          <internalNodes>
            0 -1 3 -32897 -1 -1 -1 2147450879 -1 -1 -524289</internalNodes>
          <leafValues>
            -1.1259371042251587e+00 8.9292287826538086e-01</leafValues></_>
        <_>
          <internalNodes>
            0 -1 0 -1 -1 -2 -2 -1 -1 -1 -185204737</internalNodes>
          <leafValues>
            -8.9187085628509521e-01 7.9369109869003296e-01</leafValues></_>
        <_>
          <internalNodes>
            0 -1 9 -16777217 -285278209 -1 -285278209 -1 -1 -1
            -134217731</internalNodes>
          <leafValues>
            -1.2221275568008423e+00 6.6062420606613159e-01</leafValues></_>
        <_>
          <internalNodes>
            0 -1 5 -1 1073741823 -1 -1 -524289 938999807 -1 1970798583</internalNodes>
          <leafValues>
            -1.5487250089645386e+00 4.8524469137191772e-01</leafValues></_></weakClassifiers></_></stages>
  <features>
    <_>
      <rect>
        0 1 6 1</rect></_>
    <_>
      <rect>
        0 2 2 5</rect></_>
    <_>
      <rect>
        0 2 3 7</rect></_>
    <_>
      <rect>
        0 16 1 3</rect></_>
    <_>
      <rect>
        0 21 2 1</rect></_>
    <_>
      <rect>
        2 9 6 5</rect></_>
    <_>
      <rect>
        11 15 3 3</rect></_>
    <_>
      <rect>
        14 0 2 7</rect></_>
    <_>
      <rect>
        14 17 2 2</rect></_>
    <_>
      <rect>
        14 21 2 1</rect></_>
    <_>
      <rect>
        17 2 1 4</rect></_>
    <_>
      <rect>
        17 5 1 1</rect></_></features></cascade>
</opencv_storage>
