<?xml version="1.0"?>
<opencv_storage>
<stage4>
  <maxWeakCount>4</maxWeakCount>
  <stageThreshold>-1.2203468084335327e+00</stageThreshold>
  <weakClassifiers>
    <_>
      <internalNodes>
        0 -1 530 -32897 -1 -1 -1 2147450879 -1 -1 -524289</internalNodes>
      <leafValues>
        -1.1259371042251587e+00 8.9292287826538086e-01</leafValues></_>
    <_>
      <internalNodes>
        0 -1 88 -1 -1 -2 -2 -1 -1 -1 -185204737</internalNodes>
      <leafValues>
        -8.9187085628509521e-01 7.9369109869003296e-01</leafValues></_>
    <_>
      <internalNodes>
        0 -1 5997 -16777217 -285278209 -1 -285278209 -1 -1 -1 -134217731</internalNodes>
      <leafValues>
        -1.2221275568008423e+00 6.6062420606613159e-01</leafValues></_>
    <_>
      <internalNodes>
        0 -1 1589 -1 1073741823 -1 -1 -524289 938999807 -1 1970798583</internalNodes>
      <leafValues>
        -1.5487250089645386e+00 4.8524469137191772e-01</leafValues></_></weakClassifiers></stage4>
</opencv_storage>
