svm_type c_svc
kernel_type rbf
gamma 0.0123457
nr_class 4
total_sv 241
rho 0.357982 -0.289564 0.571417 -0.895128 -0.143553 1.1061
label 10 16 37 98
probA -4.33721 -4.44297 -4.79515 -4.41614 -4.27063 -4.4996
probB -0.0188076 -0.77613 -0.619813 -0.201824 0.0669875 0.405635
nr_sv 62 80 39 60
SV
1 0 0 1:-0.00898824 2:-0.809618 3:-0.880732 4:-0.270578 5:0.806282 6:-0.555434 7:-0.879829 8:-0.930848 9:-0.086789 10:0.519214 11:-0.745384 12:-0.728135 13:0.012188 14:-0.649609 15:-0.891077 16:-0.882669 17:-0.874307 18:0.645541 19:0.333233 20:-0.191935 21:-0.614378 22:0.195377 23:-0.172585 24:-0.459388 25:-0.955307 26:-0.871723 27:-0.0673343 28:-0.452076 29:-0.866336 30:-0.9566 31:-0.516869 32:0.789293 33:-0.431567 34:-0.721463 35:-0.648077 36:-0.278112 37:0.457503 38:-0.741663 39:-0.951029 40:-0.281697 41:-0.740496 42:-0.505465 43:-0.675921 44:-0.628657 45:0.388683 46:0.396782 47:-0.752775 48:-0.99087 49:-0.0921033 50:-0.00813253 51:-0.631674 52:-0.973626 53:-0.905394 54:0.0927658 55:-0.792051 56:-0.886128 57:-0.941947 58:-0.721351 59:0.609813 60:-0.0576262 61:-0.349085 62:-0.371882 63:-0.148785 64:0.100181 65:-0.582656 66:-0.868538 67:-0.727457 68:-0.539113 69:0.416902 70:-0.5871 71:-0.388762 72:0.359131 73:0.286238 74:-0.793816 75:-0.883509 76:-0.246107 77:-0.219631 78:0.0226563 79:-0.795254 80:-0.343493 81:0.373761 
1 1 0.5773549579565205 1:-0.200848 2:-0.785368 3:0.385435 4:0.0682554 5:-0.509416 6:-0.626646 7:-0.806952 8:-0.494937 9:0.303644 10:-0.19987 11:-0.787017 12:-0.115392 13:-0.162437 14:-0.533949 15:-0.738991 16:-0.862539 17:-0.588947 18:0.804736 19:-0.285232 20:-0.392437 21:0.183555 22:-0.201552 23:-0.389635 24:-0.0477172 25:-0.694815 26:-0.844798 27:0.260567 28:-0.19054 29:-0.486894 30:-0.784753 31:-0.00213759 32:-0.302412 33:-0.22016 34:-0.403095 35:-0.235785 36:0.574896 37:-0.223441 38:-0.628886 39:-0.951294 40:-0.385272 41:-0.564308 42:-0.420689 43:-0.669136 44:-0.444604 45:0.760815 46:-0.208798 47:-0.86207 48:-0.988457 49:-0.304559 50:-0.174368 51:-0.215897 52:-0.822317 53:-0.812373 54:0.686415 55:-0.0254179 56:0.0716628 57:-0.519891 58:-0.363331 59:-0.312409 60:-0.119012 61:0.0747988 62:-0.145533 63:0.260145 64:0.19603 65:0.484362 66:-0.685717 67:-0.559188 68:-0.368245 69:-0.168666 70:-0.327471 71:-0.263199 72:0.266594 73:-0.0284172 74:-0.597854 75:-0.88357 76:-0.0735087 77:-0.41563 78:-0.108794 79:-0.301881 80:-0.289842 81:0.47447 
0 0.5042817782245568 1 1:-0.272159 2:0.212623 3:0.266224 4:0.0773852 5:-0.23428 6:-0.514957 7:-0.848771 8:-0.710436 9:-0.3555 10:-0.0957289 11:0.0392871 12:0.0964962 13:0.0648032 14:-0.704851 15:-0.732411 16:-0.938386 17:-0.668767 18:0.0763059 19:0.227379 20:0.367268 21:-0.27062 22:-0.0175768 23:-0.561037 24:-0.343656 25:-0.968464 26:-0.88754 27:-0.16946 28:-0.234329 29:-0.211507 30:-0.0636138 31:0.0549518 32:-0.00446675 33:-0.0283737 34:-0.611186 35:-0.315649 36:-0.094602 37:-0.0292217 38:-0.426191 39:-0.35187 40:-0.545002 41:-0.876707 42:-0.0496366 43:-0.878197 44:-0.29903 45:0.585141 46:0.158869 47:-0.709339 48:-0.89575 49:-0.557263 50:-0.382674 51:-0.0263088 52:-0.964085 53:-0.533092 54:0.559103 55:-0.151292 56:-0.822423 57:-0.815097 58:-0.292905 59:-0.429373 60:0.313865 61:0.021108 62:-0.144467 63:0.34869 64:0.132618 65:-0.888262 66:-0.909499 67:-0.873807 68:-0.891437 69:0.294842 70:-0.428436 71:-0.213718 72:0.458897 73:0.0116677 74:-0.920665 75:-0.898445 76:-0.587719 77:-0.575065 78:0.107624 79:-0.548394 80:0.0504688 81:0.456798 
1 0 0 1:-0.0611461 2:-0.695444 3:-0.318348 4:-0.629867 5:0.325144 6:-0.857278 7:-0.9415 8:-0.910044 9:0.610491 10:-0.103715 11:-0.778437 12:-0.60371 13:-0.0998728 14:-0.0165276 15:-0.953094 16:-0.945088 17:-0.945008 18:0.839236 19:-0.389817 20:-0.430191 21:-0.314402 22:-0.209278 23:0.437332 24:-0.695544 25:-0.773246 26:-0.91491 27:0.165597 28:-0.676486 29:-0.803981 30:-0.885516 31:-0.854068 32:0.375797 33:-0.833733 34:-0.801497 35:-0.928271 36:0.625355 37:-0.747684 38:-0.85467 39:-0.891501 40:-0.74446 41:0.0949416 42:-0.845404 43:-0.832708 44:-0.966069 45:0.772167 46:-0.761174 47:-0.891953 48:-0.921064 49:-0.756088 50:0.796837 51:-0.93677 52:-0.862525 53:-0.935431 54:0.158092 55:-0.316273 56:-0.865899 57:-0.924183 58:-0.88676 59:0.0978063 60:-0.597178 61:0.0908083 62:-0.624248 63:0.723502 64:-0.328258 65:-0.802463 66:-0.925776 67:-0.910077 68:0.196097 69:-0.166372 70:-0.546398 71:-0.690222 72:0.597607 73:-0.531438 74:-0.816941 75:-0.715179 76:-0.671361 77:0.649815 78:-0.289981 79:-0.702827 80:-0.467461 81:0.182167 
1 1 0 1:-0.18716 2:-0.517272 3:0.0313267 4:-0.225369 5:-0.0137356 6:-0.298404 7:-0.416934 8:-0.482954 9:0.268056 10:-0.183531 11:-0.657864 12:-0.0259082 13:-0.172175 14:0.079006 15:-0.690799 16:-0.617674 17:-0.459154 18:0.341385 19:-0.513847 20:-0.143458 21:0.193727 22:-0.218117 23:0.214036 24:-0.340834 25:-0.499609 26:-0.562011 27:-0.504928 28:-0.189803 29:-0.569201 30:-0.149136 31:-0.331721 32:0.0727018 33:-0.446429 34:-0.329177 35:-0.537606 36:0.363156 37:-0.23102 38:-0.753142 39:-0.357991 40:-0.368077 41:0.106916 42:-0.8095 43:-0.601088 44:-0.585907 45:0.379634 46:-0.397041 47:-0.527321 48:-0.146415 49:-0.480333 50:0.813438 51:-0.760978 52:-0.629792 53:-0.7321 54:-0.449937 55:-0.479582 56:-0.52658 57:-0.628276 58:-0.355734 59:0.237905 60:-0.347812 61:-0.550131 62:-0.794512 63:0.717482 64:-0.138019 65:-0.523799 66:-0.757034 67:-0.590264 68:0.347967 69:-0.553332 70:-0.689801 71:-0.838039 72:0.534334 73:-0.163939 74:-0.875256 75:-0.541893 76:-0.607868 77:1 78:-0.562778 79:-0.810459 80:-0.887544 81:-0.30617 
1 0 0.4980645559558573 1:-0.169721 2:-0.688623 3:0.207884 4:-0.356132 5:0.0377645 6:-0.457207 7:-0.0997033 8:-0.447225 9:-0.0236855 10:-0.223484 11:-0.704042 12:-0.0968563 13:-0.0848105 14:0.160701 15:-0.514425 16:-0.390511 17:-0.517178 18:0.228832 19:0.034407 20:0.0016954 21:-0.0668592 22:-0.225176 23:0.0662479 24:-0.450453 25:-0.537885 26:-0.704686 27:-0.328206 28:-0.0983133 29:-0.719827 30:-0.348562 31:-0.425112 32:0.482632 33:-0.558026 34:-0.595919 35:-0.762347 36:-0.0145716 37:0.0150983 38:-0.746326 39:-0.248547 40:-0.249644 41:0.171112 42:-0.695515 43:-0.606272 44:-0.623212 45:0.0609374 46:0.314795 47:-0.216547 48:-0.240294 49:-0.403617 50:0.289503 51:-0.738082 52:-0.665034 53:-0.673917 54:-0.323816 55:-0.151503 56:-0.610601 57:-0.148496 58:-0.477467 59:0.495484 60:-0.329316 61:-0.482417 62:-0.585973 63:-0.060065 64:0.347828 65:-0.359525 66:-0.13884 67:-0.598811 68:0.247671 69:-0.25731 70:-0.344084 71:-0.606531 72:-0.20121 73:0.354436 74:-0.599131 75:-0.342918 76:-0.711367 77:0.254394 78:-0.375867 79:-0.418561 80:-0.230579 81:0.00554152 
0 0 0.5659622936618101 1:-0.0757564 2:-0.0741993 3:-0.425462 4:0.0739181 5:0.352232 6:-0.156966 7:-0.838806 8:-0.539557 9:-0.406483 10:0.256751 11:-0.296032 12:-0.464609 13:0.0329175 14:0.223271 15:-0.56726 16:-0.934988 17:-0.351771 18:-0.104625 19:0.466368 20:-0.519262 21:-0.56252 22:0.0523338 23:0.000250664 24:0.17491 25:-0.867181 26:-0.665376 27:-0.432762 28:0.202464 29:-0.585545 30:-0.802821 31:-0.225667 32:0.310845 33:-0.0422836 34:-0.655641 35:-0.221534 36:-0.43023 37:0.38868 38:-0.771431 39:-0.854671 40:-0.413218 41:-0.227787 42:-0.307566 43:-0.860544 44:0.216444 45:-0.0303905 46:0.107399 47:-0.746981 48:-0.902321 49:-0.197651 50:0.392567 51:0.0196252 52:-0.843045 53:-0.352254 54:-0.373657 55:0.373397 56:-0.769235 57:-0.833392 58:-0.0379992 59:0.100067 60:-0.10061 61:-0.376297 62:-0.187286 63:-0.256999 64:0.43607 65:-0.605721 66:-0.848734 67:-0.721998 68:-0.501272 69:0.505849 70:-0.552854 71:-0.00696895 72:-0.335539 73:-0.257191 74:-0.558339 75:-0.800632 76:-0.472684 77:-0.0533797 78:0.754033 79:-0.620615 80:-0.00460044 81:-0.379414 
1 0 1 1:-0.459643 2:-0.658031 3:-0.20377 4:0.837891 5:0.111291 6:-0.420408 7:-0.80949 8:-0.896226 9:-0.731559 10:-0.418572 11:-0.600461 12:-0.227497 13:0.457674 14:0.377355 15:-0.2754 16:-0.729487 17:-0.425531 18:-0.622324 19:0.205102 20:0.229472 21:-0.045812 22:-0.147046 23:-0.582732 24:-0.380019 25:-0.80404 26:-0.313937 27:-0.446099 28:-0.153574 29:-0.53631 30:-0.183687 31:0.513993 32:0.0912534 33:-0.165412 34:-0.793089 35:-0.753804 36:-0.581262 37:-0.227334 38:-0.634489 39:-0.248013 40:0.514542 41:0.0468994 42:-0.245901 43:-0.718043 44:-0.376165 45:-0.416057 46:0.663236 47:0.0855953 48:-0.257557 49:-0.132595 50:-0.442667 51:-0.411973 52:-0.828025 53:-0.371546 54:-0.512644 55:-0.149089 56:-0.764507 57:-0.906943 58:-0.370659 59:0.614642 60:0.179178 61:-0.832924 62:-0.670728 63:-0.615631 64:0.235267 65:-0.387555 66:-0.77619 67:-0.275425 68:0.203157 69:0.3624 70:-0.665557 71:-0.594255 72:-0.441063 73:0.870689 74:-0.492014 75:-0.846028 76:-0.494019 77:-0.150265 78:-0.272033 79:-0.714185 80:-0.184321 81:-0.0430677 
1 1 1 1:-0.249354 2:-0.403979 3:-0.320345 4:0.285953 5:-0.249015 6:0.0244659 7:-0.564038 8:-0.676325 9:0.333988 10:-0.442217 11:-0.61152 12:-0.587212 13:0.1435 14:-0.590651 15:-0.36598 16:-0.690185 17:-0.599825 18:0.858003 19:-0.339665 20:-0.174809 21:-0.797892 22:0.243169 23:-0.423494 24:0.109875 25:-0.75455 26:-0.706838 27:0.449195 28:-0.377206 29:-0.569687 30:-0.640522 31:0.158564 32:-0.0832938 33:0.00538286 34:-0.544413 35:-0.53271 36:0.30104 37:-0.478484 38:-0.591237 39:-0.679351 40:-0.438535 41:-0.428023 42:-0.195566 43:-0.630177 44:-0.448621 45:0.74532 46:-0.349804 47:-0.757851 48:-0.935398 49:-0.410255 50:-0.283291 51:-0.0545689 52:-0.54829 53:-0.432455 54:0.729388 55:-0.0296455 56:-0.504571 57:-0.812406 58:-0.215938 59:-0.0139797 60:-0.129859 61:-0.49625 62:-0.463366 63:0.593425 64:-0.0438277 65:0.111133 66:-0.800064 67:-0.743265 68:-0.173439 69:0.053419 70:-0.687005 71:-0.595699 72:0.518296 73:0.0635251 74:-0.266354 75:-0.746098 76:-0.126277 77:-0.351443 78:0.211489 79:-0.570345 80:-0.508053 81:0.362686 
1 1 1 1:-0.709174 2:-0.528928 3:0.0449572 4:-0.406063 5:0.115529 6:-0.292283 7:0.272389 8:-0.450406 9:-0.0420686 10:-0.630946 11:-0.484675 12:0.276176 13:-0.663987 14:-0.406396 15:-0.193881 16:0.578186 17:-0.46269 18:-0.46648 19:-0.525188 20:-0.462775 21:0.205793 22:-0.710172 23:-0.333339 24:-0.112419 25:0.574907 26:-0.547386 27:-0.483526 28:-0.625226 29:-0.365708 30:-0.147758 31:-0.437766 32:0.231255 33:-0.423627 34:-0.177784 35:-0.499674 36:0.310714 37:-0.637391 38:-0.300995 39:0.113236 40:-0.223479 41:-0.154779 42:-0.50446 43:-0.0458601 44:-0.243688 45:0.24677 46:-0.273654 47:-0.0750408 48:0.249671 49:-0.279191 50:0.115848 51:-0.470759 52:0.0584713 53:-0.419503 54:-0.227685 55:-0.519129 56:-0.287566 57:-0.128674 58:-0.395359 59:0.173317 60:-0.439115 61:-0.44919 62:-0.603625 63:0.612739 64:-0.451016 65:0.050627 66:-0.099772 67:-0.276874 68:0.209218 69:-0.555495 70:-0.464476 71:-0.475536 72:0.421038 73:-0.158554 74:-0.145477 75:0.154484 76:-0.104107 77:0.394634 78:-0.505481 79:-0.424675 80:-0.455237 81:0.00468834 
1 0 0.09381569923987121 1:-0.578575 2:-0.676181 3:0.808046 4:-0.643593 5:0.131296 6:-0.985912 7:-0.980849 8:-0.908754 9:-0.820658 10:-0.50647 11:-0.60665 12:1 13:-0.741962 14:-0.849281 15:-0.947427 16:-0.941127 17:-0.868605 18:-0.621429 19:-0.244742 20:-0.368283 21:1 22:-0.817972 23:-0.805223 24:-0.698286 25:-0.920598 26:-0.917575 27:-0.756866 28:-0.438479 29:-0.709251 30:-0.43951 31:-0.591247 32:0.859647 33:-0.737164 34:-0.83179 35:-0.680234 36:-0.470265 37:-0.123929 38:-0.699611 39:-0.188628 40:-0.256156 41:-0.495837 42:-0.730011 43:-0.565129 44:-0.297121 45:0.542294 46:0.518429 47:-0.423715 48:-0.520198 49:-0.654524 50:-0.135232 51:-0.646364 52:-0.783559 53:-0.699283 54:0.173016 55:-0.551568 56:-0.936784 57:-0.963928 58:-0.87857 59:0.830368 60:-0.544862 61:-0.689935 62:-0.654622 63:-0.0796527 64:0.31119 65:-0.765694 66:-0.85344 67:-0.819439 68:-0.480805 69:0.120645 70:-0.614031 71:-0.448173 72:0.456317 73:0.521948 74:-0.909557 75:-0.882799 76:-0.754495 77:0.00782304 78:-0.309747 79:-0.831302 80:-0.592614 81:0.396627 
1 0 0 1:-0.709137 2:-0.937656 3:-0.834003 4:0.232702 5:0.770706 6:-0.582854 7:-0.803046 8:-0.848423 9:-0.0990768 10:0.20648 11:-0.930457 12:-0.659926 13:0.49735 14:-0.362949 15:-0.837124 16:-0.656787 17:-0.7759 18:0.327263 19:0.573528 20:-0.785824 21:-0.722445 22:-0.320869 23:0.484038 24:-0.383101 25:-0.859221 26:-0.942245 27:-0.578006 28:-0.708949 29:-0.839728 30:-0.966634 31:-0.391084 32:0.815558 33:-0.456054 34:-0.60968 35:-0.844952 36:-0.276901 37:0.269263 38:-0.698174 39:-0.963683 40:0.057206 41:-0.112118 42:-0.348595 43:-0.460432 44:-0.847587 45:-0.0159517 46:0.197228 47:-0.862536 48:-0.952011 49:-0.199996 50:0.61402 51:-0.491234 52:-0.851208 53:-0.97267 54:-0.531542 55:-0.717106 56:-0.77155 57:-0.885658 58:-0.743615 59:0.628416 60:-0.257614 61:0.0902287 62:-0.431563 63:-0.489972 64:-0.584134 65:-0.337852 66:-0.901648 67:-0.730775 68:-0.141635 69:0.308164 70:0.563826 71:-0.298209 72:-0.582186 73:-0.741824 74:-0.712458 75:-0.577192 76:-0.00851554 77:0.13436 78:-0.023972 79:0.39462 80:-0.569194 81:-0.280478 
1 1 1 1:-0.492931 2:-0.287586 3:0.0318788 4:-0.320247 5:-0.234041 6:-0.284051 7:0.178517 8:-0.140929 9:0.127378 10:-0.475431 11:-0.336095 12:0.0978416 13:-0.424773 14:-0.344654 15:0.0803658 16:0.258642 17:-0.398645 18:-0.207618 19:-0.36772 20:-0.203519 21:-0.0890501 22:-0.389121 23:-0.118792 24:0.367549 25:0.0906303 26:-0.486649 27:-0.300957 28:-0.157369 29:-0.129282 30:0.237721 31:-0.449804 32:-0.0701938 33:-0.305457 34:0.262543 35:-0.399373 36:0.0406801 37:-0.0652294 38:-0.353715 39:0.114238 40:-0.27602 41:0.122142 42:-0.373646 43:-0.182935 44:-0.656335 45:-0.255694 46:-0.184592 47:-0.101826 48:0.0491272 49:-0.270797 50:0.548262 51:-0.403813 52:-0.512395 53:-0.664389 54:-0.688069 55:-0.0483849 56:-0.610297 57:-0.624209 58:-0.668612 59:0.492472 60:-0.375867 61:-0.543847 62:-0.816904 63:0.241549 64:0.0683056 65:-0.594672 66:-0.678362 67:-0.713561 68:0.683146 69:-0.524437 70:-0.633435 71:-0.762993 72:-0.0383383 73:-0.212097 74:-0.491762 75:-0.480413 76:-0.578718 77:0.960659 78:-0.468986 79:-0.523341 80:-0.506899 81:-0.526094 
1 1 1 1:-0.545375 2:-0.654052 3:0.182997 4:-0.473439 5:-0.237955 6:-0.38918 7:0.52518 8:-0.486305 9:0.0155717 10:-0.58601 11:-0.775862 12:-0.0980493 13:-0.588736 14:0.170737 15:-0.284947 16:0.463243 17:-0.60586 18:0.0469162 19:-0.913392 20:-0.351482 21:0.158976 22:-0.604906 23:-0.263792 24:-0.209944 25:0.506678 26:-0.591124 27:-0.251226 28:-0.380751 29:-0.291075 30:0.351447 31:-0.444698 32:-0.0895824 33:-0.430618 34:0.283105 35:-0.531486 36:0.206387 37:-0.573396 38:-0.628955 39:-0.0232205 40:-0.361545 41:0.0471453 42:-0.605805 43:-0.316705 44:-0.587455 45:0.387065 46:-0.620111 47:-0.412855 48:0.116688 49:-0.405314 50:0.492669 51:-0.575339 52:-0.349215 53:-0.440111 54:-0.105203 55:-0.409747 56:-0.550465 57:-0.495621 58:-0.494147 59:0.186337 60:-0.255473 61:-0.118011 62:-0.716854 63:0.530157 64:-0.318124 65:-0.472072 66:-0.465948 67:-0.504089 68:0.348672 69:-0.636756 70:-0.600793 71:-0.686889 72:0.549882 73:-0.237427 74:-0.71808 75:-0.483209 76:-0.485915 77:0.947356 78:-0.577631 79:-0.778753 80:-0.666599 81:-0.248732 
1 0 1 1:-0.374743 2:-0.752166 3:-0.744891 4:-0.160659 5:1 6:-0.686836 7:-0.812245 8:-0.727744 9:-0.580274 10:0.198623 11:-0.612324 12:-0.474446 13:0.362766 14:-0.318805 15:-0.634784 16:-0.554561 17:-0.380517 18:0.140838 19:0.628443 20:0.101955 21:-0.609789 22:-0.0687866 23:-0.584925 24:-0.515091 25:-0.748266 26:-0.703428 27:-0.189234 28:-0.293905 29:-0.536284 30:-0.857029 31:-0.232453 32:0.742045 33:-0.527954 34:-0.87358 35:-0.796171 36:-0.44734 37:0.252682 38:-0.443135 39:-0.76549 40:-0.0195795 41:-0.344891 42:-0.477758 43:-0.741165 44:-0.651886 45:0.20377 46:0.49275 47:-0.638197 48:-0.916414 49:-0.26836 50:-0.323703 51:-0.552964 52:-0.875029 53:-0.84091 54:0.295248 55:-0.4833 56:-0.437196 57:-0.803911 58:-0.38299 59:0.620138 60:-0.515992 61:-0.191041 62:-0.136683 63:-0.582969 64:0.0816527 65:0.113553 66:-0.693526 67:-0.546568 68:-0.490505 69:-0.386069 70:0.372474 71:0.114509 72:-0.195697 73:0.111987 74:-0.709252 75:-0.803569 76:-0.394914 77:-0.474484 78:-0.512614 79:0.0801068 80:0.241279 81:0.125704 
1 0 0 1:0.224298 2:-0.758076 3:-0.209941 4:0.706411 5:-0.156365 6:-0.525057 7:-0.859511 8:-0.736854 9:-0.445711 10:-0.470273 11:-0.870321 12:-0.356983 13:0.902744 14:-0.0722833 15:-0.589362 16:-0.768329 17:-0.549934 18:-0.389448 19:0.697548 20:-0.0590717 21:-0.352729 22:0.0214401 23:-0.536366 24:-0.584788 25:-0.854355 26:-0.678879 27:-0.518694 28:0.455943 29:-0.594376 30:-0.507696 31:0.458902 32:-0.222698 33:-0.206913 34:-0.846383 35:-0.632268 36:-0.368769 37:-0.204763 38:-0.889802 39:-0.718651 40:0.702366 41:0.0248368 42:-0.344609 43:-0.775726 44:-0.443273 45:-0.359375 46:0.812285 47:-0.542293 48:-0.643638 49:-0.14818 50:-0.215612 51:-0.500408 52:-0.891537 53:-0.531867 54:-0.459656 55:0.159775 56:-0.790047 57:-0.970252 58:-0.333088 59:0.20039 60:0.473684 61:-0.737253 62:-0.650857 63:-0.236555 64:0.226527 65:-0.419939 66:-0.883061 67:-0.467873 68:0.27425 69:0.420316 70:-0.721703 71:-0.750861 72:-0.471481 73:0.764876 74:-0.46614 75:-0.761029 76:-0.437561 77:-0.0458588 78:-0.207162 79:-0.749041 80:-0.242972 81:-0.0362144 
1 0 0 1:-0.285931 2:-0.725378 3:0.200146 4:-0.25739 5:0.401231 6:-0.567544 7:-0.848339 8:-0.842359 9:-0.145983 10:-0.102737 11:-0.812759 12:0.370968 13:-0.213231 14:-0.434085 15:-0.481028 16:-0.878585 17:-0.683493 18:0.217402 19:0.0932214 20:-0.432124 21:0.401769 22:-0.255053 23:-0.423692 24:-0.212957 25:-0.868377 26:-0.753516 27:-0.23822 28:-0.24265 29:-0.895771 30:-0.860152 31:-0.132618 32:0.646861 33:-0.517477 34:-0.856588 35:-0.857705 36:-0.264334 37:0.17781 38:-0.873271 39:-0.809417 40:-0.186595 41:-0.292379 42:-0.415687 43:-0.868407 44:-0.797084 45:0.384406 46:0.592082 47:-0.77801 48:-0.898066 49:-0.450035 50:-0.232404 51:-0.507757 52:-0.951258 53:-0.787936 54:0.200745 55:-0.141232 56:-0.855481 57:-0.870819 58:-0.186295 59:0.615975 60:-0.223937 61:-0.893441 62:-0.832356 63:-0.103574 64:0.35524 65:-0.601577 66:-0.681364 67:-0.542918 68:-0.0688349 69:-0.133244 70:-0.762829 71:-0.775053 72:0.377562 73:0.708338 74:-0.73647 75:-0.706068 76:-0.526126 77:-0.304429 78:-0.36407 79:-0.783793 80:-0.533239 81:0.422037 
1 0 1 1:-0.551432 2:-0.720712 3:-0.214638 4:-0.316949 5:0.916366 6:-0.931914 7:-0.575898 8:-0.83319 9:-0.664406 10:-0.285236 11:-0.193327 12:0.267089 13:-0.275011 14:-0.53812 15:-0.75396 16:-0.225848 17:-0.523855 18:0.1062 19:0.495589 20:0.48563 21:-0.463297 22:-0.695342 23:-0.481608 24:-0.32777 25:-0.849747 26:-0.609447 27:-0.14562 28:-0.387144 29:-0.883849 30:-0.907996 31:-0.358229 32:0.806503 33:-0.740147 34:-0.428843 35:-0.769871 36:-0.365467 37:0.0279955 38:-0.728158 39:-0.765241 40:0.020943 41:-0.405503 42:-0.600047 43:-0.103901 44:-0.41231 45:0.36064 46:0.669274 47:-0.407243 48:-0.825952 49:-0.337868 50:-0.387028 51:-0.571805 52:-0.84434 53:-0.748144 54:0.096417 55:-0.529867 56:-0.858664 57:-0.880861 58:-0.561076 59:0.779212 60:-0.492114 61:-0.640523 62:-0.522541 63:-0.137586 64:0.147843 65:-0.390215 66:-0.642836 67:-0.278875 68:-0.321834 69:0.0755668 70:-0.448229 71:-0.206049 72:0.238964 73:0.417417 74:-0.712434 75:-0.811244 76:-0.351879 77:-0.399908 78:-0.310249 79:-0.699046 80:-0.436577 81:0.573292 
1 0 1 1:-0.180762 2:-0.723272 3:0.801959 4:-0.460892 5:-0.302106 6:-0.240739 7:-0.889925 8:-0.94772 9:-0.609781 10:0.0807875 11:-0.456437 12:0.674187 13:-0.397334 14:-0.689627 15:-0.798625 16:-0.945919 17:-0.91903 18:-0.405217 19:0.0602961 20:-0.368832 21:0.7167 22:-0.481652 23:-0.62507 24:-0.394229 25:-0.923498 26:-0.916559 27:-0.565452 28:0.0904383 29:-0.7674 30:-0.870601 31:-0.0837456 32:0.415834 33:-0.183397 34:-0.844441 35:-0.664269 36:-0.337018 37:0.559763 38:-0.793268 39:-0.816038 40:-0.551694 41:-0.437223 42:0.00342651 43:-0.793385 44:-0.50054 45:0.0463137 46:0.494665 47:-0.838246 48:-0.841798 49:-0.322505 50:-0.0230569 51:-0.0994955 52:-0.891588 53:-0.775456 54:-0.0587493 55:-0.0295417 56:-0.670443 57:-0.744211 58:0.195267 59:0.264944 60:-0.418909 61:-0.288272 62:-0.0669124 63:-0.369915 64:0.240318 65:-0.532101 66:-0.781437 67:-0.734811 68:-0.547969 69:0.00363332 70:-0.0767888 71:0.409556 72:-0.2121 73:0.16345 74:-0.711007 75:-0.60356 76:-0.334511 77:-0.22369 78:-0.0505533 79:-0.113747 80:0.19313 81:-0.124312 
1 0.06186612295641748 0 1:0.133734 2:-0.493569 3:-0.22306 4:-0.35637 5:0.0873688 6:-0.3287 7:-0.444511 8:-0.629357 9:0.307427 10:0.0849352 11:-0.526017 12:-0.118477 13:-0.181642 14:0.0117704 15:-0.717486 16:-0.511428 17:-0.756382 18:0.326772 19:-0.328435 20:-0.529867 21:0.287309 22:-0.145782 23:0.187568 24:-0.649971 25:-0.571695 26:-0.772433 27:-0.361988 28:-0.0179376 29:-0.703245 30:-0.743343 31:-0.69349 32:0.178606 33:-0.547059 34:-0.695904 35:-0.651983 36:0.508069 37:-0.255533 38:-0.878473 39:-0.790041 40:-0.539814 41:0.0925948 42:-0.781082 43:-0.846349 44:-0.806315 45:0.564387 46:-0.426227 47:-0.874983 48:-0.766306 49:-0.434068 50:0.862799 51:-0.70037 52:-0.834025 53:-0.828592 54:-0.2437 55:-0.439711 56:-0.703124 57:-0.840726 58:-0.874898 59:0.26808 60:-0.626584 61:-0.512879 62:-0.708521 63:0.86481 64:-0.264691 65:-0.784703 66:-0.898118 67:-0.832253 68:0.224744 69:-0.43472 70:-0.510073 71:-0.731823 72:0.65078 73:-0.20881 74:-0.896347 75:-0.713231 76:-0.569149 77:0.746873 78:-0.338554 79:-0.374178 80:-0.365661 81:-0.249705 
1 0 0 1:-0.306567 2:-0.284086 3:-0.428914 4:0.462371 5:-0.445114 6:-0.566747 7:-0.711402 8:-0.397463 9:0.550903 10:-0.278793 11:-0.527987 12:-0.709018 13:0.630966 14:-0.716573 15:-0.86421 16:-0.873981 17:-0.527532 18:0.49812 19:-0.612988 20:-0.351326 21:-0.425609 22:0.740263 23:-0.281907 24:0.131878 25:-0.851159 26:-0.64845 27:-0.241797 28:0.00593279 29:-0.414526 30:-0.729099 31:0.244604 32:-0.484147 33:-0.337889 34:-0.696431 35:-0.614658 36:0.577586 37:-0.0752335 38:-0.708215 39:-0.815418 40:0.342047 41:-0.770481 42:-0.613165 43:-0.941764 44:-0.782897 45:0.524719 46:-0.463083 47:-0.654653 48:-0.853693 49:0.512964 50:0.221917 51:-0.0719135 52:-0.917838 53:-0.807836 54:-0.195621 55:-0.24763 56:-0.544207 57:-0.704963 58:0.184413 59:-0.161707 60:-0.236145 61:-0.747991 62:-0.629183 63:0.825115 64:0.124502 65:-0.566989 66:-0.771388 67:-0.281288 68:-0.231242 69:-0.141766 70:-0.836209 71:-0.784191 72:0.614635 73:0.0658498 74:-0.708978 75:-0.768664 76:0.437228 77:0.474026 78:-0.00109227 79:-0.854217 80:-0.738652 81:-0.300893 
0.07958517084720813 0 0 1:0.177419 2:-0.323181 3:-0.463853 4:0.505464 5:0.145016 6:-0.407534 7:-0.863388 8:-0.525106 9:-0.609732 10:0.244677 11:-0.579571 12:-0.596192 13:0.363883 14:0.212553 15:-0.7084 16:-0.900461 17:-0.431174 18:-0.190167 19:0.0685089 20:0.223077 21:-0.473989 22:0.123239 23:-0.0311945 24:-0.134871 25:-0.917709 26:-0.730896 27:-0.408908 28:0.194121 29:-0.481742 30:-0.871388 31:0.0517049 32:0.360024 33:-0.316135 34:-0.833294 35:-0.520224 36:-0.488494 37:0.492743 38:-0.65703 39:-0.902769 40:-0.0366266 41:-0.0621005 42:-0.550556 43:-0.806257 44:-0.192522 45:-0.34656 46:0.293196 47:-0.545876 48:-0.908092 49:-0.0516421 50:0.256967 51:-0.0433242 52:-0.860075 53:-0.538762 54:-0.469732 55:0.225286 56:-0.795764 57:-0.956943 58:-0.307722 59:0.52755 60:-0.131043 61:-0.831222 62:-0.675299 63:-0.306766 64:0.849866 65:-0.64573 66:-0.982903 67:-0.574528 68:-0.197632 69:0.21163 70:-0.798318 71:-0.502051 72:-0.516037 73:0.444836 74:-0.810968 75:-0.762999 76:0.100182 77:0.11823 78:0.409248 79:-0.915483 80:-0.579244 81:-0.401577 
0 1 1 1:0.143707 2:-0.564346 3:-0.137096 4:-0.0579004 5:-0.0641744 6:-0.212656 7:-0.467598 8:-0.298606 9:0.0901119 10:0.267374 11:-0.651741 12:-0.319463 13:-0.242681 14:-0.135161 15:-0.598689 16:-0.765755 17:-0.675672 18:0.544762 19:-0.00758258 20:-0.487292 21:-0.28854 22:-0.0155038 23:0.0559012 24:0.0930275 25:-0.735945 26:-0.830282 27:0.0274346 28:0.379451 29:-0.65418 30:-0.454626 31:-0.38987 32:-0.156364 33:-0.20643 34:-0.308364 35:-0.490099 36:0.274121 37:0.411545 38:-0.868651 39:-0.818699 40:-0.481889 41:-0.418346 42:-0.366393 43:-0.878403 44:-0.746287 45:0.343159 46:0.0982027 47:-0.694395 48:-0.78614 49:-0.222123 50:0.35775 51:0.00684169 52:-0.82298 53:-0.691807 54:-0.218212 55:0.0740742 56:-0.273762 57:-0.117794 58:0.00188168 59:-0.515386 60:-0.303993 61:0.0482318 62:-0.0105921 63:0.215433 64:0.387933 65:-0.602163 66:-0.461504 67:-0.318005 68:-0.412943 69:-0.113421 70:-0.208916 71:-0.205267 72:0.0897621 73:0.206257 74:-0.58282 75:-0.333062 76:-0.130601 77:0.0875269 78:0.0540646 79:-0.239984 80:-0.201934 81:-0.240845 
1 0 0.4041149552447285 1:0.20718 2:-0.844893 3:-0.655404 4:0.622339 5:0.12777 6:-0.42973 7:-1 8:-0.78226 9:-0.229942 10:0.0242599 11:-0.837166 12:-0.548934 13:0.546331 14:0.324109 15:-0.524975 16:-0.914638 17:-0.629808 18:-0.310752 19:1 20:-0.257159 21:-0.673579 22:-0.451012 23:-0.590186 24:-0.173393 25:-0.919464 26:-0.711822 27:-0.282694 28:0.209519 29:-0.955828 30:-0.935252 31:0.0394702 32:0.195247 33:-0.0340734 34:-0.935922 35:-0.60339 36:-0.252016 37:0.292291 38:-0.858083 39:-0.893982 40:-0.0711863 41:0.216349 42:0.112955 43:-0.86618 44:-0.52495 45:-0.641902 46:1 47:-0.88119 48:-0.902194 49:-0.639581 50:-0.498621 51:-0.525526 52:-0.906406 53:-0.505203 54:-0.196296 55:0.357872 56:-0.983947 57:-0.948679 58:-0.179544 59:-0.13121 60:0.526814 61:-0.422183 62:-0.424984 63:-0.270542 64:0.120083 65:-0.707611 66:-0.607184 67:-0.448244 68:0.0386073 69:0.73622 70:-0.551248 71:-0.520257 72:-0.763843 73:0.602137 74:-0.716262 75:-0.399112 76:-0.638063 77:-0.519412 78:-0.15001 79:-0.718569 80:0.273173 81:0.0698888 
1 0 0 1:-0.378931 2:-0.776229 3:-0.420849 4:-0.131248 5:0.3161 6:-0.464105 7:-0.664372 8:-0.64762 9:0.523766 10:-0.392114 11:-0.800791 12:-0.367819 13:-0.166497 14:0.12322 15:-0.669377 16:-0.841037 17:-0.678406 18:0.761755 19:-0.27249 20:-0.125537 21:-0.0572704 22:-0.161342 23:0.0675891 24:-0.361055 25:-0.720714 26:-0.745472 27:0.0414544 28:-0.626981 29:-0.883376 30:-0.743792 31:-0.540006 32:0.530078 33:-0.587407 34:-0.735157 35:-0.845312 36:0.325941 37:-0.605082 38:-0.847755 39:-0.628814 40:-0.40017 41:0.116311 42:-0.737531 43:-0.759919 44:-0.657077 45:0.609072 46:-0.298615 47:-0.39345 48:-0.461901 49:-0.339549 50:0.519873 51:-0.73483 52:-0.68379 53:-0.653523 54:0.0395548 55:-0.65836 56:-0.869805 57:-0.758734 58:-0.613622 59:0.612184 60:-0.46507 61:-0.42443 62:-0.787586 63:0.298996 64:-0.179165 65:-0.557387 66:-0.674392 67:-0.769459 68:0.517729 69:-0.372689 70:-0.672094 71:-0.730495 72:0.309152 73:-0.182813 74:-0.743127 75:-0.707033 76:-0.671306 77:0.605284 78:-0.472304 79:-0.644403 80:-0.414123 81:0.155051 
1 1 1 1:-0.226425 2:-0.684474 3:-0.372121 4:0.755438 5:0.237201 6:-0.691267 7:-0.897138 8:-0.908116 9:-0.489364 10:-0.342084 11:-0.591218 12:-0.151356 13:0.463506 14:0.414849 15:-0.44635 16:-0.848971 17:-0.770684 18:-0.589924 19:0.783318 20:-0.151056 21:-0.319906 22:-0.627417 23:-0.254551 24:-0.432272 25:-0.924249 26:-0.765705 27:-0.239149 28:-0.0833493 29:-0.84238 30:-0.800174 31:0.244048 32:0.418258 33:-0.32079 34:-0.772868 35:-0.883359 36:-0.441448 37:-0.26439 38:-0.863446 39:-0.763577 40:0.217963 41:0.591055 42:-0.0757935 43:-0.770341 44:-0.743316 45:-0.776981 46:0.795942 47:-0.857815 48:-0.932974 49:-0.689062 50:-0.337162 51:-0.66085 52:-0.939315 53:-0.587714 54:0.0935635 55:-0.23355 56:-0.834308 57:-0.705267 58:-0.346668 59:0.0660378 60:0.363838 61:0.220612 62:-0.386114 63:-0.476463 64:-0.297834 65:-0.583878 66:-0.657382 67:-0.248708 68:0.203764 69:0.3411 70:0.0521076 71:-0.0939578 72:-1 73:0.409972 74:-0.631224 75:-0.595233 76:-0.45375 77:-0.444384 78:-0.493557 79:-0.340975 80:0.219394 81:0.21214 
1 0 0 1:0.174642 2:-0.386385 3:0.185517 4:-0.0947699 5:-0.587328 6:-0.316777 7:-0.526003 8:-0.278459 9:0.149414 10:-0.147438 11:-0.514078 12:-0.213223 13:-0.0058314 14:-0.144003 15:-0.379935 16:-0.58198 17:-0.15037 18:0.263614 19:0.0705291 20:-0.401028 21:-0.242489 22:-0.0728128 23:-0.0791444 24:-0.307887 25:-0.665651 26:-0.616837 27:0.102135 28:0.280841 29:-0.754039 30:-0.657511 31:-0.330076 32:-0.33299 33:0.0244909 34:-0.468145 35:-0.403786 36:0.427824 37:0.00190151 38:-0.739286 39:-0.554104 40:-0.105902 41:-0.236942 42:-0.237597 43:-0.635308 44:-0.232706 45:0.261551 46:0.251846 47:-0.597188 48:-0.521447 49:-0.133103 50:0.0291381 51:-0.26636 52:-0.775914 53:-0.512557 54:0.00351484 55:0.101861 56:-0.757782 57:-0.787529 58:-0.526139 59:0.168037 60:0.115143 61:-0.918067 62:-0.849809 63:0.441404 64:0.351334 65:-0.458553 66:-0.676547 67:-0.547457 68:0.129383 69:0.107996 70:-0.882373 71:-0.662908 72:0.0075229 73:0.709167 74:-0.615973 75:-0.572023 76:-0.0566229 77:-0.0594045 78:-0.148069 79:-0.931427 80:-0.510886 81:0.0387212 
1 1 1 1:-0.586927 2:-0.630951 3:-0.426655 4:-0.331222 5:0.495028 6:-0.369853 7:-0.441769 8:-0.603671 9:0.355473 10:-0.58907 11:-0.62303 12:-0.286268 13:-0.306658 14:0.299184 15:-0.279612 16:-0.113995 17:-0.404282 18:0.323257 19:-0.800649 20:-0.278399 21:0.0490486 22:-0.374888 23:-0.179536 24:-0.130998 25:0.347176 26:-0.398608 27:-0.332154 28:-0.43769 29:-0.398185 30:-0.245017 31:-0.492443 32:0.328531 33:-0.407024 34:-0.423238 35:-0.679745 36:0.249516 37:-0.345064 38:-0.575469 39:-0.188094 40:-0.376819 41:0.0534481 42:-0.515226 43:-0.468897 44:-0.573814 45:0.351817 46:-0.0584905 47:-0.138205 48:0.25733 49:-0.33355 50:0.273273 51:-0.606612 52:-0.256962 53:-0.603406 54:-0.391945 55:-0.48399 56:-0.592002 57:-0.570051 58:-0.442926 59:0.415682 60:-0.337957 61:-0.506202 62:-0.642987 63:0.43672 64:-0.135931 65:-0.436211 66:-0.523672 67:-0.460187 68:0.276648 69:-0.396252 70:-0.581334 71:-0.656538 72:0.43893 73:0.221236 74:-0.594313 75:-0.474524 76:-0.349595 77:0.417509 78:-0.42155 79:-0.625374 80:-0.510358 81:0.0880196 
1 0 0 1:0.177419 2:-0.323181 3:-0.463853 4:0.505464 5:0.145016 6:-0.407534 7:-0.863388 8:-0.525106 9:-0.609732 10:0.244677 11:-0.579571 12:-0.596192 13:0.363883 14:0.212553 15:-0.7084 16:-0.900461 17:-0.431174 18:-0.190167 19:0.0685089 20:0.223077 21:-0.473989 22:0.123239 23:-0.0311945 24:-0.134871 25:-0.917709 26:-0.730896 27:-0.408908 28:0.194121 29:-0.481742 30:-0.871388 31:0.0517049 32:0.360024 33:-0.316135 34:-0.833294 35:-0.520224 36:-0.488494 37:0.492743 38:-0.65703 39:-0.902769 40:-0.0366266 41:-0.0621005 42:-0.550556 43:-0.806257 44:-0.192522 45:-0.34656 46:0.293196 47:-0.545876 48:-0.908092 49:-0.0516421 50:0.256967 51:-0.0433242 52:-0.860075 53:-0.538762 54:-0.469732 55:0.225286 56:-0.795764 57:-0.956943 58:-0.307722 59:0.52755 60:-0.131043 61:-0.831222 62:-0.675299 63:-0.306766 64:0.849866 65:-0.64573 66:-0.982903 67:-0.574528 68:-0.197632 69:0.21163 70:-0.798318 71:-0.502051 72:-0.516037 73:0.444836 74:-0.810968 75:-0.762999 76:0.100182 77:0.11823 78:0.409248 79:-0.915483 80:-0.579244 81:-0.401577 
1 1 1 1:0.0218668 2:0.0852478 3:0.0576516 4:-0.130163 5:-0.321201 6:-0.44651 7:-0.692855 8:-0.641251 9:0.155271 10:-0.03524 11:-0.278811 12:-0.630885 13:0.233026 14:-0.582186 15:-0.714388 16:-0.758851 17:-0.679354 18:0.615861 19:-0.30244 20:-0.131906 21:-0.700378 22:0.311902 23:-0.164751 24:0.00137226 25:-0.703642 26:-0.736301 27:0.183256 28:-0.214367 29:-0.51543 30:-0.610567 31:-0.193307 32:0.0800546 33:-0.312547 34:-0.696749 35:-0.0978307 36:0.337613 37:-0.279517 38:-0.761485 39:-0.778331 40:-0.293085 41:-0.73952 42:-0.655754 43:-0.716435 44:-0.354559 45:0.844294 46:-0.388733 47:-0.967575 48:-0.916767 49:-0.33731 50:0.0503928 51:-0.277999 52:-0.676971 53:-0.630522 54:0.6182 55:-0.514159 56:-0.899063 57:-0.913458 58:-0.43237 59:-0.355695 60:-0.0984453 61:-0.159207 62:0.195064 63:0.645984 64:-0.186505 65:-0.867707 66:-0.929191 67:-0.58878 68:-0.598173 69:-0.13784 70:-0.633541 71:-0.0755525 72:0.795695 73:-0.147918 74:-0.841766 75:-0.887506 76:-0.349329 77:-0.277289 78:0.0967044 79:-0.411034 80:-0.219141 81:0.438094 
1 0 1 1:-0.0626118 2:-0.730937 3:-0.245379 4:0.722377 5:0.113281 6:-0.581161 7:-0.889341 8:-0.803786 9:-0.549695 10:-0.246075 11:-0.530327 12:0.0219384 13:0.352285 14:0.24287 15:-0.385749 16:-0.863136 17:-0.625752 18:-0.608461 19:0.765385 20:0.162527 21:-0.290629 22:-0.60873 23:-0.349844 24:-0.440612 25:-0.938843 26:-0.801143 27:-0.456349 28:0.129122 29:-0.887828 30:-0.669284 31:0.174089 32:0.253874 33:-0.0806528 34:-0.867779 35:-0.747594 36:-0.439706 37:-0.123516 38:-0.89631 39:-0.711709 40:-0.00976194 41:0.533269 42:0.115339 43:-0.881508 44:-0.702711 45:-0.688003 46:0.874205 47:-0.609436 48:-0.89315 49:-0.698566 50:-0.308277 51:-0.510812 52:-0.907526 53:-0.655813 54:-0.10667 55:-0.0052683 56:-0.934047 57:-0.905157 58:-0.43054 59:0.166324 60:0.544274 61:-0.221785 62:-0.426655 63:-0.609969 64:-0.221188 65:-0.746359 66:-0.785081 67:-0.284671 68:0.174318 69:0.666675 70:-0.345544 71:-0.247466 72:-0.880514 73:0.576128 74:-0.534099 75:-0.75854 76:-0.510713 77:-0.448531 78:-0.319756 79:-0.476855 80:0.083291 81:0.199053 
1 0.5616715710955982 1 1:-0.146131 2:-0.195733 3:-0.377224 4:0.0644984 5:0.147775 6:0.284141 7:-0.587062 8:-0.175566 9:-0.574117 10:0.0161263 11:-0.47433 12:-0.260471 13:-0.172551 14:0.512401 15:0.0851764 16:-0.874312 17:-0.308754 18:-0.534307 19:0.890568 20:-0.308076 21:-0.538179 22:-0.348165 23:-0.413916 24:-0.162915 25:-0.80926 26:-0.434771 27:-0.529278 28:0.180173 29:0.00693565 30:-0.298383 31:0.0986016 32:-0.0447686 33:0.0500944 34:-0.466657 35:-0.174194 36:-0.644692 37:0.582006 38:-0.492788 39:-0.241031 40:-0.146581 41:-0.340963 42:-0.284887 43:-0.831901 44:-0.0508161 45:-0.569535 46:0.789775 47:-0.448604 48:-0.461988 49:-0.202081 50:-0.221907 51:-0.204965 52:-0.85924 53:-0.565784 54:-0.591498 55:0.288634 56:-0.31997 57:-0.742931 58:-0.208262 59:0.194945 60:0.145509 61:-0.300971 62:-0.364286 63:-0.660092 64:0.715592 65:-0.372733 66:-0.795726 67:-0.580571 68:-0.383976 69:0.280008 70:-0.360323 71:-0.246516 72:-0.6179 73:0.550844 74:-0.578381 75:-0.75094 76:-0.455011 77:-0.220514 78:0.396756 79:-0.533831 80:-0.107296 81:-0.322164 
0 0 0.3406755104229455 1:0.165588 2:-0.522796 3:-0.685924 4:0.421211 5:0.20495 6:-0.057364 7:-0.685931 8:-0.879229 9:-0.366186 10:0.640683 11:-0.401916 12:-0.536605 13:0.0381678 14:-0.200864 15:-0.447621 16:-0.911006 17:-0.810044 18:0.0487415 19:0.652531 20:-0.0477487 21:-0.78347 22:-0.268573 23:-0.188609 24:-0.314172 25:-0.912522 26:-0.862575 27:-0.107002 28:0.137871 29:-0.625513 30:-0.768031 31:-0.0950042 32:0.268785 33:0.094923 34:-0.761158 35:-0.777151 36:-0.354306 37:0.678219 38:-0.765048 39:-0.891882 40:-0.543267 41:-0.336488 42:0.0205336 43:-0.828233 44:-0.710343 45:-0.175556 46:0.509868 47:-0.871188 48:-0.942557 49:-0.678976 50:-0.107851 51:-0.256155 52:-0.904558 53:-0.809994 54:0.207748 55:-0.141531 56:-0.742962 57:-0.802578 58:-0.300525 59:0.297274 60:0.0989812 61:-0.422439 62:-0.405407 63:0.0136509 64:0.315966 65:-0.570851 66:-0.784267 67:-0.70733 68:-0.589174 69:0.129962 70:0.0186091 71:0.00126524 72:-0.110214 73:-0.00456181 74:-0.683121 75:-0.618714 76:-0.510995 77:-0.420074 78:0.0559291 79:-0.221467 80:0.356498 81:0.00938501 
1 0 0 1:0.318143 2:-0.728503 3:-0.610682 4:0.0200959 5:0.530993 6:-0.660396 7:-0.804736 8:-0.661756 9:-0.292378 10:-0.0384096 11:-0.818573 12:-0.237009 13:0.404376 14:0.147529 15:-0.770398 16:-0.784003 17:-0.495194 18:-0.0982224 19:0.39475 20:-0.0915734 21:-0.183761 22:-0.0903694 23:-0.000549714 24:-0.641467 25:-0.830404 26:-0.751378 27:-0.521855 28:-0.012154 29:-0.85145 30:-0.910345 31:-0.584974 32:0.790988 33:-0.730545 34:-0.871512 35:-0.854609 36:-0.46449 37:0.00332477 38:-0.805099 39:-0.813902 40:-0.415199 41:0.629677 42:-0.854006 43:-0.88581 44:-0.738945 45:-0.225063 46:0.417197 47:-0.779647 48:-0.850518 49:-0.777118 50:0.466902 51:-0.870613 52:-0.957332 53:-0.707384 54:-0.222074 55:-0.0117341 56:-0.902167 57:-0.844586 58:-0.816335 59:0.796941 60:-0.501601 61:-0.827762 62:-0.90279 63:-0.281936 64:0.333543 65:-0.686947 66:-0.749495 67:-0.780381 68:0.585093 69:-0.209726 70:-0.701652 71:-0.844604 72:-0.298098 73:0.285455 74:-0.825602 75:-0.884034 76:-0.901461 77:0.243182 78:-0.331473 79:-0.816553 80:-0.344358 81:0.291188 
0 0 0.2943026912367168 1:-0.256292 2:-0.629939 3:1 4:-0.289171 5:-0.658382 6:-0.908316 7:-0.976279 8:-0.954522 9:-0.803482 10:0.143356 11:-0.661415 12:0.762543 13:-0.448503 14:-0.892792 15:-0.981584 16:-0.980059 17:-0.954931 18:-0.547893 19:-0.249282 20:-0.201299 21:0.725 22:-0.129286 23:-0.545122 24:-0.513406 25:-0.986805 26:-0.96689 27:-0.824799 28:0.314717 29:-0.52522 30:-0.702162 31:0.209962 32:0.218124 33:-0.578864 34:-0.751106 35:-0.707912 36:-0.347845 37:0.895376 38:-0.685083 39:-0.804577 40:-0.278854 41:-0.812832 42:-0.487856 43:-0.846209 44:-0.777604 45:-0.139931 46:0.490444 47:-0.677668 48:-0.936892 49:-0.0827131 50:0.0353877 51:0.0282976 52:-0.957604 53:-0.580316 54:-0.411483 55:0.000297161 56:-0.902131 57:-0.832562 58:0.232438 59:0.045051 60:-0.419157 61:-0.227512 62:-0.153997 63:0.126533 64:0.497814 65:-0.850108 66:-0.952586 67:-0.681423 68:-0.789649 69:-0.00822228 70:-0.244948 71:-0.231814 72:0.259768 73:0.220485 74:-0.844475 75:-0.858672 76:-0.454079 77:-0.361181 78:0.39485 79:-0.582029 80:-0.277386 81:0.201857 
1 0 0 1:0.0427718 2:-0.611248 3:-0.522128 4:0.400584 5:0.403265 6:-0.363435 7:-0.918581 8:-0.834525 9:-0.43984 10:0.234314 11:-0.804894 12:-0.509345 13:0.401836 14:0.228294 15:-0.69898 16:-0.883199 17:-0.438199 18:-0.24534 19:0.199332 20:-0.248309 21:-0.36204 22:0.174007 23:0.0325471 24:0.0783516 25:-0.849364 26:-0.599237 27:-0.6027 28:-0.0335637 29:-0.907752 30:-0.905009 31:-0.313169 32:0.617695 33:-0.194103 34:-0.863637 35:-0.726703 36:-0.470534 37:0.332 38:-0.895958 39:-0.838612 40:-0.197239 41:0.16404 42:-0.271785 43:-0.810414 44:-0.328712 45:-0.294256 46:0.165664 47:-0.877277 48:-0.836112 49:-0.275481 50:0.571125 51:-0.0914556 52:-0.892984 53:-0.523941 54:-0.618388 55:-0.0348175 56:-0.877978 57:-0.895232 58:-0.248589 59:0.421772 60:0.0137664 61:-0.134549 62:-0.572354 63:-0.463009 64:0.22737 65:-0.679514 66:-0.848578 67:-0.552746 68:0.0770289 69:0.422292 70:-0.200255 71:-0.472207 72:-0.574633 73:0.0268574 74:-0.799985 75:-0.69936 76:-0.465951 77:0.290589 78:0.0519876 79:-0.149269 80:0.0841455 81:-0.531691 
1 0 0 1:-0.0062574 2:-0.548355 3:-0.03942 4:-0.311158 5:0.145477 6:-0.355519 7:-0.88456 8:-0.936094 9:0.295495 10:0.218918 11:-0.61385 12:-0.353317 13:-0.202283 14:-0.365199 15:-0.949758 16:-0.90922 17:-0.892871 18:0.733169 19:0.257361 20:-0.205385 21:-0.108786 22:-0.224838 23:0.0298234 24:-0.681237 25:-0.799276 26:-0.908762 27:-0.147654 28:-0.688047 29:-0.798683 30:-0.885318 31:-0.795308 32:0.591075 33:-0.558981 34:-0.738782 35:-0.857163 36:0.311377 37:-0.54717 38:-0.827797 39:-0.808868 40:-0.418556 41:-0.411646 42:-0.869828 43:-0.7508 44:-0.802526 45:0.91514 46:-0.152026 47:-0.642179 48:-0.857357 49:-0.470733 50:0.550698 51:-0.76682 52:-0.7248 53:-0.844712 54:0.108356 55:-0.498404 56:-0.982552 57:-0.94242 58:-0.700814 59:0.347792 60:-0.699427 61:0.247457 62:-0.543499 63:0.292641 64:-0.131578 65:-0.918444 66:-0.949818 67:-0.954067 68:-0.299852 69:-0.28329 70:0.000753601 71:-0.495517 72:0.614166 73:-0.338478 74:-0.881426 75:-0.918291 76:-0.973507 77:0.289276 78:-0.327606 79:-0.145512 80:-0.162501 81:0.20092 
1 0.01042321825287233 1 1:-0.0842295 2:-0.314413 3:-0.203926 4:0.514383 5:0.0819157 6:-0.146253 7:-0.748657 8:-0.632804 9:-0.846546 10:-0.225728 11:-0.473361 12:-0.32553 13:0.348291 14:0.314271 15:0.0649808 16:-0.535969 17:-0.498074 18:-0.748257 19:0.142512 20:0.378798 21:-0.139956 22:-0.141514 23:-0.805999 24:0.154172 25:-0.252842 26:-0.446058 27:-0.808782 28:0.356381 29:-0.212676 30:-0.300817 31:0.268995 32:0.0483688 33:-0.450933 34:-0.78732 35:-0.292938 36:-0.69072 37:0.00850379 38:-0.545461 39:-0.466769 40:0.258856 41:0.225194 42:-0.490908 43:-0.767295 44:-0.0140821 45:-0.61004 46:0.297898 47:0.246284 48:-0.17058 49:-0.0111697 50:-0.305264 51:0.180491 52:-0.506258 53:-0.284658 54:-0.817562 55:0.450398 56:-0.543294 57:-0.863131 58:-0.366257 59:0.195488 60:0.118055 61:-0.561101 62:-0.422545 63:-0.316401 64:0.437162 65:-0.423467 66:-0.911638 67:-0.499473 68:0.0535344 69:0.194399 70:-0.788882 71:-0.349276 72:-0.226551 73:0.417126 74:-0.704306 75:-0.778992 76:-0.304457 77:0.072829 78:0.418394 79:-0.495693 80:-0.221718 81:-0.509926 
1 1 1 1:-0.61399 2:-0.544515 3:-0.114331 4:-0.36909 5:-0.208598 6:-0.14109 7:0.351675 8:-0.0604136 9:0.200186 10:-0.632122 11:-0.509345 12:-0.0553429 13:-0.64047 14:-0.0935542 15:-0.371713 16:0.468237 17:-0.0953687 18:-0.0663756 19:-0.429535 20:-0.46466 21:0.0200022 22:-0.811284 23:0.135316 24:-0.358657 25:0.0349996 26:-0.46907 27:-0.010759 28:-0.263121 29:-0.362492 30:-0.00848475 31:-0.40899 32:0.024655 33:-0.407913 34:-0.380099 35:-0.431147 36:0.361739 37:-0.249742 38:-0.521111 39:-0.197506 40:-0.186083 41:-0.22699 42:-0.642653 43:-0.205555 44:-0.369938 45:0.377998 46:-0.0745174 47:-0.388482 48:-0.061922 49:-0.303612 50:0.426581 51:-0.580086 52:-0.289909 53:-0.496457 54:-0.321461 55:-0.117179 56:-0.779528 57:-0.481562 58:-0.569395 59:0.329802 60:-0.409656 61:-0.771573 62:-0.777668 63:0.58534 64:0.25915 65:-0.522733 66:-0.792395 67:-0.33201 68:-0.0719718 69:-0.465457 70:-0.753309 71:-0.629707 72:0.541068 73:0.198249 74:-0.437111 75:-0.514735 76:0.0258553 77:0.551887 78:-0.399144 79:-0.689534 80:-0.474817 81:-0.223056 
0 0 1 1:0.455555 2:-0.467376 3:-0.478083 4:-0.0302209 5:0.219249 6:-0.11872 7:-0.927185 8:-0.99302 9:-0.236666 10:0.955258 11:-0.639503 12:-0.860213 13:-0.251843 14:-0.230784 15:-0.787482 16:-0.992089 17:-0.90604 18:0.204343 19:0.61014 20:-0.651994 21:-0.91346 22:-0.233762 23:0.292631 24:-0.133614 25:-0.886093 26:-0.904097 27:-0.379075 28:0.137843 29:-0.760259 30:-0.945465 31:-0.803066 32:0.264655 33:0.291538 34:-0.72016 35:-0.717453 36:-0.135087 37:0.698478 38:-0.746425 39:-0.937801 40:-0.865538 41:-0.489859 42:0.0679916 43:-0.777121 44:-0.7536 45:-0.0356147 46:0.396756 47:-0.707953 48:-0.871646 49:-0.39644 50:0.321543 51:0.211215 52:-0.825533 53:-0.775781 54:-0.600056 55:-0.224191 56:-0.733713 57:-0.89767 58:-0.731645 59:-0.067604 60:0.374641 61:0.0100647 62:0.0181263 63:-0.167373 64:0.0467204 65:-0.596381 66:-0.778017 67:-0.735938 68:-0.670971 69:0.406322 70:0.0960985 71:0.125493 72:-0.293039 73:-0.174321 74:-0.687532 75:-0.726733 76:-0.235927 77:-0.463106 78:0.414282 79:-0.185064 80:0.517796 81:-0.540351 
1 1 1 1:0.31962 2:-0.0791883 3:0.109519 4:0.00553842 5:-0.471017 6:-0.292801 7:-0.469766 8:-0.457704 9:-0.295514 10:0.468404 11:-0.252042 12:-0.136715 13:-0.0433295 14:-0.459558 15:-0.517389 16:-0.787933 17:-0.46384 18:-0.0490786 19:-0.123255 20:-0.205666 21:0.0346537 22:0.0686455 23:-0.309374 24:0.147935 25:-0.761847 26:-0.605296 27:-0.189611 28:0.178452 29:0.30368 30:-0.301307 31:-0.0448953 32:-0.324872 33:-0.0281695 34:0.0171781 35:-0.145958 36:-0.166153 37:0.289026 38:-0.199832 39:-0.609582 40:-0.263906 41:-0.854197 42:-0.269985 43:-0.586595 44:-0.183499 45:0.288565 46:0.0283199 47:-0.440082 48:-0.536273 49:-0.112949 50:-0.179163 51:0.428082 52:-0.622248 53:-0.524907 54:-0.0201873 55:-0.0988676 56:-0.219779 57:-0.49476 58:-0.447446 59:-0.161807 60:-0.0394513 61:0.0247389 62:-0.0349486 63:0.136854 64:0.00441811 65:-0.381668 66:-0.856806 67:-0.804216 68:-0.756408 69:0.0981855 70:-0.540869 71:0.085547 72:0.51165 73:-0.0195529 74:-0.650886 75:-0.757626 76:-0.33909 77:-0.211798 78:0.507232 79:-0.574084 80:-0.181861 81:0.04329 
0 0 1 1:0.211675 2:-0.746454 3:-0.596319 4:-0.191045 5:0.471896 6:-0.667986 7:-0.892544 8:-0.794688 9:0.186534 10:-0.038322 11:-0.693414 12:-0.294883 13:-0.464512 14:-0.0669872 15:-0.651291 16:-0.86021 17:-0.711173 18:0.811616 19:0.282899 20:-0.563008 21:-0.591426 22:-0.606644 23:0.0839289 24:-0.601355 25:-0.887089 26:-0.870151 27:0.472341 28:-0.428439 29:-0.890962 30:-0.809503 31:-0.559638 32:0.21706 33:-0.330306 34:-0.49257 35:-0.421455 36:0.519251 37:-0.268807 38:-0.94615 39:-0.949221 40:-0.94713 41:0.103929 42:-0.746665 43:-0.883665 44:-0.774279 45:0.624582 46:0.0278 47:-0.948591 48:-0.971683 49:-0.926641 50:0.402228 51:-0.831863 52:-0.966111 53:-0.917425 54:0.317868 55:-0.331459 56:-0.980435 57:-0.771989 58:-0.46407 59:-0.167506 60:-0.274905 61:0.184848 62:-0.136699 63:0.528276 64:0.000278051 65:-0.741968 66:-0.589384 67:-0.739986 68:-0.0669475 69:-0.315384 70:-0.0674683 71:-0.110389 72:0.262372 73:-0.0275357 74:-0.71076 75:-0.486948 76:-0.758249 77:0.180726 78:-0.336049 79:-0.406302 80:-0.179798 81:0.288306 
0.5754958812453309 0 0 1:-0.3426 2:-0.894724 3:-0.925595 4:-0.740864 5:0.919965 6:-0.423773 7:-0.615816 8:-0.0184358 9:-0.251759 10:0.203475 11:-0.822179 12:-0.731178 13:-0.266546 14:-0.302754 15:-0.840006 16:-0.913453 17:-0.190877 18:0.77532 19:0.190551 20:-0.287787 21:-0.661327 22:-0.101249 23:0.268518 24:-0.558764 25:-0.898096 26:-0.733888 27:-0.042097 28:-0.290742 29:-0.915265 30:-0.962412 31:-0.731333 32:0.803628 33:-0.451489 34:-0.65289 35:-0.696207 36:-0.323067 37:0.263593 38:-0.918218 39:-0.959085 40:-0.832558 41:-0.408693 42:-0.409265 43:-0.766192 44:-0.68176 45:0.538176 46:-0.0984791 47:-0.89765 48:-0.958857 49:-0.728565 50:0.7001 51:-0.424682 52:-0.948092 53:-0.822581 54:-0.113174 55:-0.446039 56:-0.956279 57:-0.960974 58:-0.615272 59:0.747118 60:-0.59742 61:-0.334686 62:-0.602299 63:-0.132814 64:0.201636 65:-0.922813 66:-0.996296 67:-0.935946 68:-0.703148 69:0.120347 70:-0.320229 71:-0.482062 72:0.537391 73:-0.0993937 74:-0.755915 75:-0.964582 76:-0.725734 77:0.0895672 78:0.381508 79:-0.376887 80:-0.265271 81:-0.00692273 
1 0 0 1:-0.233123 2:-0.862484 3:0.312079 4:-0.800149 5:0.645526 6:-0.75912 7:-0.994017 8:-0.995301 9:-0.795594 10:0.242867 11:-0.758216 12:0.669881 13:-0.471899 14:-0.602379 15:-1 16:-0.998212 17:-0.99016 18:-0.394305 19:-0.0166442 20:-0.543488 21:0.71666 22:-0.389058 23:-0.274243 24:-0.734962 25:-0.935488 26:-0.960644 27:-0.717366 28:-0.36332 29:-0.869241 30:-0.930718 31:-0.722765 32:0.995189 33:-0.947749 34:-1 35:-0.780636 36:-0.763691 37:0.567473 38:-0.816065 39:-0.870293 40:-0.513219 41:-0.28086 42:-0.642607 43:-0.948838 44:-0.370524 45:0.108951 46:0.23855 47:-0.84617 48:-0.865235 49:-0.463166 50:0.42559 51:-0.446624 52:-0.835972 53:-0.508661 54:-0.148009 55:-0.539713 56:-0.87388 57:-0.884685 58:-0.512332 59:0.891154 60:-0.928852 61:-0.448992 62:-0.452594 63:-0.575982 64:0.270046 65:-0.741359 66:-0.906256 67:-0.869281 68:-0.602427 69:0.131294 70:-0.246835 71:0.154559 72:0.0870589 73:0.10258 74:-0.876664 75:-0.925934 76:-0.685256 77:-0.136897 78:0.246759 79:-0.467395 80:-0.0869921 81:0.141614 
1 0 0 1:-0.561669 2:-0.864757 3:-0.843878 4:-0.323326 5:0.906002 6:-0.626842 7:-0.824074 8:-0.760537 9:0.0741334 10:-0.559012 11:-0.936661 12:-0.390977 13:-0.367922 14:0.528385 15:-0.550205 16:-0.694426 17:-0.791683 18:0.629482 19:0.127453 20:-0.519753 21:-0.422428 22:-0.57514 23:0.205193 24:-0.481293 25:-0.698065 26:-0.819824 27:0.340544 28:-0.687253 29:-0.984331 30:-0.963817 31:-0.734163 32:0.856314 33:-0.657155 34:-0.933747 35:-0.936675 36:-0.116249 37:-0.256806 38:-0.980243 39:-0.958378 40:-0.757138 41:0.653033 42:-0.594984 43:-0.930956 44:-0.929377 45:0.0661291 46:0.266056 47:-0.964349 48:-0.962018 49:-0.879338 50:0.305073 51:-0.799937 52:-0.935705 53:-0.832108 54:0.214622 55:-0.569011 56:-0.917075 57:-0.877645 58:-0.785161 59:0.697808 60:-0.335285 61:-0.124105 62:-0.704491 63:-0.20326 64:0.148583 65:-0.658623 66:-0.734353 67:-0.560672 68:0.456757 69:-0.103474 70:0.0755251 71:-0.792693 72:-0.701332 73:0.47921 74:-0.738168 75:-0.598585 76:-0.49597 77:0.0245346 78:-0.351418 79:-0.031115 80:-0.441475 81:-0.0238419 
1 0.6569150360190039 1 1:0.0179967 2:-0.260215 3:-0.360377 4:0.520552 5:-0.117573 6:0.086498 7:-0.668224 8:-0.473152 9:-0.58735 10:0.154591 11:-0.381425 12:-0.334959 13:0.378939 14:-0.0122394 15:-0.250337 16:-0.647679 17:-0.500009 18:-0.429128 19:0.568333 20:0.132426 21:-0.388732 22:-0.414907 23:-0.400016 24:-0.120007 25:-0.733555 26:-0.610161 27:-0.24075 28:0.314304 29:-0.222171 30:-0.492568 31:-0.0322058 32:-0.0154104 33:0.239343 34:-0.455461 35:-0.474028 36:-0.621343 37:0.566691 38:-0.52608 39:-0.637152 40:-0.219575 41:-0.319144 42:-0.0969876 43:-0.628481 44:-0.333794 45:-0.299929 46:0.61732 47:-0.273259 48:-0.459664 49:-0.38492 50:-0.285782 51:-0.168757 52:-0.907175 53:-0.342057 54:-0.213276 55:0.416061 56:-0.324664 57:-0.707154 58:-0.367825 59:0.105504 60:0.200901 61:-0.224489 62:-0.530818 63:-0.476621 64:0.547944 65:-0.399461 66:-0.830192 67:-0.72491 68:-0.435675 69:0.442313 70:-0.261429 71:-0.409003 72:-0.422214 73:0.353564 74:-0.81043 75:-0.798216 76:-0.508069 77:-0.187101 78:0.314684 79:-0.407651 80:-0.0116433 81:-0.173238 
0.127479796419618 0 0 1:0.901572 2:-0.41849 3:-0.248975 4:-0.246409 5:-0.674155 6:-0.680557 7:-0.828333 8:-0.805312 9:0.27722 10:0.636973 11:-0.752327 12:-0.529527 13:0.131537 14:-0.535169 15:-0.84825 16:-0.887679 17:-0.760554 18:0.31979 19:0.166909 20:-0.250889 21:-0.364554 22:0.19103 23:-0.00195401 24:-0.177689 25:-0.757076 26:-0.754286 27:-0.318457 28:0.795262 29:-0.673211 30:-0.807213 31:-0.484849 32:-0.456833 33:-0.419399 34:-0.65985 35:-0.690544 36:0.413897 37:0.465693 38:-0.849307 39:-0.881792 40:-0.222004 41:-0.533869 42:-0.666221 43:-0.828274 44:-0.710443 45:0.316537 46:0.144499 47:-0.824274 48:-0.856991 49:-0.111554 50:0.500371 51:-0.252207 52:-0.79185 53:-0.731016 54:-0.435475 55:0.710517 56:-0.803084 57:-0.833397 58:-0.483332 59:-0.0126082 60:-0.422107 61:-0.673065 62:-0.76264 63:0.44922 64:0.683404 65:-0.815133 66:-0.861767 67:-0.807198 68:-0.394611 69:-0.293481 70:-0.685178 71:-0.709417 72:0.399372 73:0.0820079 74:-0.798856 75:-0.642421 76:-0.308335 77:0.65625 78:-0.000667498 79:-0.763447 80:-0.592875 81:-0.317123 
1 0 0 1:-0.334047 2:-0.541166 3:-0.691247 4:-0.541436 5:0.675923 6:-0.212302 7:-0.779634 8:-0.837136 9:0.234921 10:-0.140101 11:-0.560251 12:-0.678775 13:0.152226 14:-0.36585 15:-0.750847 16:-0.883561 17:-0.859254 18:0.808094 19:-0.315029 20:-0.47435 21:-0.808361 22:0.382301 23:0.0165711 24:0.144584 25:-0.773037 26:-0.915256 27:0.147008 28:-0.336059 29:-0.891896 30:-0.799163 31:-0.468799 32:0.494269 33:-0.375591 34:-0.682286 35:-0.789443 36:0.188123 37:-0.0245153 38:-0.86497 39:-0.813748 40:-0.186606 41:-0.409311 42:-0.53992 43:-0.742437 44:-0.821761 45:0.602347 46:-0.400621 47:-0.72094 48:-0.819662 49:0.234015 50:0.25435 51:-0.139023 52:-0.625261 53:-0.880915 54:0.0432266 55:-0.218516 56:-0.451325 57:-0.496624 58:0.259874 59:0.490565 60:-0.585144 61:-0.688714 62:-0.56803 63:-0.152101 64:0.23972 65:-0.0797492 66:-0.655938 67:-0.241618 68:-0.387139 69:0.0153356 70:-0.386469 71:-0.40433 72:0.24649 73:-0.222336 74:-0.535767 75:-0.600296 76:0.39592 77:0.0693592 78:0.0511877 79:-0.381669 80:-0.506469 81:0.0685937 
1 0 0 1:-0.299296 2:-0.675381 3:0.387204 4:-0.320173 5:0.219888 6:-0.536967 7:-0.619362 8:-0.410038 9:-0.322589 10:-0.125193 11:-0.69598 12:0.518103 13:-0.341931 14:-0.335863 15:-0.550776 16:-0.552136 17:-0.519492 18:-0.148217 19:-0.6309 20:-0.584102 21:0.64607 22:-0.215396 23:-0.351843 24:-0.349927 25:-0.567754 26:-0.580386 27:-0.314844 28:0.103515 29:-0.66908 30:-0.427332 31:-0.506613 32:0.452713 33:-0.314318 34:-0.649126 35:-0.708081 36:-0.175367 37:0.438453 38:-0.786569 39:-0.535448 40:-0.313625 41:-0.311712 42:-0.464303 43:-0.66217 44:-0.577337 45:0.136922 46:-0.0116172 47:-0.735623 48:-0.0594343 49:0.00190512 50:0.327613 51:-0.302092 52:-0.717867 53:-0.583195 54:-0.359064 55:0.197553 56:-0.590887 57:-0.758545 58:-0.391259 59:0.567465 60:-0.357439 61:-0.600685 62:-0.784199 63:-0.221641 64:0.717312 65:-0.449281 66:-0.765105 67:-0.569756 68:-0.147599 69:-0.128818 70:-0.712799 71:-0.735663 72:0.0396323 73:0.387178 74:-0.623247 75:-0.432364 76:0.166593 77:0.417771 78:0.0515297 79:-0.775975 80:-0.602212 81:-0.495774 
1 1 1 1:-0.593766 2:-0.392692 3:-0.140728 4:-0.272115 5:0.389913 6:-0.570953 7:-0.196641 8:-0.491377 9:0.0810609 10:-0.62029 11:-0.384317 12:-0.176896 13:-0.0689472 14:0.100537 15:-0.307499 16:-0.17199 17:-0.397891 18:0.173619 19:-0.782898 20:-0.255471 21:0.191377 22:-0.239831 23:-0.403307 24:-0.15578 25:0.404018 26:-0.530575 27:-0.488875 28:-0.448882 29:-0.461199 30:-0.254787 31:-0.603418 32:0.37276 33:-0.634251 34:-0.446673 35:-0.681277 36:0.310808 37:-0.482575 38:-0.578599 39:-0.287884 40:-0.0825308 41:0.128185 42:-0.683942 43:-0.711868 44:-0.671626 45:0.327881 46:-0.587674 47:-0.360096 48:0.00496754 49:-0.181227 50:0.639694 51:-0.454794 52:-0.598514 53:-0.629975 54:-0.41409 55:-0.473381 56:-0.713802 57:-0.797552 58:-0.685137 59:0.481659 60:-0.663541 61:-0.536173 62:-0.801359 63:0.597342 64:-0.323085 65:-0.709125 66:-0.732047 67:-0.483757 68:0.381885 69:-0.540105 70:-0.665603 71:-0.748741 72:0.559686 73:-0.374029 74:-0.71329 75:-0.653916 76:-0.372725 77:0.940229 78:-0.33301 79:-0.781536 80:-0.653667 81:-0.298792 
0 1 0 1:-0.775484 2:-0.619585 3:-0.803728 4:-0.866743 5:0.553332 6:-0.469797 7:-0.252419 8:-0.0181485 9:0.428632 10:-0.839188 11:-0.612111 12:-0.496726 13:-0.98636 14:0.111989 15:-0.789439 16:-0.568934 17:-0.234545 18:1 19:-0.530561 20:-0.302056 21:-0.143415 22:-0.871728 23:0.445748 24:-0.424141 25:-0.493905 26:-0.629814 27:0.159433 28:-0.900893 29:-0.935862 30:-0.990876 31:-0.920088 32:0.421696 33:-0.656374 34:-0.66179 35:-0.622879 36:0.569429 37:-0.950002 38:-0.968638 39:-0.994336 40:-0.902139 41:-0.258647 42:-0.882317 43:-0.834012 44:-0.71473 45:1 46:-0.742486 47:-0.975494 48:-0.965339 49:-0.847792 50:0.736128 51:-0.859576 52:-0.949506 53:-0.803058 54:0.255164 55:-0.544948 56:-0.91752 57:-0.91624 58:-0.649813 59:0.210943 60:-0.59511 61:0.164497 62:-0.642936 63:0.579821 64:-0.0961604 65:-0.882131 66:-0.920839 67:-0.870023 68:-0.0364919 69:-0.375913 70:-0.514041 71:-0.628842 72:0.735821 73:-0.406528 74:-0.914201 75:-0.740022 76:-0.715007 77:0.574848 78:-0.384106 79:-0.718643 80:-0.547502 81:0.312443 
1 0 0 1:-0.059171 2:-0.605354 3:-0.37829 4:0.0313722 5:-0.307322 6:0.0409804 7:-0.554219 8:-0.487986 9:0.541068 10:-0.0134717 11:-0.53286 12:-0.7516 13:0.0821642 14:-0.489198 15:-0.585806 16:-0.687914 17:-0.633308 18:0.78077 19:-0.525379 20:0.0932557 21:-0.516441 22:0.106061 23:-0.0508644 24:0.0255173 25:-0.779478 26:-0.596472 27:0.135744 28:-0.19769 29:-0.724837 30:-0.798911 31:-0.201559 32:-0.396237 33:-0.139541 34:-0.53461 35:-0.585948 36:0.786687 37:-0.211112 38:-0.833523 39:-0.949462 40:-0.16855 41:-0.536722 42:-0.61827 43:-0.913885 44:-0.789192 45:0.764698 46:-0.325608 47:-0.722922 48:-0.897938 49:-0.0528033 50:0.39675 51:0.0166747 52:-0.911595 53:-0.684026 54:-0.0211199 55:-0.158098 56:-0.632002 57:-0.790907 58:-0.0827513 59:-0.158388 60:-0.397925 61:-0.413867 62:-0.559341 63:0.888467 64:0.0201548 65:-0.697489 66:-0.89805 67:-0.647857 68:-0.132154 69:-0.180312 70:-0.730177 71:-0.822335 72:0.704729 73:-0.117284 74:-0.63702 75:-0.771036 76:0.174721 77:0.309895 78:0.208265 79:-0.745742 80:-0.69175 81:-0.0407999 
0.8387358307177163 0 0 1:0.707225 2:-0.830062 3:-0.456921 4:-0.584592 5:0.45755 6:-0.666141 7:-0.952064 8:-1 9:-0.27708 10:1 11:-0.827198 12:-0.599939 13:-0.479947 14:-0.0821217 15:-0.998632 16:-1 17:-0.98842 18:0.159571 19:0.164498 20:-0.507735 21:-0.389952 22:-0.350249 23:0.60992 24:-0.705054 25:-0.926837 26:-0.831486 27:-0.424664 28:-0.0244941 29:-0.79041 30:-0.879616 31:-0.693626 32:0.643105 33:-0.961974 34:-0.985555 35:-0.962419 36:-0.014493 37:0.547279 38:-0.849743 39:-0.948423 40:-0.747213 41:-0.0256163 42:-0.988882 43:-0.97539 44:-0.984397 45:0.090819 46:0.247571 47:-0.899787 48:-0.965154 49:-0.576959 50:0.830674 51:-0.973882 52:-0.979861 53:-0.995035 54:-0.820249 55:-0.168587 56:-0.595186 57:-0.687807 58:-0.33665 59:0.221317 60:-1 61:0.20523 62:0.0976195 63:-0.273733 64:0.702488 65:-0.502768 66:-0.81073 67:-0.671323 68:-0.212298 69:-0.758503 70:0.0365683 71:0.0393122 72:-0.409261 73:0.596153 74:-0.849242 75:-0.936793 76:-0.381777 77:0.462225 78:-0.629508 79:-0.135118 80:-0.14337 81:-0.80302 
0.5898287189403786 0.3965758059265263 1 1:-0.10038 2:-0.119397 3:0.308042 4:-0.120377 5:-0.727499 6:-0.802981 7:-0.676253 8:0.0426141 9:0.173022 10:-0.0490445 11:-0.50661 12:-0.0826484 13:0.135504 14:-0.197966 15:-0.756489 16:-0.80121 17:-0.3025 18:0.173794 19:-0.402528 20:-0.46138 21:-0.204349 22:0.131656 23:0.126276 24:-0.136333 25:-0.873415 26:-0.845242 27:0.0959356 28:-0.17006 29:-0.70406 30:-0.777938 31:-0.38413 32:-0.972568 33:-0.503531 34:-0.210676 35:0.402599 36:1 37:-0.408336 38:-0.846939 39:-0.854125 40:0.0491929 41:-0.316333 42:-0.326062 43:-0.526435 44:0.0911406 45:0.448716 46:-0.194195 47:-0.819206 48:-0.929486 49:-0.0787549 50:0.318086 51:0.0174506 52:-0.779804 53:-0.937233 54:0.0400006 55:0.173129 56:-0.808802 57:-0.777654 58:-0.229571 59:-0.618262 60:-0.508941 61:-0.110289 62:-0.460863 63:1 64:-0.0651533 65:-0.736574 66:-0.882449 67:-0.0846459 68:-0.350621 69:0.101636 70:-0.560119 71:-0.592037 72:0.523774 73:0.156107 74:-0.592474 75:-0.771757 76:-0.0570733 77:-0.0258881 78:0.539476 79:-0.657372 80:-0.825934 81:-0.0872915 
1 0 0.09308941530734 1:-0.218648 2:-0.808027 3:0.340444 4:-0.580261 5:0.567675 6:-0.799121 7:-0.965694 8:-0.980362 9:-0.707627 10:0.374022 11:-0.749936 12:0.544801 13:-0.456401 14:-0.528588 15:-0.928354 16:-0.947696 17:-0.912307 18:-0.274785 19:-0.184298 20:-0.253103 21:0.562304 22:-0.282866 23:-0.119714 24:-0.432849 25:-0.890531 26:-0.812336 27:-0.6741 28:-0.45575 29:-0.786429 30:-0.944754 31:-0.727528 32:0.924521 33:-0.710589 34:-0.638176 35:-0.563368 36:-0.497501 37:0.184076 38:-0.775186 39:-0.921594 40:-0.537093 41:-0.685902 42:-0.276845 43:-0.462801 44:-0.231466 45:0.544504 46:-0.260956 47:-0.909655 48:-0.831693 49:-0.356618 50:0.415405 51:0.116136 52:-0.636678 53:-0.402609 54:-0.0239616 55:-0.651454 56:-0.924172 57:-0.98351 58:-0.647602 59:0.561254 60:-0.488712 61:0.182979 62:-0.455968 63:-0.202345 64:-0.322859 65:-0.880775 66:-0.982823 67:-0.930922 68:-1 69:0.145229 70:-0.209393 71:-0.199225 72:0.716625 73:-0.533937 74:-0.879845 75:-0.927125 76:-0.707218 77:-0.162053 78:0.5412 79:-0.505689 80:-0.0350551 81:0.14299 
0.7137246560905902 0 0 1:-0.125012 2:-0.697376 3:0.35624 4:-0.387978 5:0.381299 6:-0.566928 7:-0.910931 8:-0.890558 9:-0.542198 10:0.279056 11:-0.654165 12:0.594021 13:-0.483535 14:-0.810706 15:-0.886362 16:-0.971859 17:-0.871201 18:-0.169029 19:-0.204098 20:-0.557891 21:0.898741 22:-0.423014 23:-0.618342 24:-0.61342 25:-0.968823 26:-0.930974 27:-0.710566 28:-0.0586813 29:-0.809974 30:-0.854276 31:-0.477717 32:0.656444 33:-0.190076 34:-0.788693 35:-0.817041 36:-0.43509 37:0.815356 38:-0.84573 39:-0.895672 40:-0.340594 41:-0.815291 42:-0.688754 43:-0.909318 44:-0.772906 45:0.0894979 46:0.73158 47:-0.852464 48:-0.951561 49:-0.162979 50:-0.115573 51:-0.49052 52:-0.980228 53:-0.822498 54:-0.25122 55:-0.217596 56:-0.893744 57:-0.893069 58:-0.370623 59:0.796815 60:-0.345495 61:-0.834184 62:-0.794901 63:-0.417256 64:0.915753 65:-0.786086 66:-0.944852 67:-0.608619 68:-0.660962 69:-0.213895 70:-0.709245 71:-0.633428 72:0.181638 73:0.672713 74:-0.705178 75:-0.898438 76:-0.0629839 77:-0.166579 78:-0.0873043 79:-0.811974 80:-0.586877 81:0.157755 
1 1 1 1:0.938645 2:-0.289032 3:-0.33484 4:-0.135372 5:-0.0969527 6:-0.879142 7:-0.989526 8:-0.992044 9:-0.409239 10:0.473382 11:-0.367816 12:-0.32648 13:0.370603 14:-0.275682 15:-0.930511 16:-0.923557 17:-0.910537 18:-0.204576 19:0.696276 20:-0.148229 21:-0.47978 22:-0.0211644 23:-0.147955 24:-0.760896 25:-0.83459 26:-0.933733 27:-0.540686 28:0.111682 29:-0.184068 30:-0.732653 31:-0.194014 32:-0.0023944 33:0.017539 34:-0.172153 35:-0.00110119 36:-0.120638 37:0.389943 38:-0.407941 39:-0.752831 40:-0.328934 41:-0.357927 42:-0.0992549 43:-0.288774 44:0.16839 45:-0.198443 46:0.430362 47:-0.646151 48:-0.75919 49:-0.504478 50:0.131166 51:-0.486425 52:-0.662904 53:0.140954 54:-0.249645 55:-0.692389 56:-0.955755 57:-0.95924 58:-0.956107 59:-0.72206 60:0.293464 61:0.369768 62:0.198542 63:0.336022 64:-0.199352 65:-0.693081 66:-0.942799 67:-0.900068 68:-0.826899 69:0.705873 70:-0.199514 71:0.174609 72:-0.144561 73:-0.16258 74:-0.796611 75:-0.940882 76:-0.717433 77:-0.314182 78:0.0479743 79:-0.511321 80:0.373722 81:0.212798 
1 0 0 1:0.304048 2:-0.780402 3:-0.687746 4:-0.0788972 5:0.411308 6:-0.788644 7:-0.921878 8:-0.922285 9:0.196825 10:-0.680644 11:-0.903038 12:-0.687688 13:0.294183 14:0.231057 15:-0.798246 16:-0.880071 17:-0.796246 18:0.62012 19:-0.301599 20:-0.425136 21:-0.658837 22:-0.206197 23:0.271974 24:-0.459584 25:-0.883793 26:-0.893192 27:0.468514 28:-0.151585 29:-0.987841 30:-0.972988 31:-0.667708 32:0.502107 33:-0.648446 34:-0.948101 35:-0.968101 36:0.258089 37:-0.560426 38:-1 39:-0.921379 40:-0.693579 41:0.469969 42:-0.642267 43:-0.949723 44:-1 45:0.413915 46:-0.589851 47:-1 48:-0.915315 49:-0.910414 50:0.655244 51:-0.764919 52:-0.986599 53:-0.987666 54:0.329012 55:0.219529 56:-0.985922 57:-0.990553 58:-0.854354 59:0.330261 60:-0.222259 61:-0.812659 62:-0.913258 63:0.423721 64:0.246769 65:-0.735695 66:-0.982897 67:-0.946494 68:0.313609 69:0.431374 70:-0.835316 71:-0.956058 72:-0.372011 73:0.0703595 74:-0.793341 75:-0.810195 76:-0.850407 77:0.700134 78:-0.215235 79:-0.824557 80:-0.798683 81:-0.0463331 
0 1 1 1:-0.337588 2:-0.256439 3:0.667116 4:-0.461799 5:-0.355943 6:-0.412868 7:-0.543091 8:-0.263522 9:-0.404862 10:-0.132896 11:-0.215601 12:0.329472 13:-0.674117 14:-0.562018 15:-0.53605 16:-0.610475 17:-0.300593 18:0.207391 19:0.189863 20:-0.475216 21:0.42308 22:-0.675018 23:-0.518079 24:-0.188522 25:-0.733821 26:-0.786358 27:-0.0464864 28:-0.401813 29:-0.461997 30:-0.533907 31:-0.49927 32:-0.301973 33:0.384537 34:0.164929 35:0.522068 36:0.109639 37:-0.249251 38:-0.679461 39:-0.71333 40:-0.836359 41:-0.812872 42:0.204161 43:-0.259119 44:0.391019 45:0.522476 46:-0.0261976 47:-0.926757 48:-0.84064 49:-0.742612 50:-0.239002 51:0.196234 52:-0.813123 53:-0.367177 54:0.531304 55:-0.426887 56:-0.607877 57:-0.794299 58:-0.537554 59:-0.359156 60:0.394768 61:-0.239547 62:-0.116198 63:0.531179 64:-0.214581 65:-0.589456 66:-0.753016 67:-0.785296 68:-0.373173 69:0.353321 70:-0.576446 71:-0.259206 72:0.468605 73:-0.15901 74:-0.69801 75:-0.497146 76:-0.819314 77:-0.194182 78:0.401585 79:-0.663804 80:-0.255324 81:0.313693 
0.5535990125399717 0 0 1:0.578792 2:-0.564945 3:-0.226497 4:0.0880299 5:-0.0737818 6:-0.224032 7:-0.83672 8:-0.894382 9:-0.241338 10:0.927561 11:-0.602389 12:-0.410166 13:-0.173966 14:-0.693597 15:-0.774549 16:-0.947972 17:-0.918903 18:0.169065 19:0.623715 20:-0.132586 21:-0.345407 22:0.0113828 23:-0.324943 24:-0.514056 25:-0.897794 26:-0.940837 27:-0.38903 28:0.09402 29:-0.554677 30:-0.795162 31:-0.270603 32:0.286284 33:0.0753555 34:-0.753464 35:-0.744171 36:-0.179647 37:0.66557 38:-0.681787 39:-0.80083 40:-0.532565 41:-0.768682 42:-0.369533 43:-0.860442 44:-0.794401 45:0.238042 46:0.622362 47:-0.84087 48:-0.923053 49:-0.394631 50:-0.0633679 51:-0.547823 52:-0.948007 53:-0.907228 54:0.0184218 55:-0.1932 56:-0.612702 57:-0.749438 58:-0.344647 59:-0.0750636 60:0.19868 61:0.186377 62:-0.0409842 63:-0.26867 64:0.367197 65:-0.433566 66:-0.889548 67:-0.829668 68:-0.74373 69:0.117293 70:0.000508589 71:-0.00526073 72:-0.0503546 73:0.112083 74:-0.803483 75:-0.870527 76:-0.540579 77:-0.479484 78:-0.0387176 79:-0.17428 80:0.204527 81:0.167138 
0.6693660041940231 0 0 1:0.159047 2:-0.856375 3:-0.852386 4:-0.0715391 5:0.70142 6:-0.875797 7:-0.857441 8:-0.943713 9:-0.118654 10:-0.00783644 11:-0.901563 12:-0.435508 13:0.10164 14:0.661965 15:-0.643505 16:-0.773591 17:-0.784677 18:-0.104811 19:0.975026 20:-0.489456 21:-0.522414 22:-0.589368 23:-0.141727 24:-0.710456 25:-0.893166 26:-0.846245 27:-0.319656 28:-0.307021 29:-0.898518 30:-0.910311 31:-0.663566 32:0.802271 33:-0.860337 34:-0.937717 35:-0.893384 36:-0.155353 37:-0.0469853 38:-0.87611 39:-0.908938 40:-0.612595 41:0.799506 42:-0.786121 43:-0.914302 44:-0.840259 45:-0.380317 46:0.736426 47:-0.91077 48:-0.977038 49:-0.871395 50:-0.0460259 51:-0.923519 52:-0.944052 53:-0.823168 54:0.0289384 55:-0.106341 56:-0.815542 57:-0.857087 58:-0.833901 59:0.681632 60:-0.285868 61:-0.655337 62:-0.756886 63:-0.0913232 64:0.0704748 65:-0.252201 66:-0.779873 67:-0.432119 68:0.81202 69:-0.323722 70:-0.722104 71:-0.807972 72:-0.537111 73:0.452561 74:-0.45275 75:-0.801104 76:-0.331037 77:-0.212177 78:-0.737259 79:-0.73156 80:-0.519845 81:0.56394 
1 0 0 1:-0.181037 2:-0.49603 3:-0.407485 4:0.598838 5:0.367767 6:-0.460632 7:-0.963566 8:-0.807125 9:-0.820319 10:0.187369 11:-0.488667 12:-0.201604 13:0.357631 14:0.205973 15:-0.759863 16:-0.922815 17:-0.688471 18:-0.495676 19:0.364623 20:0.565222 21:-0.253149 22:-0.203925 23:-0.349801 24:-0.384413 25:-0.945402 26:-0.854401 27:-0.713817 28:0.110816 29:-0.470349 30:-0.55158 31:0.148618 32:0.321981 33:-0.135872 34:-0.9588 35:-0.755779 36:-0.664153 37:0.608038 38:-0.677069 39:-0.696413 40:-0.111284 41:-0.0884125 42:-0.40306 43:-0.873816 44:-0.552912 45:-0.431075 46:0.826557 47:-0.398585 48:-0.634855 49:-0.227999 50:-0.144406 51:-0.167645 52:-0.887906 53:-0.687531 54:-0.725572 55:0.0940633 56:-0.870364 57:-0.968623 58:-0.456831 59:0.562251 60:0.0877758 61:-0.703689 62:-0.658288 63:-0.522522 64:0.765122 65:-0.661834 66:-0.911322 67:-0.723753 68:-0.252394 69:0.304371 70:-0.619849 71:-0.48234 72:-0.449883 73:0.554972 74:-0.776916 75:-0.521832 76:-0.471615 77:-0.177359 78:0.359861 79:-0.383055 80:-0.0708626 81:-0.448041 
-1 0 0 1:-0.0168 2:-0.607452 3:-0.182385 4:0.110418 5:0.348489 6:-0.361808 7:-0.709491 8:-0.915988 9:-0.20572 10:0.223038 11:-0.496159 12:-0.2103 13:0.265559 14:-0.493738 15:-0.784787 16:-0.838495 17:-0.728585 18:0.253727 19:-0.252653 20:-0.0354959 21:0.287495 22:-0.12013 23:-0.78686 24:-0.888617 25:-0.88122 26:-0.244808 27:-0.112224 28:-0.243922 29:-0.779862 30:-0.930168 31:-0.643283 32:0.758273 33:-0.383087 34:-0.830781 35:-0.915345 36:-0.282015 37:0.172404 38:-0.715883 39:-0.840033 40:-0.227947 41:-0.389416 42:-0.405814 43:-0.623054 44:-0.662965 45:0.424446 46:0.554991 47:-0.17952 48:-0.582452 49:-0.35735 50:-0.440247 51:-0.411804 52:-0.747199 53:-0.662925 54:0.120832 55:-0.285053 56:-0.894372 57:-0.997553 58:-0.739243 59:0.61453 60:-0.227335 61:-0.167813 62:-0.386061 63:-0.392566 64:0.173697 65:-0.757574 66:-0.962519 67:-0.83943 68:-0.563599 69:0.119642 70:0.103262 71:0.012913 72:-0.0186894 73:0.271076 74:-0.918889 75:-0.897212 76:-0.812218 77:-0.613814 78:-0.00473868 79:-0.0769955 80:0.133497 81:0.137126 
-1 1 1 1:-0.213678 2:-0.32348 3:-0.0325652 4:-0.159086 5:-0.156436 6:0.307892 7:-0.579084 8:-0.298375 9:-0.0100738 10:0.0124252 11:-0.0731269 12:0.151475 13:-0.482715 14:-0.253049 15:-0.810576 16:-0.88801 17:-0.400656 18:0.165128 19:-0.090623 20:0.208279 21:0.318575 22:-0.793992 23:-0.457983 24:-0.847721 25:-0.835882 26:-0.44875 27:-0.0744848 28:-0.0829643 29:-0.834927 30:-0.921181 31:-0.746471 32:0.656177 33:-0.164965 34:-0.618127 35:-0.492792 36:-0.377747 37:0.250316 38:-0.761949 39:-0.831516 40:-0.635608 41:-0.118988 42:-0.784275 43:-0.883684 44:-0.372532 45:0.35581 46:-0.0606319 47:-0.68053 48:-0.838871 49:-0.772107 50:-0.196409 51:-0.664609 52:-0.694422 53:-0.29374 54:0.734327 55:-0.0514226 56:-0.83544 57:-0.921051 58:-0.810591 59:0.700922 60:-0.676091 61:-0.116477 62:-0.328945 63:-0.807165 64:0.160283 65:-0.703725 66:-0.872103 67:-0.855446 68:-0.61648 69:-1 70:0.318857 71:0.642435 72:-0.255724 73:-0.288322 74:-0.912703 75:-0.867528 76:-1 77:-0.596409 78:-0.727092 79:0.0515198 80:0.573455 81:0.223239 
-1 0 0 1:0.217729 2:-0.745995 3:-0.298859 4:-0.405128 5:0.356003 6:-0.500484 7:-0.829283 8:-0.916525 9:0.233837 10:0.250726 11:-0.683311 12:-0.576655 13:0.483621 14:-0.465633 15:-0.95467 16:-0.964223 17:-0.937859 18:0.333611 19:-0.656588 20:-0.144222 21:-0.132405 22:0.651068 23:-0.48699 24:-0.849767 25:-0.819441 26:-0.639283 27:-0.101954 28:0.0969241 29:-0.909665 30:-0.914814 31:-0.825051 32:0.484975 33:-0.671608 34:-0.819671 35:-0.937758 36:0.152562 37:-0.0269589 38:-0.868763 39:-0.906901 40:0.106236 41:-0.124148 42:-0.731399 43:-0.917742 44:-0.941623 45:0.34887 46:-0.407768 47:-0.0979831 48:-0.642042 49:0.125058 50:0.381792 51:-0.328677 52:-0.799719 53:-0.784855 54:-0.155995 55:0.161085 56:-0.794176 57:-0.961849 58:-0.633074 59:0.496427 60:-0.674172 61:-0.700098 62:-0.772642 63:0.301697 64:0.113436 65:-0.745979 66:-0.969073 67:-0.856941 68:0.0532923 69:0.0534358 70:-0.490717 71:-0.773027 72:0.336233 73:-0.127762 74:-0.708157 75:-0.816144 76:-0.706519 77:0.538269 78:0.311495 79:-0.409779 80:-0.514628 81:-0.378352 
-1 0 0 1:0.131842 2:-0.565855 3:-0.750661 4:0.118378 5:0.468835 6:-0.332239 7:-0.766077 8:-0.690715 9:-0.147093 10:0.318037 11:-0.597496 12:-0.689998 13:0.27477 14:0.0535417 15:-0.426002 16:-0.677501 17:-0.674825 18:0.0662056 19:-0.813251 20:-0.613658 21:0.0998004 22:0.507665 23:-0.217083 24:-0.354083 25:-0.751128 26:-0.113428 27:-0.761534 28:0.0852029 29:-0.939341 30:-0.879683 31:-0.0871518 32:0.264578 33:-0.30521 34:-0.913905 35:-0.679655 36:0.0535531 37:-0.0495606 38:-0.954218 39:-0.824409 40:0.28127 41:-0.128185 42:-0.498527 43:-0.903782 44:-0.532322 45:0.185071 46:-0.601225 47:-0.614733 48:-0.225425 49:0.692886 50:0.125647 51:-0.464529 52:-0.531189 53:0.114556 54:-0.653692 55:-0.0673352 56:-0.638285 57:-0.600799 58:0.155399 59:0.173333 60:-0.09334 61:-0.287303 62:-0.418919 63:-0.0459722 64:-0.0572891 65:-0.520704 66:-0.596683 67:-0.345681 68:0.0251744 69:0.278026 70:-0.355092 71:-0.347194 72:-0.0262506 73:-0.45675 74:-0.760356 75:0.070569 76:0.0261921 77:-0.00919255 78:0.647636 79:-0.117892 80:-0.321959 81:-0.639946 
-1 1 1 1:-0.0680305 2:-0.358395 3:0.291404 4:-0.110943 5:-0.325279 6:-0.54353 7:-0.192368 8:-0.50354 9:-0.0228129 10:-0.246466 11:-0.327658 12:0.252313 13:-0.60055 14:0.123234 15:-0.412625 16:-0.301019 17:-0.572563 18:-0.0656366 19:-0.27029 20:-0.369889 21:0.00152258 22:-0.586085 23:0.0823718 24:-0.350222 25:-0.422273 26:-0.583153 27:0.194573 28:0.117151 29:-0.380565 30:0.121634 31:-0.0948709 32:0.213488 33:-0.691434 34:-0.578962 35:-0.886589 36:-0.248354 37:-0.206086 38:-0.125607 39:0.444795 40:0.0772432 41:-0.344685 42:-0.834329 43:-0.61085 44:-0.645305 45:-0.0887927 46:-0.176724 47:-0.0205544 48:0.500104 49:-0.390782 50:-0.528664 51:-0.761602 52:-0.381287 53:-0.282563 54:0.245982 55:-0.199591 56:-0.898114 57:-0.77664 58:-0.489984 59:0.767984 60:-0.370415 61:-0.789075 62:-0.943576 63:-0.228531 64:-0.0210504 65:-0.272674 66:-0.47573 67:0.0716332 68:-0.199173 69:-0.165224 70:-0.7041 71:-0.60724 72:0.475193 73:0.136255 74:-0.275345 75:-0.288733 76:-0.61296 77:-0.730939 78:-0.730382 79:-0.712383 80:-0.438495 81:0.876038 
-0 0 1 1:0.135935 2:-0.23803 3:0.173379 4:0.111447 5:-0.229884 6:-0.338559 7:-0.769744 8:-0.515715 9:-0.296103 10:-0.643625 11:-0.489187 12:0.263514 13:0.50231 14:-0.589347 15:-0.476724 16:-0.652778 17:-0.328797 18:-0.487968 19:-0.535911 20:0.0595395 21:0.0966796 22:0.201267 23:-0.933949 24:-0.779817 25:-0.686618 26:0.0953514 27:-0.566852 28:-0.119517 29:-0.577324 30:-0.235011 31:-0.201614 32:-0.0122894 33:0.315514 34:-0.41485 35:-0.300903 36:-0.115862 37:-0.231722 38:-0.353046 39:0.176763 40:0.0990328 41:-0.439464 42:0.224823 43:-0.0941174 44:-0.148355 45:-0.325858 46:0.413177 47:0.547962 48:-0.144059 49:-0.330801 50:-0.789432 51:-0.406966 52:-0.492641 53:-0.251733 54:-0.255833 55:-0.0162387 56:-0.58457 57:-0.688598 58:-0.100829 59:0.131679 60:0.470169 61:-0.731014 62:-0.629928 63:-0.131635 64:-0.0112823 65:-0.0372657 66:-0.42752 67:-0.397975 68:-0.194188 69:0.637431 70:-0.102634 71:-0.615552 72:-0.600028 73:0.826969 74:-0.0922859 75:-0.469336 76:-0.440883 77:-0.558807 78:-0.0571511 79:-0.351841 80:-0.302368 81:-0.0578164 
-1 0 0 1:0.35373 2:-0.511564 3:-0.132011 4:0.0520901 5:0.00747154 6:-0.396761 7:-0.865424 8:-0.858497 9:-0.0350575 10:-0.264594 11:-0.427146 12:0.213684 13:0.253528 14:-0.443974 15:-0.801645 16:-0.821778 17:-0.441374 18:-0.0532175 19:-0.185327 20:-0.133309 21:0.241694 22:-0.436103 23:-0.875138 24:-0.940791 25:-0.90904 26:-0.393753 27:0.313954 28:-0.0180176 29:-0.781133 30:-0.89293 31:-0.313076 32:0.532331 33:-0.31633 34:-0.837855 35:-0.724169 36:-0.181099 37:-0.185217 38:-0.543248 39:-0.460676 40:-0.113568 41:0.106972 42:-0.219378 43:-0.505306 44:-0.368972 45:0.075626 46:0.804744 47:-0.158713 48:-0.525379 49:-0.776323 50:-0.730264 51:-0.498139 52:-0.698354 53:-0.570167 54:0.0433585 55:-0.014627 56:-0.941618 57:-0.947056 58:-0.617181 59:0.407292 60:0.147447 61:-0.640205 62:-0.691089 63:0.03219 64:-0.180374 65:-0.752841 66:-0.93252 67:-0.618964 68:0.10611 69:0.320184 70:-0.298881 71:-0.561402 72:0.098017 73:0.744717 74:-0.824951 75:-0.947951 76:-0.79041 77:-0.607827 78:-0.333368 79:-0.453104 80:-0.297309 81:0.398375 
-1 1 1 1:-0.122687 2:-0.856276 3:-0.628704 4:0.350795 5:-0.203557 6:-0.484921 7:0.0163855 8:0.0350569 9:0.21597 10:-0.564422 11:-0.885278 12:-0.929967 13:-0.366666 14:0.57845 15:0.112011 16:0.25383 17:-0.246425 18:-0.147115 19:-0.491491 20:-0.325181 21:-0.729249 22:-0.354234 23:0.340144 24:0.808392 25:-0.129853 26:-0.278551 27:-0.555066 28:0.617415 29:-0.73709 30:-0.87275 31:-0.245128 32:-0.151314 33:-0.409865 34:-0.672494 35:-0.711111 36:0.22367 37:-0.322987 38:-0.816674 39:-0.934426 40:-0.534424 41:0.374472 42:0.266439 43:-0.161316 44:-0.328902 45:-0.126663 46:-0.462242 47:-0.566876 48:-0.935511 49:-0.737417 50:0.387702 51:1 52:-0.136983 53:-0.493684 54:-0.741327 55:1 56:-0.427711 57:-0.753044 58:-0.548811 59:-0.480772 60:-0.32781 61:0.062227 62:-0.401613 63:-0.0407083 64:0.672589 65:-0.209936 66:-0.894558 67:-0.69842 68:-0.474867 69:0.0785544 70:-0.219876 71:-0.541708 72:-0.123448 73:-0.578063 74:-0.893785 75:-0.930752 76:-0.664863 77:0.218427 78:1 79:-0.244749 80:-0.667318 81:-0.89955 
-1 0.6149587232832453 0.6077766454078005 1:-0.362366 2:-0.849792 3:-0.811495 4:-1 5:0.684782 6:-1 7:-0.811736 8:0.78754 9:-0.174803 10:-1 11:-0.987183 12:-0.796179 13:-0.601291 14:0.963477 15:-0.97826 16:-0.833287 17:0.357758 18:-0.0298729 19:-0.99855 20:-0.82354 21:-0.373676 22:0.0167138 23:-0.730009 24:-0.159764 25:-0.0321587 26:0.427121 27:-0.209018 28:-0.630951 29:-1 30:-1 31:-1 32:0.394971 33:-1 34:-1 35:-1 36:0.619861 37:-0.74787 38:-0.95565 39:-0.770626 40:-0.662215 41:1 42:-1 43:-0.920114 44:-0.656847 45:-0.248027 46:0.0924838 47:-0.77911 48:-0.707683 49:-0.533779 50:0.406871 51:-0.297805 52:-0.241744 53:-0.619032 54:-0.0869004 55:-0.995427 56:-0.962481 57:0.916361 58:-1 59:0.0092245 60:-0.867188 61:-0.668906 62:-0.787063 63:0.645711 64:-0.251635 65:0.22197 66:0.0277092 67:-1 68:1 69:-0.597438 70:-0.771213 71:-1 72:-0.925152 73:0.652455 74:0.00715425 75:0.0384777 76:-0.0862307 77:0.438536 78:-0.499815 79:-0.89719 80:-0.868258 81:-0.480056 
-1 1 1 1:-0.419756 2:-0.702979 3:-0.510847 4:-0.293508 5:0.114598 6:-0.658696 7:-0.508894 8:-0.68943 9:0.849471 10:-0.232251 11:-0.563374 12:-0.232857 13:-0.240113 14:0.334701 15:-0.624841 16:-0.491018 17:-0.569431 18:0.356196 19:-0.741477 20:-0.317328 21:-0.0469791 22:-0.12043 23:0.0957842 24:-0.430968 25:-0.310035 26:-0.470915 27:0.0252963 28:-0.353259 29:-0.480837 30:-0.382663 31:-0.186008 32:-0.0210798 33:-0.718593 34:-0.472527 35:-0.711823 36:0.61702 37:-0.368474 38:-0.435046 39:-0.116318 40:0.0805919 41:-0.177498 42:-0.57692 43:-0.655435 44:-0.550862 45:0.297753 46:-0.478209 47:0.198856 48:0.376221 49:0.157729 50:-0.118939 51:-0.355805 52:-0.326034 53:-0.293335 54:-0.396491 55:-0.409828 56:-0.422679 57:-0.67537 58:-0.300112 59:0.201518 60:-0.733218 61:-0.462188 62:-0.673291 63:0.78315 64:-0.433141 65:-0.166799 66:-0.423291 67:-0.054817 68:0.103778 69:-0.313029 70:-0.57097 71:-0.638969 72:0.521068 73:-0.203574 74:0.0027733 75:0.175806 76:0.180024 77:0.278558 78:0.0838592 79:-0.556618 80:-0.556659 81:-0.24388 
-1 0.1471332301256663 1 1:-0.819999 2:-0.73965 3:-0.676153 4:-0.27603 5:0.928638 6:0.0257678 7:-0.44219 8:-0.714832 9:-0.87795 10:-0.683107 11:-0.477811 12:-0.387119 13:-0.144369 14:0.641018 15:0.560717 16:-0.298831 17:-0.729088 18:-0.713906 19:0.944292 20:-0.556494 21:-0.532416 22:-0.523282 23:-0.285652 24:-0.33877 25:-0.763318 26:-0.650118 27:-0.268288 28:-0.569515 29:-0.659518 30:-0.653615 31:-0.251312 32:0.798795 33:-0.340694 34:-0.757829 35:-0.682087 36:-0.613157 37:-0.55752 38:-0.615256 39:-0.523115 40:0.494027 41:0.334588 42:-0.306544 43:-0.323913 44:-0.256788 45:-0.517955 46:0.486998 47:-0.751613 48:-0.451928 49:-0.0346314 50:-0.385094 51:-0.641376 52:-0.575677 53:-0.371087 54:0.0778911 55:-0.502147 56:-0.88831 57:-0.939107 58:-0.622869 59:0.875258 60:-0.230883 61:-0.847987 62:-0.733593 63:-0.526762 64:-0.244117 65:-0.813795 66:-0.756361 67:0.0660297 68:0.55021 69:-0.0636571 70:-0.597712 71:-0.33378 72:-0.317382 73:0.0628888 74:-0.79743 75:-0.643066 76:-0.22322 77:-0.486032 78:-0.432398 79:-0.731394 80:-0.412898 81:0.785581 
-1 1 0.7583649649437564 1:-0.275574 2:-0.546493 3:-0.185567 4:-0.393384 5:0.368578 6:-0.462563 7:-0.38159 8:-0.498416 9:0.216113 10:-0.24279 11:-0.455287 12:-0.00302664 13:-0.595001 14:0.203323 15:-0.242504 16:-0.00194667 17:-0.563076 18:0.0428296 19:-0.838416 20:-0.554207 21:0.456123 22:-0.488345 23:-0.23075 24:-0.118686 25:0.000702143 26:-0.506146 27:-0.257316 28:0.185569 29:-0.534476 30:-0.00521079 31:-0.433648 32:0.279501 33:-0.626987 34:-0.561233 35:-0.638942 36:-0.110135 37:0.130958 38:-0.612601 39:0.135914 40:0.0730703 41:-0.209023 42:-0.658897 43:-0.362735 44:-0.524452 45:-0.177906 46:-0.465673 47:-0.175956 48:1 49:0.0781491 50:-0.414494 51:-0.539972 52:-0.243127 53:-0.0454154 54:-0.584184 55:0.176324 56:-0.675846 57:-0.49832 58:-0.638001 59:0.559882 60:-0.648275 61:-0.723417 62:-0.621193 63:0.0230025 64:0.543765 65:-0.486766 66:-0.255267 67:-0.116891 68:-0.071826 69:-0.275673 70:-0.646459 71:-0.499744 72:-0.0400408 73:0.320726 74:0.030645 75:0.314113 76:0.128866 77:0.1285 78:-0.182329 79:-0.536319 80:-0.366916 81:-0.342415 
-0 0 1 1:-0.60815 2:-0.378415 3:0.0244095 4:-0.332469 5:0.0410635 6:-0.478136 7:-0.378068 8:-0.643173 9:0.466671 10:-0.877571 11:-0.578793 12:0.427317 13:-0.105921 14:0.00797067 15:-0.439392 16:-0.334098 17:-0.489072 18:-0.356603 19:-0.833436 20:-0.520453 21:0.506499 22:-0.224053 23:-0.0889575 24:-0.613359 25:-0.397424 26:-0.295766 27:-0.52137 28:-0.661412 29:-0.329 30:-0.111226 31:0.0104012 32:0.108566 33:-0.662926 34:-0.474535 35:-0.584908 36:0.337066 37:-0.831974 38:-0.293694 39:0.375083 40:0.413627 41:-0.1841 42:-0.336847 43:-0.208206 44:-0.20062 45:-0.360836 46:-0.32549 47:0.172071 48:0.880454 49:-0.236753 50:-0.702044 51:-0.431613 52:-0.129318 53:0.00974267 54:-0.349002 55:-0.579818 56:-0.702784 57:-0.669746 58:-0.357732 59:0.68658 60:-0.635934 61:-0.770521 62:-0.8537 63:0.21653 64:-0.482409 65:-0.219188 66:-0.194935 67:0.0257846 68:0.640275 69:-0.336723 70:-0.634527 71:-0.542675 72:-0.178036 73:0.298712 74:0.160158 75:0.272276 76:-0.575996 77:-0.406517 78:-0.458008 79:-0.565277 80:-0.378936 81:0.419135 
-0 0 0.331176634833155 1:0.217826 2:-0.183567 3:0.138539 4:-0.0347954 5:-0.296439 6:-0.436142 7:-0.40783 8:-0.579808 9:-0.171172 10:0.441099 11:-0.202326 12:-0.394151 13:0.148426 14:-0.573076 15:-0.798131 16:-0.611645 17:-0.685975 18:0.138527 19:-0.409886 20:-0.0479986 21:0.20886 22:0.170629 23:-0.602308 24:-0.486491 25:-0.634813 26:-0.15472 27:-0.522891 28:-0.269335 29:-0.145371 30:-0.508643 31:-0.55611 32:0.456687 33:-0.315706 34:0.288611 35:-0.609722 36:-0.21806 37:0.40759 38:-0.105838 39:-0.338795 40:-0.157231 41:-0.76355 42:-0.5651 43:-0.0206331 44:-0.736743 45:0.0515853 46:0.413416 47:0.380478 48:0.0428485 49:-0.272625 50:-0.163359 51:-0.400716 52:-0.673064 53:-0.795498 54:-0.620966 55:-0.532791 56:-0.303906 57:-0.574916 58:-0.127835 59:0.244058 60:-0.35617 61:0.463118 62:-0.400708 63:-0.542189 64:0.32729 65:0.38516 66:-0.384137 67:-0.649793 68:-0.827303 69:0.158796 70:0.302214 71:-0.397633 72:-0.49335 73:0.604635 74:-0.146695 75:-0.335873 76:-0.634346 77:-0.225741 78:-0.0211089 79:-0.200227 80:0.0869431 81:-0.464548 
-0.1414713294024226 1 1 1:-0.216621 2:-0.337042 3:0.0783504 4:-0.501351 5:-0.869255 6:-0.510713 7:1 8:-0.141834 9:-0.549541 10:-0.276815 11:-0.221168 12:-0.188639 13:-0.674978 14:-0.928418 15:-0.842873 16:1 17:-0.202992 18:-0.61594 19:-0.644488 20:0.000634867 21:-0.30011 22:-0.696622 23:-0.981206 24:-0.825471 25:1 26:-0.317422 27:-0.576077 28:0.167214 29:0.128983 30:0.522899 31:-0.204844 32:-0.80322 33:-0.290733 34:-0.0684002 35:-0.632604 36:0.22047 37:0.0637759 38:-0.0809767 39:-0.0413105 40:0.143425 41:-0.925026 42:-0.766703 43:-0.483713 44:-0.25432 45:0.168207 46:0.270632 47:0.154954 48:-0.0779976 49:-0.168409 50:-0.774611 51:-0.730792 52:-0.485544 53:-0.23587 54:0.12741 55:-0.731602 56:-0.785528 57:-0.812054 58:-0.731463 59:-0.280745 60:0.173314 61:0.788845 62:-0.554272 63:0.0302692 64:-0.410766 65:-0.606012 66:-0.768238 67:-0.493761 68:-0.635996 69:-0.201557 70:0.433907 71:-0.00977738 72:0.23565 73:0.283463 74:-0.208829 75:-0.810427 76:-0.559847 77:-0.672827 78:-0.38564 79:-0.214921 80:0.218485 81:0.258998 
-1 0 0 1:0.539976 2:-0.535351 3:-0.379819 4:-0.238846 5:0.351056 6:-0.577814 7:-0.832597 8:-0.975656 9:-0.229136 10:0.439532 11:-0.678021 12:-0.51558 13:0.4967 14:-0.283781 15:-0.795005 16:-0.781782 17:-0.825966 18:-0.0513504 19:-0.500717 20:-0.354129 21:0.400042 22:0.215002 23:-0.609101 24:-0.862245 25:-0.766761 26:-0.283652 27:-0.392788 28:0.071132 29:-0.888242 30:-0.831554 31:-0.721107 32:0.614749 33:-0.709791 34:-0.909342 35:-0.968174 36:-0.0632893 37:0.0787783 38:-0.874177 39:-0.758065 40:-0.247764 41:0.1076 42:-0.786235 43:-0.887857 44:-0.833169 45:0.255457 46:-0.140323 47:-0.212598 48:-0.0978256 49:-0.280729 50:0.388813 51:-0.549244 52:-0.712377 53:-0.563018 54:-0.172309 55:0.0751256 56:-0.819978 57:-0.890411 58:-0.674962 59:0.673124 60:-0.759777 61:-0.721556 62:-0.901754 63:0.0563243 64:0.400208 65:-0.780805 66:-0.896744 67:-0.843204 68:0.272641 69:-0.389873 70:-0.574135 71:-0.815336 72:0.179036 73:0.0677958 74:-0.726355 75:-0.698066 76:-0.777819 77:0.639614 78:-0.136236 79:-0.557597 80:-0.529214 81:-0.167302 
-1 0 0 1:0.133413 2:-0.800456 3:-0.639284 4:-0.419661 5:0.474945 6:-0.573779 7:-0.787272 8:-0.786864 9:0.368566 10:0.173633 11:-0.866157 12:-0.54198 13:0.181522 14:-0.0305677 15:-0.824262 16:-0.805592 17:-0.761245 18:0.454483 19:-0.53636 20:-0.238444 21:-0.209605 22:0.355133 23:-0.182645 24:-0.747457 25:-0.756588 26:-0.624274 27:0.142081 28:-0.298481 29:-0.75055 30:-0.805332 31:-0.619155 32:0.289847 33:-0.677004 34:-0.952573 35:-0.728303 36:0.549597 37:-0.369776 38:-0.82911 39:-0.79791 40:-0.288643 41:0.0595972 42:-0.706117 43:-0.942559 44:-0.775454 45:0.561086 46:-0.248038 47:-0.227314 48:-0.499099 49:-0.260795 50:0.53482 51:-0.277024 52:-0.698508 53:-0.753377 54:-0.222118 55:-0.0652167 56:-0.485113 57:-0.600925 58:-0.465618 59:0.240471 60:-0.556621 61:-0.534403 62:-0.787886 63:0.646106 64:-0.0832182 65:-0.392308 66:-0.787007 67:-0.614287 68:0.134072 69:-0.236436 70:-0.564981 71:-0.833137 72:0.533528 73:0.0200944 74:-0.618601 75:-0.797555 76:-0.499421 77:0.668196 78:0.155193 79:-0.532793 80:-0.629423 81:-0.483166 
-0 0 1 1:0.262622 2:-0.171088 3:0.414467 4:-0.178413 5:-0.559688 6:-0.756644 7:-0.610105 8:-0.689673 9:-0.134833 10:0.288242 11:-0.146187 12:-0.0197535 13:0.1802 14:-0.791875 15:-0.819456 16:-0.562064 17:-0.415172 18:-0.2556 19:-0.0893697 20:0.355048 21:0.0488502 22:-0.0370948 23:-0.90229 24:-0.801371 25:-0.548304 26:-0.432229 27:-0.269966 28:0.358432 29:-0.489445 30:-0.547736 31:-0.373465 32:-0.406851 33:-0.28797 34:-0.2652 35:-0.684168 36:0.554356 37:0.0267143 38:-0.472457 39:-0.163061 40:0.504157 41:-0.718517 42:-0.710262 43:-0.794878 44:-0.590738 45:0.11464 46:0.0883529 47:0.124602 48:-0.235498 49:0.080452 50:-0.626219 51:-0.748818 52:-0.821908 53:-0.517968 54:0.260748 55:-0.777438 56:-0.858807 57:-0.889839 58:-0.82459 59:-0.14172 60:-0.0295237 61:0.657133 62:-0.460316 63:0.232352 64:-0.453783 65:-0.745555 66:-0.866684 67:-0.721943 68:-0.341665 69:0.0846745 70:0.198099 71:-0.0409046 72:0.22047 73:-0.0206082 74:-0.33755 75:-0.830042 76:-0.764579 77:-0.452174 78:-0.176821 79:-0.32164 80:0.244531 81:0.325457 
-0.4126982298494074 0 0 1:-0.31066 2:-0.818188 3:-0.657941 4:-0.540447 5:0.542877 6:-0.71177 7:-0.809736 8:-0.893327 9:0.61048 10:-0.213181 11:-0.801959 12:-0.602436 13:0.287926 14:-0.137883 15:-0.689996 16:-0.860539 17:-0.793286 18:0.652884 19:-0.789326 20:-0.0937497 21:-0.0911649 22:0.477313 23:-0.498884 24:-0.579293 25:-0.716956 26:-0.288987 27:-0.145937 28:-0.652056 29:-0.881278 30:-0.853348 31:-0.873716 32:0.452766 33:-0.904659 34:-0.896356 35:-0.819964 36:0.542475 37:-0.737864 38:-0.866449 39:-0.597666 40:-0.0485032 41:0.114412 42:-0.873312 43:-0.784274 44:-0.771647 45:0.535122 46:-0.850379 47:-0.0548185 48:-0.346294 49:-0.148947 50:0.362063 51:-0.389569 52:-0.646164 53:-0.427969 54:0.0823283 55:-0.29953 56:-0.696909 57:-0.720793 58:-0.776738 59:0.560364 60:-0.710253 61:-0.774172 62:-0.885722 63:0.493575 64:-0.354167 65:-0.699452 66:-0.677319 67:-0.802475 68:0.439407 69:-0.357575 70:-0.506254 71:-0.817563 72:0.447966 73:-0.45395 74:-0.703077 75:-0.771257 76:-0.7616 77:0.855933 78:-0.0188968 79:-0.566275 80:-0.751915 81:-0.281172 
-1 1 1 1:-0.781052 2:-0.71202 3:0.0929433 4:0.948792 5:-0.645014 6:-0.30992 7:-0.380182 8:-0.266331 9:-0.701977 10:-0.701437 11:-0.661194 12:0.448487 13:0.0700535 14:-0.865485 15:-0.310099 16:-0.293826 17:-0.0183108 18:-0.558688 19:-0.60541 20:-0.70505 21:0.0440184 22:0.0688798 23:-0.626205 24:-0.308259 25:-0.673764 26:0.303907 27:-0.269228 28:-0.52017 29:-0.794245 30:-0.686872 31:0.871927 32:-0.565961 33:-0.173938 34:0.303868 35:0.405534 36:-0.351055 37:-0.412652 38:-0.61272 39:-0.404498 40:0.253703 41:-0.627056 42:-0.0482321 43:0.515124 44:0.447917 45:-0.0951406 46:0.0698475 47:-0.469806 48:-0.200073 49:0.0363285 50:-0.365173 51:-0.266611 52:-0.127059 53:0.170611 54:-0.0767884 55:-0.284432 56:-0.559287 57:-0.476869 58:0.851829 59:0.136896 60:-0.458454 61:-0.52917 62:-0.230673 63:-0.477664 64:-0.0350143 65:-0.230548 66:-0.199251 67:0.605424 68:-0.56929 69:-0.829979 70:0.0866441 71:0.0982863 72:-0.191275 73:0.286964 74:-0.402644 75:-0.267921 76:0.211595 77:-0.555796 78:-0.661598 79:0.336468 80:-0.0428518 81:-0.268511 
-1 0 0 1:0.196815 2:-0.290431 3:-0.261995 4:0.258774 5:-0.355804 6:-0.37787 7:-0.764645 8:-0.271459 9:0.180477 10:-0.363247 11:-0.746017 12:-0.803999 13:0.975628 14:0.199233 15:-0.589862 16:-0.834992 17:-0.878045 18:-0.61002 19:-0.0285747 20:-0.952949 21:-0.893837 22:0.834518 23:-0.110558 24:-0.646573 25:-0.809492 26:-0.420158 27:-0.589265 28:0.449504 29:-0.496952 30:-0.475511 31:0.0298626 32:-0.0715411 33:0.0842474 34:-0.771943 35:-0.84338 36:-0.32632 37:0.240689 38:-0.699321 39:-0.77613 40:0.411765 41:0.0584853 42:-0.486934 43:-0.756771 44:-0.696454 45:-0.481698 46:0.268344 47:-0.499689 48:-0.752939 49:0.292874 50:0.0307692 51:-0.481352 52:-0.453085 53:0.100665 54:-0.633656 55:0.229095 56:-0.798183 57:-0.867343 58:-0.182063 59:0.534402 60:-0.0562463 61:-0.80108 62:-0.679195 63:-0.582158 64:0.684845 65:-0.589592 66:-0.673917 67:-0.117564 68:-0.0607621 69:-0.266295 70:-0.552647 71:-0.117294 72:-0.424465 73:0.752079 74:-0.439759 75:-0.542097 76:-0.228634 77:-0.227816 78:-0.0806845 79:-0.468969 80:0.130259 81:-0.440015 
-1 0 0 1:0.289787 2:-0.743906 3:-0.219109 4:-0.233093 5:0.0554094 6:-0.779836 7:-0.931005 8:-0.925953 9:0.445516 10:-0.54006 11:-0.614262 12:-0.281642 13:0.479715 14:0.352184 15:-0.684195 16:-0.810576 17:-0.763499 18:-0.0657985 19:-0.275528 20:-0.106363 21:0.382459 22:-0.00423157 23:-0.606753 24:-0.707734 25:-0.634869 26:-0.370633 27:-0.384572 28:-0.0638551 29:-0.745182 30:-0.838729 31:-0.494175 32:0.369953 33:-0.662953 34:-0.805055 35:-0.952965 36:0.324656 37:-0.508757 38:-0.57428 39:-0.710091 40:-0.187066 41:0.437944 42:-0.562444 43:-0.613491 44:-0.814792 45:0.178596 46:0.256358 47:-0.125688 48:-0.122915 49:-0.608488 50:-0.234986 51:-0.402346 52:-0.606296 53:-0.64995 54:0.218678 55:0.134718 56:-0.605061 57:-0.841029 58:-0.78791 59:0.342821 60:-0.418743 61:0.0264834 62:-0.808191 63:0.0956456 64:-0.124189 65:-0.153995 66:-0.819456 67:-0.787268 68:0.240788 69:0.111869 70:-0.400495 71:-0.64815 72:0.137501 73:0.24754 74:-0.681097 75:-0.811765 76:-0.718333 77:-0.234193 78:-0.00994075 79:-0.432022 80:-0.4483 81:0.429101 
-1 0 0.1210795921983437 1:-0.676979 2:-0.721751 3:-0.675536 4:0.336243 5:0.86938 6:-0.786956 7:-0.993408 8:-0.959788 9:-0.8794 10:0.217693 11:-0.122896 12:-0.0693723 13:0.117015 14:-0.580042 15:-0.947516 16:-0.979565 17:-0.778469 18:0.115054 19:-0.310434 20:-0.439202 21:-0.686618 22:-0.853221 23:1 24:-0.988474 25:-0.99461 26:-0.916013 27:-0.311712 28:-0.43228 29:-0.688218 30:-0.691181 31:-0.134553 32:0.865721 33:-0.912794 34:-0.983368 35:-0.953268 36:-0.803577 37:-0.183295 38:-0.263042 39:-0.185461 40:0.0238377 41:-0.220942 42:-0.708746 43:-0.845897 44:-0.820595 45:0.291772 46:0.0499961 47:-0.35819 48:-0.551004 49:-0.747806 50:0.479789 51:-0.819036 52:-0.914588 53:-0.889406 54:0.0338155 55:-0.449045 56:-0.959394 57:-0.96824 58:-0.830941 59:0.941136 60:-0.638586 61:-0.336306 62:-0.884536 63:-0.76227 64:-0.34596 65:-0.531143 66:-0.714015 67:-0.65999 68:-0.163927 69:-0.405234 70:0.709093 71:-0.427292 72:-0.13371 73:0.0915271 74:-0.467024 75:-0.749083 76:-0.961983 77:-0.113262 78:-0.593298 79:0.0864059 80:-0.23179 81:0.272849 
-1 0 0 1:0.0841323 2:-0.676009 3:0.194952 4:-0.312055 5:0.129468 6:-0.479248 7:-0.552568 8:-0.668726 9:-0.0785701 10:0.341378 11:-0.549177 12:-0.034682 13:0.0919982 14:-0.49644 15:-0.809646 16:-0.647483 17:-0.717472 18:0.126481 19:-0.275901 20:-0.11906 21:0.0663097 22:0.28452 23:-0.548183 24:-0.754729 25:-0.690355 26:-0.682261 27:-0.021949 28:-0.301428 29:-0.896784 30:-0.610479 31:-0.667998 32:0.606599 33:-0.605116 34:-0.664933 35:-0.8933 36:0.106933 37:-0.238082 38:-0.784459 39:-0.352872 40:0.177822 41:-0.594106 42:-0.873162 43:-0.965293 44:-0.933148 45:0.597932 46:0.182473 47:-0.0404147 48:-0.412012 49:0.229322 50:-0.735717 51:-0.77458 52:-0.772845 53:-0.548671 54:0.247413 55:-0.580013 56:-0.892566 57:-0.868689 58:-0.63989 59:0.683537 60:-0.698776 61:-0.441255 62:-0.856032 63:0.257325 64:-0.53334 65:-0.853418 66:-0.906538 67:-0.776287 68:-0.35761 69:-0.279948 70:-0.426143 71:-0.710454 72:1 73:0.0320903 74:-0.430317 75:-0.949766 76:-0.707064 77:-0.701148 78:-0.116945 79:-0.496271 80:-0.297415 81:0.721376 
-0.3604802233923779 0 1 1:-0.732584 2:-0.512393 3:-0.637138 4:-0.623942 5:0.10438 6:0.859229 7:-0.571019 8:-0.412996 9:0.231265 10:-0.513267 11:0.33452 12:-0.014561 13:-0.621669 14:-0.687887 15:-0.490744 16:-0.641233 17:-0.486907 18:0.457502 19:-0.180935 20:0.693471 21:0.208131 22:-0.613598 23:-0.813599 24:-0.953301 25:-0.75192 26:-0.634444 27:-0.212093 28:-0.596594 29:-0.788891 30:-0.755142 31:-0.703019 32:0.296276 33:0.172403 34:-0.507586 35:-0.852881 36:0.289909 37:-0.555614 38:-0.598189 39:-0.386247 40:-0.600325 41:-0.0162711 42:-0.371885 43:-0.494794 44:-0.714508 45:0.591402 46:-0.187089 47:0.165528 48:0.0697417 49:-0.464335 50:0.323282 51:-0.447533 52:-0.596302 53:-0.395947 54:-0.336614 55:-0.403687 56:-0.887191 57:-0.803691 58:-0.549713 59:0.715011 60:-0.707733 61:-0.393329 62:-0.674156 63:0.0160336 64:-0.395783 65:-0.847064 66:-0.773804 67:-0.74332 68:0.303172 69:-0.257449 70:0.114207 71:-0.545327 72:0.150315 73:-0.285991 74:-0.56584 75:-0.716805 76:-0.644009 77:0.61545 78:0.0174046 79:-0.0415929 80:-0.257901 81:-0.666216 
-1 0 0 1:0.0964382 2:-0.906297 3:-0.488204 4:-0.57631 5:0.705407 6:-0.558424 7:-0.873335 8:-0.957865 9:0.0224641 10:0.498986 11:-0.759206 12:-0.699175 13:0.362124 14:-0.365663 15:-0.786625 16:-0.833461 17:-0.870478 18:0.240794 19:-0.622325 20:-0.285846 21:0.147718 22:0.560346 23:-0.49992 24:-0.663959 25:-0.665799 26:-0.338284 27:-0.567981 28:-0.192708 29:-0.98387 30:-0.983361 31:-0.882282 32:0.713509 33:-0.773864 34:-0.924231 35:-0.965374 36:-0.00499544 37:0.132361 38:-0.886601 39:-0.868637 40:-0.113453 41:-0.173822 42:-0.864395 43:-0.893769 44:-0.836682 45:0.383839 46:0.262023 47:-0.375981 48:-0.509907 49:0.0782887 50:0.142185 51:-0.537611 52:-0.651947 53:-0.603701 54:-0.281306 55:-0.323262 56:-0.93992 57:-0.902275 58:-0.755057 59:0.724744 60:-0.612453 61:-0.482173 62:-0.685903 63:0.0310534 64:0.250418 65:-0.904426 66:-0.958982 67:-0.810997 68:0.0435717 69:-0.0837202 70:-0.442513 71:-0.722857 72:0.306646 73:0.547855 74:-0.772557 75:-0.820454 76:-0.508688 77:0.136803 78:-0.00451526 79:-0.338897 80:-0.35984 81:-0.204622 
-0 0 1 1:0.082701 2:-0.720215 3:-0.809447 4:0.775926 5:-0.347386 6:-0.441391 7:-0.534164 8:0.299063 9:-0.286693 10:-0.602285 11:-0.419826 12:-0.420536 13:0.713369 14:-0.601854 15:-0.730417 16:-0.667474 17:0.240952 18:-0.30043 19:-0.523504 20:-0.0305971 21:-0.28938 22:-0.0409357 23:0.0431994 24:-0.0618331 25:-0.442122 26:-0.115012 27:-0.365052 28:0.272353 29:-0.454891 30:-0.446613 31:0.494126 32:-0.0241012 33:-0.314832 34:-0.756889 35:-0.838615 36:-0.509101 37:-0.340226 38:-0.0694221 39:0.0771721 40:0.737747 41:-0.240635 42:-0.510808 43:-0.806324 44:-0.727793 45:-0.612934 46:-0.160337 47:0.428598 48:0.100827 49:-0.415148 50:-0.276933 51:-0.502172 52:-0.806327 53:0.05309 54:-0.0142251 55:0.0490265 56:-0.537266 57:-0.381049 58:-0.0308549 59:-0.234114 60:-0.395831 61:0.730219 62:-0.40149 63:-0.55027 64:-0.535029 65:-0.427955 66:-0.395788 67:-0.27048 68:-0.466294 69:-0.373831 70:0.80221 71:0.221915 72:-0.815412 73:-0.347678 74:-0.638174 75:-0.666435 76:-0.388666 77:-0.462261 78:-0.491899 79:-0.445651 80:0.79263 81:0.100526 
-0 0.3322512778063688 1 1:-0.51523 2:-0.473226 3:-0.185131 4:0.396892 5:0.464918 6:-0.46366 7:-0.801782 8:-0.70139 9:-0.645323 10:-0.191755 11:0.147659 12:0.0820662 13:0.173918 14:-0.277921 15:-0.609622 16:-0.741369 17:-0.606946 18:-0.459484 19:-0.199111 20:-0.104951 21:-0.287716 22:-0.0229187 23:0.0860463 24:-0.125492 25:-0.685155 26:-0.327991 27:-0.256274 28:-0.603431 29:-0.364036 30:-0.347771 31:-0.240656 32:0.336615 33:0.363886 34:0.111094 35:-0.508804 36:-0.725159 37:-0.355564 38:0.214648 39:0.119571 40:-0.31337 41:-0.859955 42:0.465684 43:0.248902 44:0.0348395 45:-0.32627 46:-0.0542567 47:0.333341 48:0.265165 49:-0.365207 50:-0.673097 51:-0.129963 52:-0.394356 53:0.223531 54:-0.19112 55:-0.776396 56:-0.790917 57:-0.803048 58:-0.862976 59:-0.0701521 60:0.781432 61:0.30535 62:-0.374164 63:-0.751332 64:-0.76106 65:-0.696602 66:-0.70116 67:-0.796673 68:-0.894811 69:0.647612 70:0.503609 71:0.0231131 72:-0.559348 73:-0.331321 74:-0.290434 75:-0.191738 76:-0.740928 77:-0.829904 78:0.509317 79:0.643328 80:-0.320734 81:-0.740971 
-0.3655724503376787 0.7544662049141478 1 1:-0.0854489 2:-0.302425 3:0.311386 4:-0.0501486 5:-0.482411 6:0.294064 7:-0.521982 8:-0.49582 9:-0.466053 10:0.130146 11:-0.00350513 12:-0.201602 13:0.00791972 14:-0.575229 15:0.325249 16:-0.580827 17:-0.426089 18:-0.389074 19:-0.537201 20:-0.069 21:-0.0834971 22:0.224792 23:0.0556611 24:-0.362637 25:-0.573231 26:-0.311308 27:-0.618398 28:0.225934 29:0.217863 30:0.706416 31:0.351727 32:-0.955501 33:-0.256223 34:-0.36716 35:-0.393494 36:-0.548643 37:0.025725 38:-0.040672 39:0.0440508 40:0.787353 41:-0.853591 42:-0.666361 43:-0.580623 44:-0.367298 45:-0.618073 46:-0.27569 47:0.333979 48:0.463304 49:0.234054 50:-0.152024 51:-0.203299 52:-0.549229 53:-0.39051 54:-0.888387 55:-0.276607 56:-0.192529 57:-0.474651 58:0.445551 59:-0.27598 60:0.300101 61:0.0961865 62:-0.358089 63:-0.5368 64:-0.340831 65:0.372912 66:0.122477 67:0.567971 68:-0.362528 69:-0.288041 70:-0.228153 71:0.301457 72:-0.625925 73:-0.17708 74:0.276702 75:0.550505 76:0.0564423 77:-0.560962 78:0.308654 79:-0.122313 80:0.202124 81:-0.809993 
-1 0 1 1:0.258837 2:-0.604575 3:-0.293077 4:0.191179 5:0.311904 6:-0.568195 7:-0.888612 8:-0.883439 9:-0.304509 10:-0.318144 11:-0.354412 12:0.0581592 13:0.312707 14:-0.18729 15:-0.696882 16:-0.804714 17:-0.312809 18:-0.156566 19:0.48181 20:-0.128198 21:-0.18987 22:-0.570561 23:-0.889124 24:-0.77628 25:-0.851986 26:-0.382763 27:0.212688 28:-0.0736392 29:-0.906574 30:-0.850299 31:-0.158069 32:0.544002 33:-0.29306 34:-0.777398 35:-0.794645 36:-0.284684 37:-0.181144 38:-0.405734 39:-0.504181 40:-0.114789 41:0.0957294 42:0.121253 43:-0.385293 44:-0.499582 45:-0.091275 46:0.748976 47:-0.181297 48:-0.706431 49:-0.867563 50:-0.807528 51:-0.591093 52:-0.717492 53:-0.696245 54:0.242732 55:-0.209692 56:-0.904797 57:-0.845048 58:-0.635058 59:0.0223595 60:0.131711 61:0.36622 62:-0.130704 63:-0.351528 64:-0.429188 65:-0.687818 66:-0.877765 67:-0.62379 68:-0.358264 69:0.054375 70:0.639807 71:0.0164713 72:-0.452073 73:0.416468 74:-0.865726 75:-0.828355 76:-0.783074 77:-0.832755 78:-0.668753 79:-0.000311373 80:0.0928484 81:0.346351 
-1 0 0 1:0.42867 2:-0.34321 3:0.301065 4:0.104663 5:-0.308868 6:-0.909193 7:-0.948567 8:-0.888034 9:-0.537794 10:0.597442 11:-0.208751 12:0.0796431 13:0.112868 14:-0.691218 15:-0.863658 16:-0.860792 17:-0.849863 18:-0.634918 19:-0.362273 20:0.230355 21:0.519446 22:-0.0206986 23:-0.834143 24:-0.742754 25:-0.820595 26:-0.563504 27:-0.719083 28:0.454508 29:-0.366135 30:-0.277413 31:-0.372848 32:0.177284 33:-0.619641 34:-0.928387 35:-0.756776 36:-0.0918985 37:0.439811 38:-0.385689 39:-0.107786 40:0.0317294 41:-0.321465 42:-0.739751 43:-0.892512 44:-0.719704 45:-0.237229 46:-0.0105568 47:0.266846 48:0.422714 49:-0.124539 50:0.00197168 51:-0.497083 52:-0.611712 53:-0.620242 54:-0.590648 55:0.116835 56:-0.578829 57:-0.621327 58:-0.510931 59:0.598308 60:-0.596519 61:-0.756023 62:-0.735515 63:-0.00597021 64:0.597354 65:-0.300397 66:-0.500813 67:-0.617109 68:0.0709737 69:-0.282699 70:-0.625438 71:-0.563446 72:-0.0358489 73:0.339954 74:-0.534194 75:-0.668797 76:-0.571535 77:0.433474 78:-0.0241347 79:-0.491637 80:-0.358746 81:-0.323951 
-1 0 0.6093126807351803 1:0.35373 2:-0.511564 3:-0.132011 4:0.0520901 5:0.00747154 6:-0.396761 7:-0.865424 8:-0.858497 9:-0.0350575 10:-0.264594 11:-0.427146 12:0.213684 13:0.253528 14:-0.443974 15:-0.801645 16:-0.821778 17:-0.441374 18:-0.0532175 19:-0.185327 20:-0.133309 21:0.241694 22:-0.436103 23:-0.875138 24:-0.940791 25:-0.90904 26:-0.393753 27:0.313954 28:-0.0180176 29:-0.781133 30:-0.89293 31:-0.313076 32:0.532331 33:-0.31633 34:-0.837855 35:-0.724169 36:-0.181099 37:-0.185217 38:-0.543248 39:-0.460676 40:-0.113568 41:0.106972 42:-0.219378 43:-0.505306 44:-0.368972 45:0.075626 46:0.804744 47:-0.158713 48:-0.525379 49:-0.776323 50:-0.730264 51:-0.498139 52:-0.698354 53:-0.570167 54:0.0433585 55:-0.014627 56:-0.941618 57:-0.947056 58:-0.617181 59:0.407292 60:0.147447 61:-0.640205 62:-0.691089 63:0.03219 64:-0.180374 65:-0.752841 66:-0.93252 67:-0.618964 68:0.10611 69:0.320184 70:-0.298881 71:-0.561402 72:0.098017 73:0.744717 74:-0.824951 75:-0.947951 76:-0.79041 77:-0.607827 78:-0.333368 79:-0.453104 80:-0.297309 81:0.398375 
-0 1 1 1:-0.434038 2:-0.159492 3:0.411033 4:-0.164476 5:-0.795001 6:0.506151 7:-0.177235 8:-0.739795 9:-0.638193 10:-0.436897 11:0.0750161 12:-0.148728 13:-0.0531909 14:-0.491504 15:0.533236 16:-0.0876913 17:-0.466639 18:-0.653291 19:-0.672535 20:0.0138843 21:-0.0961437 22:-0.382025 23:-0.682522 24:0.260115 25:0.451927 26:-0.0361764 27:-1 28:-0.350884 29:-0.14811 30:0.46506 31:0.513576 32:-0.531475 33:0.162652 34:-0.40269 35:-0.733841 36:-0.53145 37:-0.395715 38:0.16034 39:0.154374 40:0.730596 41:-0.867434 42:-0.278159 43:-0.542059 44:-0.461996 45:-0.413697 46:-0.421128 47:0.751148 48:0.626253 49:0.0853509 50:-0.774293 51:-0.507001 52:-0.312852 53:0.0703305 54:-0.785004 55:-0.404307 56:-0.353628 57:-0.321397 58:0.662948 59:-0.0294858 60:0.212789 61:-0.339445 62:-0.440432 63:-0.568013 64:-0.146129 65:0.296364 66:-0.12876 67:0.551829 68:-0.366186 69:0.169038 70:-0.53442 71:-0.471069 72:-0.162315 73:-0.0625274 74:-0.00501794 75:-0.327764 76:-0.0782481 77:-0.747224 78:-0.45885 79:-0.553714 80:0.106991 81:0.519069 
-1 0 0 1:0.179116 2:-0.910612 3:-0.722293 4:-0.369076 5:0.731228 6:-0.727004 7:-0.852491 8:-0.905496 9:-0.0369433 10:-0.518749 11:-0.830388 12:-0.469586 13:0.413834 14:-0.124583 15:-0.703456 16:-0.704307 17:-0.627598 18:0.544945 19:-0.406293 20:-0.243131 21:-0.0488207 22:0.254533 23:-0.579967 24:-0.410602 25:-0.712544 26:-0.469668 27:0.168911 28:-0.210468 29:-0.970522 30:-0.973736 31:-0.774381 32:0.838603 33:-0.822849 34:-0.912083 35:-0.959369 36:-0.283007 37:-0.0593323 38:-0.841977 39:-0.810527 40:-0.356759 41:0.362688 42:-0.617274 43:-0.666224 44:-0.892014 45:0.132437 46:0.373546 47:-0.316995 48:-0.561289 49:-0.551756 50:-0.105025 51:-0.420776 52:-0.671799 53:-0.843072 54:0.214007 55:0.0422931 56:-0.921033 57:-0.912434 58:-0.814553 59:0.747946 60:-0.604252 61:-0.262083 62:-0.820664 63:-0.494042 64:0.546805 65:-0.806642 66:-0.809435 67:-0.88348 68:0.163335 69:-0.0711763 70:-0.217388 71:-0.611681 72:-0.354898 73:0.603918 74:-0.878394 75:-0.798736 76:-0.811456 77:-0.0480217 78:-0.123655 79:-0.287466 80:-0.262878 81:-0.0160604 
