<?xml version="1.0"?>
<opencv_storage>
<stage7>
  <maxWeakCount>8</maxWeakCount>
  <stageThreshold>-1.0995981693267822e+00</stageThreshold>
  <weakClassifiers>
    <_>
      <internalNodes>
        0 -1 3257 -1342177793 -33599015 -1321109419 2111641691
        -573443631 -1300053551 1346422919 -268447537</internalNodes>
      <leafValues>
        -6.1103451251983643e-01 3.6761903762817383e-01</leafValues></_>
    <_>
      <internalNodes>
        0 -1 5089 -40160465 -10563085 -752757346 -203959722 -91816039
        -1086672715 -1081591906 213416287</internalNodes>
      <leafValues>
        -6.8998575210571289e-01 2.7678635716438293e-01</leafValues></_>
    <_>
      <internalNodes>
        0 -1 59 1360871733 -741326445 -805188103 -2028976257 1854102527
        -838639221 1510108879 -268481153</internalNodes>
      <leafValues>
        -5.7423603534698486e-01 2.6972997188568115e-01</leafValues></_>
    <_>
      <internalNodes>
        0 -1 6106 -579862721 1023213567 2147479511 -1124139011
        1836973373 352190463 -83951809 -1929388037</internalNodes>
      <leafValues>
        -2.9703450202941895e-01 5.4286146163940430e-01</leafValues></_>
    <_>
      <internalNodes>
        0 -1 5598 -2132134089 -1007176337 -986349063 -119793199
        869069789 -524582005 729528495 753667848</internalNodes>
      <leafValues>
        -6.0879778861999512e-01 2.5630605220794678e-01</leafValues></_>
    <_>
      <internalNodes>
        0 -1 1737 -351404451 2078301983 -50269739 1930590478 -256185491
        1747643171 -401998373 50262134</internalNodes>
      <leafValues>
        -4.7966489195823669e-01 3.2379820942878723e-01</leafValues></_>
    <_>
      <internalNodes>
        0 -1 19 -561515042 -717025161 -805288738 1541282711 -939406084
        -930463028 -880186180 1916211504</internalNodes>
      <leafValues>
        -6.9543498754501343e-01 1.7467330396175385e-01</leafValues></_>
    <_>
      <internalNodes>
        0 -1 5336 198180863 397921527 -1055811599 501216635 -527529832
        1793638402 -981251892 1004309386</internalNodes>
      <leafValues>
        -4.9009004235267639e-01 3.1791505217552185e-01</leafValues></_></weakClassifiers></stage7>
</opencv_storage>
