<?xml version="1.0"?>
<opencv_storage>
<stage6>
  <maxWeakCount>9</maxWeakCount>
  <stageThreshold>-1.2099798917770386e+00</stageThreshold>
  <weakClassifiers>
    <_>
      <internalNodes>
        0 -1 3257 -1478492705 -2129953 -1795042867 2147287637 -591277863
        -1199126381 -259997567 -268445301</internalNodes>
      <leafValues>
        -6.1042523384094238e-01 3.7428024411201477e-01</leafValues></_>
    <_>
      <internalNodes>
        0 -1 6113 -67371217 683081726 -813695017 -1342246977 -276824281
        -42467457 -108 -318767105</internalNodes>
      <leafValues>
        -3.4190484881401062e-01 5.8465296030044556e-01</leafValues></_>
    <_>
      <internalNodes>
        0 -1 56 -414628297 -241999409 -652095429 -778813129 941444607
        -134004465 -624918613 -808499969</internalNodes>
      <leafValues>
        -4.8014020919799805e-01 3.6601570248603821e-01</leafValues></_>
    <_>
      <internalNodes>
        0 -1 5089 -178899162 -2166341 -710807152 -74158 -183012387
        -1079582591 -1142931682 217873470</internalNodes>
      <leafValues>
        -7.3166811466217041e-01 2.2499223053455353e-01</leafValues></_>
    <_>
      <internalNodes>
        0 -1 1083 -838861043 1864036375 -967519401 -137834213 -324372354
        2052683887 -964204043 1089402077</internalNodes>
      <leafValues>
        -5.5758219957351685e-01 2.5134670734405518e-01</leafValues></_>
    <_>
      <internalNodes>
        0 -1 1 -1446522881 1833964774 -377437487 -1143422544 -1064809987
        1569083917 -1013758500 -700555</internalNodes>
      <leafValues>
        -4.2273876070976257e-01 3.7887290120124817e-01</leafValues></_>
    <_>
      <internalNodes>
        0 -1 224 1311471375 -75631609 2005521186 -691642849 81887197
        -397682002 -309774342 1329594111</internalNodes>
      <leafValues>
        -4.8714238405227661e-01 3.3457985520362854e-01</leafValues></_>
    <_>
      <internalNodes>
        0 -1 5654 -2102399249 532131573 -286261385 -1879574537 -1
        -557057 -16388 -1178861729</internalNodes>
      <leafValues>
        -3.8552305102348328e-01 4.1306602954864502e-01</leafValues></_>
    <_>
      <internalNodes>
        0 -1 523 -779887658 -133480165 335891149 -800485611 -1073570919
        -578224120 -1727324833 -1189453758</internalNodes>
      <leafValues>
        -3.9987266063690186e-01 3.7488207221031189e-01</leafValues></_></weakClassifiers></stage6>
</opencv_storage>
