<?xml version="1.0"?>
<opencv_storage>
<stage5>
  <maxWeakCount>7</maxWeakCount>
  <stageThreshold>-1.1778081655502319e+00</stageThreshold>
  <weakClassifiers>
    <_>
      <internalNodes>
        0 -1 6105 -270337 -167772161 -536871073 -1392508993 -513
        2113929215 -16609 -1392508929</internalNodes>
      <leafValues>
        -5.1760762929916382e-01 5.9915614128112793e-01</leafValues></_>
    <_>
      <internalNodes>
        0 -1 1646 -1056443939 -178765435 -804138604 1996603841
        -1467702826 -708614144 952384719 1001345023</internalNodes>
      <leafValues>
        -6.8494087457656860e-01 3.3046916127204895e-01</leafValues></_>
    <_>
      <internalNodes>
        0 -1 3666 1474245631 -144751169 -1517167268 -24247636 1000963071
        -5990470 1759215551 -289525984</internalNodes>
      <leafValues>
        -5.2882379293441772e-01 3.9584967494010925e-01</leafValues></_>
    <_>
      <internalNodes>
        0 -1 161 1175932483 -2015894641 -303998781 1052520539 2053069213
        2017140891 -847025201 -823245185</internalNodes>
      <leafValues>
        -5.1824605464935303e-01 3.5845357179641724e-01</leafValues></_>
    <_>
      <internalNodes>
        0 -1 5239 -2073231527 -1717832327 1564990429 -1097863268
        -1038413393 -102735445 720550485 -1088358537</internalNodes>
      <leafValues>
        -4.4917804002761841e-01 3.9890587329864502e-01</leafValues></_>
    <_>
      <internalNodes>
        0 -1 486 -50593795 -44236577 -170867499 672737916 -659563556
        -1433743937 -1056155 78673008</internalNodes>
      <leafValues>
        -6.8969637155532837e-01 2.2643223404884338e-01</leafValues></_>
    <_>
      <internalNodes>
        0 -1 162 -293605513 -177157 -16816449 -282267658 2138996597
        -134742026 2147450751 -947919504</internalNodes>
      <leafValues>
        -4.0289938449859619e-01 4.4647204875946045e-01</leafValues></_></weakClassifiers></stage5>
</opencv_storage>
