<?xml version="1.0"?>
<opencv_storage>
<stage4>
  <maxWeakCount>7</maxWeakCount>
  <stageThreshold>-1.2381833791732788e+00</stageThreshold>
  <weakClassifiers>
    <_>
      <internalNodes>
        0 -1 4901 -1346512897 -2109229 -2063477291 -4333857 -1249520403
        -574304111 -1467885057 -1078200353</internalNodes>
      <leafValues>
        -7.0184135437011719e-01 4.5128676295280457e-01</leafValues></_>
    <_>
      <internalNodes>
        0 -1 1179 -33568769 -2101281 -1077880403 -4458245 -1383427
        -533067 -77272452 -321326780</internalNodes>
      <leafValues>
        -5.4743784666061401e-01 4.4684451818466187e-01</leafValues></_>
    <_>
      <internalNodes>
        0 -1 99 1318537183 -10751089 -164896097 -285316460 2081385463
        -87138625 -604284673 -285776268</internalNodes>
      <leafValues>
        -6.1558097600936890e-01 3.9013019204139709e-01</leafValues></_>
    <_>
      <internalNodes>
        0 -1 1897 -82843684 -70827563 -788244195 -1298606967 -87093435
        -712015677 -1144057922 54259247</internalNodes>
      <leafValues>
        -6.5800118446350098e-01 3.2673195004463196e-01</leafValues></_>
    <_>
      <internalNodes>
        0 -1 5604 2096610271 -606241 -16879745 -139526147 -16924673
        -1048579 -229413 -1364638423</internalNodes>
      <leafValues>
        -3.6862546205520630e-01 5.2009582519531250e-01</leafValues></_>
    <_>
      <internalNodes>
        0 -1 3586 -408631962 -1425148518 -53313037 -1569562709
        -343322835 -308803115 -343541249 -827594489</internalNodes>
      <leafValues>
        -5.2058625221252441e-01 3.3091574907302856e-01</leafValues></_>
    <_>
      <internalNodes>
        0 -1 3747 629368407 298678743 -1054794785 -1076111170 2080472389
        -121519237 -1108330055 -1426571908</internalNodes>
      <leafValues>
        -5.4272824525833130e-01 3.2810530066490173e-01</leafValues></_></weakClassifiers></stage4>
</opencv_storage>
