<?xml version="1.0"?>
<opencv_storage>
<cascade>
  <stageType>BOOST</stageType>
  <featureType>LBP</featureType>
  <height>25</height>
  <width>20</width>
  <stageParams>
    <boostType>GAB</boostType>
    <minHitRate>9.9500000476837158e-01</minHitRate>
    <maxFalseAlarm>5.0000000000000000e-01</maxFalseAlarm>
    <weightTrimRate>9.4999999999999996e-01</weightTrimRate>
    <maxDepth>1</maxDepth>
    <maxWeakCount>100</maxWeakCount></stageParams>
  <featureParams>
    <maxCatCount>256</maxCatCount>
    <featSize>1</featSize></featureParams>
  <stageNum>6</stageNum>
  <stages>
    <!-- stage 0 -->
    <_>
      <maxWeakCount>2</maxWeakCount>
      <stageThreshold>-7.1274846792221069e-02</stageThreshold>
      <weakClassifiers>
        <_>
          <internalNodes>
            0 -1 12 -1 -4196417 -109584905 -2097157 -1312005 -69215281
            -269489665 -318832641</internalNodes>
          <leafValues>
            -9.6078431606292725e-01 8.9630138874053955e-01</leafValues></_>
        <_>
          <internalNodes>
            0 -1 11 -268435457 -1509953545 -4195329 -1342179329
            -72884225 -1310721 -71311361 -1</internalNodes>
          <leafValues>
            -8.6635971069335938e-01 8.8950943946838379e-01</leafValues></_></weakClassifiers></_>
    <!-- stage 1 -->
    <_>
      <maxWeakCount>2</maxWeakCount>
      <stageThreshold>-1.3311326503753662e-01</stageThreshold>
      <weakClassifiers>
        <_>
          <internalNodes>
            0 -1 1 -2097153 -6823937 -259261217 -2098177 -67636225
            -72352337 -68157697 -8423561</internalNodes>
          <leafValues>
            -8.8457643985748291e-01 8.5336625576019287e-01</leafValues></_>
        <_>
          <internalNodes>
            0 -1 8 -2359297 -7342105 -352062189 -3154981 -72619041
            -68420117 -628097297 -855703553</internalNodes>
          <leafValues>
            -8.9626312255859375e-01 7.5146317481994629e-01</leafValues></_></weakClassifiers></_>
    <!-- stage 2 -->
    <_>
      <maxWeakCount>3</maxWeakCount>
      <stageThreshold>-1.0271755456924438e+00</stageThreshold>
      <weakClassifiers>
        <_>
          <internalNodes>
            0 -1 5 -9 -553 -536879617 -33 -4754601 -275461 -1581321 -33</internalNodes>
          <leafValues>
            -8.7784677743911743e-01 8.0771881341934204e-01</leafValues></_>
        <_>
          <internalNodes>
            0 -1 14 -268437505 719290239 -662575337 -1392510985
            -168828929 1025244091 -76546113 -16777221</internalNodes>
          <leafValues>
            -8.3337420225143433e-01 6.9654375314712524e-01</leafValues></_>
        <_>
          <internalNodes>
            0 -1 0 -67109889 -1569 -413928481 -69212357 -38797825
            -3767923 -611319809 -33686604</internalNodes>
          <leafValues>
            -8.4587258100509644e-01 6.8415969610214233e-01</leafValues></_></weakClassifiers></_>
    <!-- stage 3 -->
    <_>
      <maxWeakCount>2</maxWeakCount>
      <stageThreshold>-2.5868627429008484e-01</stageThreshold>
      <weakClassifiers>
        <_>
          <internalNodes>
            0 -1 4 -32929 -36183073 -679225121 -536879745 2121236349
            2068573131 -67109953 -524305</internalNodes>
          <leafValues>
            -8.5774648189544678e-01 7.5540542602539062e-01</leafValues></_>
        <_>
          <internalNodes>
            0 -1 9 -4194305 -2099233 -543435905 -23169585 -2359297
            -417605 -343408705 -185139201</internalNodes>
          <leafValues>
            -8.8488900661468506e-01 5.9906023740768433e-01</leafValues></_></weakClassifiers></_>
    <!-- stage 4 -->
    <_>
      <maxWeakCount>3</maxWeakCount>
      <stageThreshold>-8.6631333827972412e-01</stageThreshold>
      <weakClassifiers>
        <_>
          <internalNodes>
            0 -1 10 -2097153 -1344275105 -686713841 -527481 -73150497
            -335822485 -799151169 -3073</internalNodes>
          <leafValues>
            -7.7521425485610962e-01 7.7801877260208130e-01</leafValues></_>
        <_>
          <internalNodes>
            0 -1 3 -103809025 -77861377 -251412065 -572532001 1456174455
            2080368991 1461809975 -137</internalNodes>
          <leafValues>
            -8.2236868143081665e-01 6.2560272216796875e-01</leafValues></_>
        <_>
          <internalNodes>
            0 -1 6 -68685313 -2158178 419939806 -4215970 -1916017985
            -16809301 -1182074401 -660481</internalNodes>
          <leafValues>
            -6.7729318141937256e-01 7.3126959800720215e-01</leafValues></_></weakClassifiers></_>
    <!-- stage 5 -->
    <_>
      <maxWeakCount>3</maxWeakCount>
      <stageThreshold>-9.8308932781219482e-01</stageThreshold>
      <weakClassifiers>
        <_>
          <internalNodes>
            0 -1 7 -142606337 2144932313 1561711071 -7097921 -1970365697
            2077079720 -108266753 2143002825</internalNodes>
          <leafValues>
            -8.2285279035568237e-01 6.0964912176132202e-01</leafValues></_>
        <_>
          <internalNodes>
            0 -1 2 -201327617 -144710337 -707266051 -11301 -606340097
            -338962694 -11796495 -201851915</internalNodes>
          <leafValues>
            -7.3040544986724854e-01 6.4082151651382446e-01</leafValues></_>
        <_>
          <internalNodes>
            0 -1 13 -136577025 -82316385 -740845605 -18941573 -216280385
            -23469693 -82853377 -184550401</internalNodes>
          <leafValues>
            -7.3846954107284546e-01 5.7016891241073608e-01</leafValues></_></weakClassifiers></_></stages>
  <features>
    <_>
      <rect>
        0 0 2 3</rect></_>
    <_>
      <rect>
        0 2 3 7</rect></_>
    <_>
      <rect>
        0 5 1 1</rect></_>
    <_>
      <rect>
        0 8 3 5</rect></_>
    <_>
      <rect>
        0 18 1 2</rect></_>
    <_>
      <rect>
        0 21 2 1</rect></_>
    <_>
      <rect>
        1 0 5 2</rect></_>
    <_>
      <rect>
        1 22 6 1</rect></_>
    <_>
      <rect>
        11 2 3 6</rect></_>
    <_>
      <rect>
        14 3 2 1</rect></_>
    <_>
      <rect>
        14 13 2 4</rect></_>
    <_>
      <rect>
        14 17 2 2</rect></_>
    <_>
      <rect>
        17 2 1 4</rect></_>
    <_>
      <rect>
        17 6 1 1</rect></_>
    <_>
      <rect>
        17 13 1 2</rect></_></features></cascade>
</opencv_storage>
