<?xml version="1.0"?>
<opencv_storage>
<stage5>
  <maxWeakCount>4</maxWeakCount>
  <stageThreshold>-5.9545922279357910e-01</stageThreshold>
  <weakClassifiers>
    <_>
      <internalNodes>
        0 -1 2649 -2097153 2145385471 -1685848615 1065341919 -76940306
        2146170795 -817173525 -17</internalNodes>
      <leafValues>
        -7.5135135650634766e-01 7.0218980312347412e-01</leafValues></_>
    <_>
      <internalNodes>
        0 -1 18 -102046230 -235940358 1211193599 -104873313 -1446039809
        -118516753 -204502785 -529417</internalNodes>
      <leafValues>
        -8.4316444396972656e-01 5.4692196846008301e-01</leafValues></_>
    <_>
      <internalNodes>
        0 -1 2833 -1686635708 -2499653 -1187572869 -10810049 -1147486277
        -4994152 -1078215685 -50331717</internalNodes>
      <leafValues>
        -7.8916835784912109e-01 5.4684835672378540e-01</leafValues></_>
    <_>
      <internalNodes>
        0 -1 5857 -2100414 -1084235461 -713829353 -1427115449 -36707702
        -3690005 -170927125 -922746881</internalNodes>
      <leafValues>
        -8.4231507778167725e-01 4.5220825076103210e-01</leafValues></_></weakClassifiers></stage5>
</opencv_storage>
