<?xml version="1.0"?>
<opencv_storage>
<cascade>
  <stageType>BOOST</stageType>
  <featureType>LBP</featureType>
  <height>25</height>
  <width>20</width>
  <stageParams>
    <boostType>DAB</boostType>
    <minHitRate>9.9500000476837158e-01</minHitRate>
    <maxFalseAlarm>5.0000000000000000e-01</maxFalseAlarm>
    <weightTrimRate>9.4999999999999996e-01</weightTrimRate>
    <maxDepth>1</maxDepth>
    <maxWeakCount>100</maxWeakCount></stageParams>
  <featureParams>
    <maxCatCount>256</maxCatCount>
    <featSize>1</featSize></featureParams>
  <stageNum>5</stageNum>
  <stages>
    <!-- stage 0 -->
    <_>
      <maxWeakCount>2</maxWeakCount>
      <stageThreshold>-5.7039809226989746e-01</stageThreshold>
      <weakClassifiers>
        <_>
          <internalNodes>
            0 -1 11 -1 -1 -1 -1 -1 -1 -1 -318832641</internalNodes>
          <leafValues>
            -3.3015737533569336e+00 3.3015737533569336e+00</leafValues></_>
        <_>
          <internalNodes>
            0 -1 4 -8421505 -1 -1 -1 2147450749 -1 -1 -1</internalNodes>
          <leafValues>
            -2.7311756610870361e+00 2.7311756610870361e+00</leafValues></_></weakClassifiers></_>
    <!-- stage 1 -->
    <_>
      <maxWeakCount>2</maxWeakCount>
      <stageThreshold>-1.8794734776020050e-01</stageThreshold>
      <weakClassifiers>
        <_>
          <internalNodes>
            0 -1 9 -1 -1342177281 -1 -1342177281 -1 -1 -1 -285212673</internalNodes>
          <leafValues>
            -2.7243499755859375e+00 2.7243499755859375e+00</leafValues></_>
        <_>
          <internalNodes>
            0 -1 1 -1 -1 -1 -1 -1 -1 -1 -655371</internalNodes>
          <leafValues>
            -2.5364024639129639e+00 2.5364024639129639e+00</leafValues></_></weakClassifiers></_>
    <!-- stage 2 -->
    <_>
      <maxWeakCount>2</maxWeakCount>
      <stageThreshold>-2.4164633452892303e-01</stageThreshold>
      <weakClassifiers>
        <_>
          <internalNodes>
            0 -1 8 -1 -1 -1 -1 -1 -1 -1 -318767105</internalNodes>
          <leafValues>
            -2.3564846515655518e+00 2.3564846515655518e+00</leafValues></_>
        <_>
          <internalNodes>
            0 -1 5 -1 -1 -1 -1 2147448695 2147483647 -34953 -1</internalNodes>
          <leafValues>
            -2.1148381233215332e+00 2.1148381233215332e+00</leafValues></_></weakClassifiers></_>
    <!-- stage 3 -->
    <_>
      <maxWeakCount>3</maxWeakCount>
      <stageThreshold>-2.2770442962646484e+00</stageThreshold>
      <weakClassifiers>
        <_>
          <internalNodes>
            0 -1 10 -1 -1342177281 -1 -1 -1 -1 -1 -1</internalNodes>
          <leafValues>
            -2.0221529006958008e+00 2.0221529006958008e+00</leafValues></_>
        <_>
          <internalNodes>
            0 -1 6 -1 -1 -2 -65537 -1 -1 -1 -34209795</internalNodes>
          <leafValues>
            -1.8470085859298706e+00 1.8470085859298706e+00</leafValues></_>
        <_>
          <internalNodes>
            0 -1 2 -1 -1 -1 -1 -1 -1 -1 -8945801</internalNodes>
          <leafValues>
            -1.5921173095703125e+00 1.5921173095703125e+00</leafValues></_></weakClassifiers></_>
    <!-- stage 4 -->
    <_>
      <maxWeakCount>5</maxWeakCount>
      <stageThreshold>-3.8163666725158691e+00</stageThreshold>
      <weakClassifiers>
        <_>
          <internalNodes>
            0 -1 12 -1 -1 -1 -16842753 -1 -1 -1 -50331649</internalNodes>
          <leafValues>
            -1.8456935882568359e+00 1.8456935882568359e+00</leafValues></_>
        <_>
          <internalNodes>
            0 -1 3 -32769 -1 -1 -1 -32769 -1 -1 -524289</internalNodes>
          <leafValues>
            -1.5674709081649780e+00 1.5674709081649780e+00</leafValues></_>
        <_>
          <internalNodes>
            0 -1 7 -1 -1 -2 -1 -1 -1 -1 -168296449</internalNodes>
          <leafValues>
            -1.4156736135482788e+00 1.4156736135482788e+00</leafValues></_>
        <_>
          <internalNodes>
            0 -1 13 -268435457 805240831 -1 -1 -1 -1 -1 -33554433</internalNodes>
          <leafValues>
            -1.3297364711761475e+00 1.3297364711761475e+00</leafValues></_>
        <_>
          <internalNodes>
            0 -1 0 -1 -1 -1 -1 -1 -1 -1 -131083</internalNodes>
          <leafValues>
            -1.3491792678833008e+00 1.3491792678833008e+00</leafValues></_></weakClassifiers></_></stages>
  <features>
    <_>
      <rect>
        0 0 2 3</rect></_>
    <_>
      <rect>
        0 0 2 5</rect></_>
    <_>
      <rect>
        0 4 4 5</rect></_>
    <_>
      <rect>
        0 16 1 3</rect></_>
    <_>
      <rect>
        0 19 1 2</rect></_>
    <_>
      <rect>
        0 19 3 2</rect></_>
    <_>
      <rect>
        1 0 5 2</rect></_>
    <_>
      <rect>
        2 5 6 1</rect></_>
    <_>
      <rect>
        11 3 3 5</rect></_>
    <_>
      <rect>
        14 12 2 4</rect></_>
    <_>
      <rect>
        14 15 2 3</rect></_>
    <_>
      <rect>
        17 2 1 4</rect></_>
    <_>
      <rect>
        17 5 1 1</rect></_>
    <_>
      <rect>
        17 18 1 2</rect></_></features></cascade>
</opencv_storage>
