svm_type c_svc
kernel_type rbf
gamma 0.0133333
nr_class 2
total_sv 59
rho -1.89319
label 0 1
probA -4.9287
probB -0.0688944
nr_sv 32 27
SV
1 1:1 2:-0.991194 3:-0.980942 4:-0.995137 5:-0.987645 6:-0.995531 7:-0.987514 8:-0.863442 9:0.76421 10:-0.969113 11:-0.9908 12:-0.989223 13:-0.998817 14:-0.994743 15:-0.949793 16:-0.995006 17:-0.954525 18:-0.99908 26:1 27:-0.908414 28:-0.942758 29:-0.957319 30:-0.964655 31:-0.979326 32:-0.97577 33:-0.977659 34:-0.973991 35:-0.961543 36:-0.944092 37:-0.894742 38:-0.551961 39:-0.572413 40:-0.935867 41:-0.983328 42:-0.99322 43:-0.998222 44:-0.999222 45:-1 46:-0.999889 47:-1 48:-1 49:-1 50:-1 51:-1 52:-1 53:-1 54:-1 55:-0.991376 56:-0.902686 57:-0.848843 58:-0.903968 59:-0.947322 60:-0.952567 61:-0.906066 62:-0.634986 63:-0.659926 64:-0.941728 65:-0.981353 66:-0.984034 67:-0.979022 68:-0.978789 69:-0.977973 70:-0.973661 71:-0.96189 72:-0.958277 73:-0.937766 74:-0.922965 75:1 
0.01499771975471811 1:-0.703803 2:-0.820845 3:-0.950775 4:-0.986901 5:-0.987042 6:-0.996338 7:-0.994718 8:-0.986338 9:-0.987535 10:-0.973451 11:1 12:-0.562113 13:-0.723099 14:-0.949859 15:-0.956549 16:-0.947887 17:-0.917817 18:-0.959155 26:-0.231615 27:-0.072845 28:-0.046325 29:0.06492 30:0.30222 31:0.087655 32:-0.18581 33:-0.11555 34:0.36525 35:0.59704 36:0.27949 37:0.373515 38:1 39:0.551575 40:-0.46995 41:-0.937661 42:-0.985879 43:-0.993456 44:-0.998278 45:-0.998967 46:-1 47:-0.999656 48:-1 49:-1 50:-1 51:-1 52:-0.984628 53:-0.500269 54:-0.498885 55:-0.777726 56:-0.840136 57:-0.860426 58:-0.863193 59:-0.872877 60:-0.900545 61:-0.91561 62:-0.928522 63:-0.918377 64:-0.86104 65:-0.835677 66:-0.826915 67:-0.845977 68:-0.847052 69:-0.882714 70:-0.861348 71:-0.727769 72:-0.05188 73:1 74:0.213435 75:-0.763123 
0.8156258960085748 1:-0.879557 2:-0.773129 3:-0.915508 4:-0.973799 5:-0.978877 6:-0.98233 7:-0.976643 8:-0.93338 9:1 10:-0.828983 11:-0.995735 12:-0.998172 13:-0.998781 14:-0.998781 15:-0.999188 16:-0.998578 17:-0.996953 18:-0.996344 26:-1 27:-0.990455 28:-0.947871 29:-0.928047 30:-0.863436 31:-0.851688 32:-0.829662 33:-0.809838 34:-0.723936 35:-0.671806 36:-0.438325 37:0.1674 38:1 39:0.67768 40:0.17401 41:-0.403085 42:-0.656388 43:-0.84141 44:-0.922907 45:-0.958884 46:-0.961821 47:-0.963289 48:-0.987518 49:-0.98091 50:-0.640969 51:-1 52:-0.946887 53:-0.898998 54:-0.821506 55:-0.804092 56:-0.851981 57:-0.827601 58:-0.848498 59:-0.827601 60:-0.7266 61:-0.45494 62:-0.07096 63:0.744015 64:1 65:0.795385 66:0.26426 67:-0.35655 68:-0.7771 69:-0.939051 70:-0.976491 71:-0.953853 72:-0.969525 73:-0.96256 74:-0.97475 75:-0.765781 
1 1:-0.996989 2:-0.995505 3:-0.99389 4:-0.557651 5:-0.573667 6:-0.740377 7:-0.816793 8:-0.872174 9:1 10:0.230295 11:-0.997992 12:-0.99856 13:-0.99856 14:-0.999389 15:-0.999738 16:-0.999782 17:-0.999869 18:-0.999825 26:-0.99914 27:-0.976146 28:-0.465275 29:-0.592054 30:0.259035 31:1 32:0.224075 33:-0.570155 34:-0.678007 35:-0.693023 36:-0.709057 37:-0.506178 38:-0.364225 39:-0.686141 40:-0.927499 41:-0.951744 42:-0.988503 43:-0.994212 44:-0.99562 45:-0.997263 46:-0.998279 47:-0.998905 48:-0.999061 49:-1 50:-0.996246 51:-1 52:-0.961555 53:-0.955969 54:-0.940525 55:-0.923001 56:-0.93483 57:-0.961336 58:-0.97448 59:-0.968456 60:-0.99069 61:-0.988828 62:-0.977328 63:-0.98138 64:-0.951698 65:-0.929792 66:-0.743154 67:-0.21424 68:0.529135 69:-0.14874 70:0.179845 71:1 72:0.2862 73:0.242495 74:-0.049725 75:-0.25575 
1 1:1 2:-0.846796 3:-0.819492 4:-0.870307 5:-0.585893 6:-0.8741 7:-0.946909 8:-0.932499 9:-0.837695 10:-0.979522 11:-0.984073 12:-0.967387 13:-0.971179 14:-0.96587 15:-0.804323 16:-0.947668 17:-0.732271 18:-0.838453 26:1 27:-0.805656 28:-0.902103 29:-0.936185 30:-0.923133 31:-0.915156 32:-0.915881 33:-0.93546 34:-0.91008 35:-0.934735 36:-0.907904 37:-0.918056 38:-0.923132 39:-0.927484 40:-0.920232 41:-0.857868 42:-0.729514 43:-0.894852 44:-0.936911 45:-0.957215 46:-0.976795 47:-0.992023 48:-0.99855 49:-1 50:-0.983321 51:-1 52:-0.926431 53:-0.83466 54:-0.946909 55:-0.963595 56:-0.972696 57:-0.952218 58:-0.956769 59:-0.943875 60:-0.960561 61:-0.946909 62:-0.899886 63:-0.872583 64:-0.870307 65:-0.84983 66:-0.872582 67:-0.868791 68:-0.900645 69:-0.906712 70:-0.9416 71:-0.929466 72:-0.934016 73:-0.940083 74:-0.90292 75:1 
1 1:-1 2:-0.99827 3:-0.99827 4:-1 5:-0.99654 6:-0.986159 7:-0.986159 8:-0.948097 9:-0.47059 10:1 11:-0.567474 12:-0.99827 13:-1 14:-1 15:-1 16:-1 17:-0.99827 18:-1 26:-1 27:-0.769585 28:-0.788018 29:-0.714285 30:-0.49309 31:-0.529954 32:-0.548387 33:-0.585253 34:-0.56682 35:-0.732719 36:-0.631336 37:-0.612903 38:-0.43779 39:-0.115205 40:0.64977 41:0.62212 42:0.612905 43:1 44:-0.05069 45:-0.391705 46:-0.34562 47:-0.769585 48:-0.907834 49:-0.981567 50:-0.806451 51:-1 52:-0.92 53:-0.92 54:-0.949473 55:-0.898948 56:-0.84421 57:-0.814737 58:-0.831579 59:-0.84421 60:-0.877894 61:-0.945263 62:-0.886316 63:-0.91579 64:-0.907368 65:-0.827368 66:-0.831579 67:-0.814737 68:-0.924211 69:-0.894737 70:-0.903158 71:-0.84 72:-0.671579 73:-0.170525 74:1 75:0.650525 
1 1:1 2:-0.680767 3:-0.945803 4:-0.998678 5:-0.996034 6:-0.997356 7:-0.999339 8:-0.995373 9:-0.913417 10:-0.975545 11:-0.0152 12:-0.832782 13:-0.900199 14:-0.92267 15:-0.761401 16:-0.857237 17:-0.643093 18:-0.604759 26:1 27:-0.700765 28:-0.864996 29:-0.878914 30:-0.901183 31:-0.940153 32:-0.910926 33:-0.866388 34:-0.835769 35:-0.755045 36:-0.620042 37:-0.518441 38:-0.372305 39:-0.480865 40:-0.530968 41:-0.504523 42:-0.50174 43:-0.691023 44:-0.777314 45:-0.855254 46:-0.89144 47:-0.942936 48:-0.94572 49:-1 50:-0.42519 51:-0.972467 52:-0.969163 53:-0.931718 54:-0.947136 55:-0.952643 56:-0.987885 57:-0.963656 58:-1 59:-0.953744 60:-0.965859 61:-0.977974 62:-0.987885 63:-0.933921 64:-0.928414 65:-0.920705 66:-0.887665 67:-0.867842 68:-0.854626 69:-0.872247 70:-0.916299 71:-0.905286 72:-0.872246 73:-0.86674 74:-0.813876 75:1 
1 1:-0.994729 2:-0.483245 3:1 4:-0.837411 5:-0.988313 6:-1 7:-1 8:-1 9:-1 10:-1 11:-1 12:-1 13:-1 14:-1 15:-1 16:-1 17:-0.999198 18:-0.999656 26:-1 27:-1 28:-1 29:-1 30:-1 31:-1 32:-0.988885 33:-0.82155 34:-0.40043 35:0.035505 36:0.29361 37:0.5301 38:1 39:0.73325 40:0.554185 41:0.246065 42:-0.00216 43:-0.32325 44:-0.492435 45:-0.63816 46:-0.698672 47:-0.790058 48:-0.885149 49:-0.93887 50:-0.876505 51:-1 52:-1 53:-0.999442 54:-0.987727 55:-0.89735 56:-0.700419 57:-0.519665 58:-0.48117 59:-0.36904 60:-0.39247 61:-0.516318 62:-0.658019 63:-0.774058 64:-0.871687 65:-0.896792 66:-0.847698 67:-0.737796 68:-0.660809 69:-0.48954 70:-0.198885 71:0.35788 72:0.9576 73:1 74:0.42092 75:-0.603905 
0.8397814984587415 1:1 2:-0.99168 3:-0.969741 4:-0.977144 5:-0.86942 6:0.39668 7:-0.378205 8:-0.889525 9:-0.976703 10:-0.978842 11:-0.94658 12:-0.932248 13:-0.4373 14:-0.887996 15:-0.969231 16:-0.988861 17:-0.973273 18:-0.998302 26:1 27:-0.974693 28:-0.965797 29:-0.944462 30:-0.922634 31:-0.90737 32:-0.887019 33:-0.875334 34:-0.812083 35:-0.756511 36:-0.703993 37:-0.67455 38:-0.661125 39:-0.736325 40:-0.811459 41:-0.866866 42:-0.901692 43:-0.948434 44:-0.963631 45:-0.978664 46:-0.985328 47:-0.990908 48:-0.99616 49:-1 50:-0.884459 51:-0.753945 52:-0.909957 53:-0.923991 54:-0.915161 55:-0.878164 56:-0.863828 57:-0.81498 58:-0.769154 59:-0.700396 60:-0.726851 61:-0.742866 62:-0.786679 63:-0.807292 64:-0.875075 65:-0.922648 66:-0.959478 67:-0.983381 68:-0.998523 69:-1 70:-0.999429 71:-0.993017 72:-0.987175 73:-0.981333 74:-0.967938 75:1 
1 1:1 2:-0.724368 3:-0.931562 4:-0.964862 5:-0.979631 6:-0.991181 7:-0.991156 8:-0.987074 9:-0.945122 10:-0.923789 11:-0.966989 12:-0.984612 13:-0.985693 14:-0.992542 15:-0.98388 16:-0.981718 17:-0.934389 18:-0.902659 26:-0.707751 27:-0.592289 28:-0.662288 29:-0.715307 30:-0.715329 31:-0.762487 32:-0.768992 33:-0.750016 34:-0.688669 35:-0.673922 36:-0.604009 37:-0.487195 38:-0.178935 39:0.29244 40:0.92339 41:1 42:0.244315 43:-0.746302 44:-0.925301 45:-0.962157 46:-0.977977 47:-0.990491 48:-0.996866 49:-1 50:-0.953592 51:-1 52:-0.913998 53:-0.80679 54:-0.801268 55:-0.732584 56:-0.707261 57:-0.664488 58:-0.628807 59:-0.523723 60:-0.43965 61:-0.21595 62:0.12606 63:0.673735 64:0.861685 65:1 66:0.90789 67:0.63119 68:-0.037805 69:-0.39828 70:-0.569631 71:-0.632433 72:-0.73046 73:-0.736995 74:-0.706345 75:-0.068455 
0.3349663532215895 1:1 2:-0.06173 3:-0.33613 4:0.266975 5:0.13706 6:-0.215805 7:-0.796597 8:-0.904108 9:-0.766355 10:-0.552995 11:0.61689 12:-0.901157 13:-0.949657 14:-0.945138 15:-0.862247 16:-0.927712 17:-0.773362 18:-0.571989 26:-0.657891 27:-0.847687 28:-0.764688 29:-0.603302 30:-0.426745 31:-0.46155 32:-0.34925 33:-0.20482 34:-0.05102 35:-0.00223 36:0.1303 37:-0.05459 38:-0.07095 39:-0.37305 40:-0.547821 41:-0.690614 42:-0.717091 43:-0.811096 44:-0.853488 45:-0.856016 46:-0.894541 47:-0.9527 48:-0.95389 49:-1 50:1 51:-0.732016 52:-0.663244 53:-0.769387 54:-0.800967 55:-0.785685 56:-0.812549 57:-0.806698 58:-0.797743 59:-0.768014 60:-0.793505 61:-0.75876 62:-0.741329 63:-0.742822 64:-0.830577 65:-0.877082 66:-0.919766 67:-0.945615 68:-0.982568 69:-0.991881 70:-1 71:-0.995523 72:-0.98806 73:-0.95451 74:-0.856964 75:1 
1 1:1 2:-0.690991 3:-0.954366 4:-0.979747 5:-0.977574 6:-0.991047 7:-0.995741 8:-0.990612 9:-0.997566 10:-0.998262 11:-0.983224 12:-0.894824 13:-0.952975 14:-0.840149 15:-0.941327 16:-0.899952 17:-0.807988 18:-0.647616 26:-0.758672 27:1 28:-0.631916 29:-0.826233 30:-0.860969 31:-0.924801 32:-0.951262 33:-0.977449 34:-0.981996 35:-0.987543 36:-0.993817 37:-0.992362 38:-0.992635 39:-0.993089 40:-0.992635 41:-0.991816 42:-0.980086 43:-0.892066 44:-0.808229 45:-0.865424 46:-0.984724 47:-0.999545 48:-1 49:-0.999909 50:-0.999727 51:-1 52:-0.638033 53:-0.864169 54:-0.936736 55:-0.973578 56:-0.985114 57:-0.992805 58:-0.993426 59:-0.993426 60:-0.989208 61:-0.976431 62:-0.963902 63:-0.865906 64:-0.893444 65:-0.895677 66:-0.884885 67:-0.866278 68:-0.874093 69:-0.929045 70:-0.934627 71:-0.923091 72:-0.908578 73:-0.720275 74:-0.300875 75:1 
1 1:-0.64423 2:-0.763472 3:-0.898231 4:-0.46404 5:1 6:-0.830712 7:-0.99343 8:-0.997484 9:-0.998882 10:-0.99972 11:-0.999301 12:-0.999301 13:-0.998462 14:-0.998043 15:-0.996086 16:-0.991892 17:-0.960858 18:-0.922975 26:-1 27:-0.894911 28:-0.759955 29:-0.633849 30:-0.289825 31:-0.09624 32:0.12279 33:0.42367 34:0.905975 35:0.940265 36:0.80199 37:0.936945 38:1 39:0.70575 40:0.67367 41:0.649335 42:0.832965 43:0.67146 44:0.60177 45:0.027655 46:-0.463495 47:-0.765486 48:-0.886062 49:-0.920354 50:-0.184735 51:-1 52:-0.885665 53:-0.918942 54:-0.808873 55:-0.860922 56:-0.854096 57:-0.804607 58:-0.813993 59:-0.717577 60:-0.799488 61:-0.730375 62:-0.48976 63:-0.422355 64:-0.377135 65:-0.48464 66:-0.230375 67:0.090445 68:-0.206485 69:-0.00256 70:0.024745 71:0.380545 72:0.41297 73:0.769625 74:1 75:0.298635 
1 1:1 2:-0.96556 3:-0.957882 4:-0.988378 5:-0.980167 6:-0.990937 7:-0.984539 8:-0.955856 9:-0.914485 10:-0.921523 11:-0.894652 12:-0.906275 13:-0.862878 14:-0.931759 15:-0.893373 16:-0.928667 17:-0.87514 18:-0.536919 26:1 27:-0.767358 28:-0.743974 29:-0.772035 30:-0.868449 31:-0.935004 32:-0.958868 33:-0.966902 34:-0.960787 35:-0.958268 36:-0.943278 37:-0.931047 38:-0.864492 39:-0.784627 40:-0.715313 41:-0.887876 42:-0.993165 43:-0.99988 44:-1 45:-1 46:-1 47:-1 48:-1 49:-1 50:-1 51:-1 52:-1 53:-1 54:-1 55:-1 56:-1 57:-0.95578 58:-0.44916 59:-0.713987 60:-0.933362 61:-0.958983 62:-0.960584 63:-0.951346 64:-0.951222 65:-0.938412 66:-0.928804 67:-0.893822 68:-0.880274 69:-0.8464 70:-0.834206 71:-0.845291 72:-0.937796 73:-0.981031 74:-0.983618 75:1 
1 1:1 2:-0.11526 3:-0.922801 4:-0.984684 5:-0.98621 6:-0.979881 7:-0.993049 8:-0.970443 9:-0.959988 10:-0.992992 11:-0.975925 12:-0.953375 13:-0.954336 14:-0.950041 15:-0.905508 16:-0.915058 17:-0.784114 18:-0.918562 26:1 27:-0.740097 28:-0.807759 29:-0.845865 30:-0.883076 31:-0.913772 32:-0.895616 33:-0.877783 34:-0.844807 35:-0.832756 36:-0.813052 37:-0.798721 38:-0.781623 39:-0.82779 40:-0.847901 41:-0.886577 42:-0.887798 43:-0.928184 44:-0.944144 45:-0.959696 46:-0.968896 47:-0.983552 48:-0.99316 49:-1 50:-0.82038 51:-0.682963 52:-0.988305 53:-0.981035 54:-1 55:-0.977979 56:-0.980086 57:-0.97524 58:-0.965125 59:-0.904119 60:-0.855863 61:-0.855652 62:-0.872405 63:-0.81709 64:-0.829733 65:-0.828259 66:-0.80255 67:-0.716468 68:-0.666632 69:-0.587398 70:-0.529449 71:-0.481405 72:-0.595933 73:-0.669265 74:-0.816247 75:1 
0.9629110320801938 1:1 2:-0.986325 3:-0.96065 4:-0.993302 5:-0.988111 6:-0.997767 7:-0.996428 8:-0.982418 9:-0.959422 10:-0.973543 11:-0.904945 12:-0.748437 13:-0.936481 14:-0.889931 15:-0.544987 16:-0.925653 17:-0.77975 18:-0.735711 26:1 27:-0.963718 28:-0.881572 29:-0.809707 30:-0.880174 31:-0.904878 32:-0.878478 33:-0.878927 34:-0.887062 35:-0.922994 36:-0.948047 37:-0.963818 38:-0.969008 39:-0.974747 40:-0.976095 41:-0.979239 42:-0.979439 43:-0.98917 44:-0.991616 45:-0.996057 46:-0.995459 47:-0.996706 48:-0.998702 49:-1 50:-0.950792 51:-0.46001 52:-1 53:-0.99511 54:-0.996383 55:-0.981712 56:-0.988746 57:-0.96885 58:-0.973406 59:-0.946812 60:-0.94527 61:-0.948955 62:-0.927452 63:-0.905212 64:-0.937634 65:-0.948084 66:-0.940782 67:-0.93328 68:-0.933012 69:-0.907757 70:-0.901996 71:-0.813505 72:-0.892283 73:-0.89456 74:-0.930667 75:1 
0.03484904072156898 1:-1 2:-1 3:-1 4:-1 5:-1 6:-0.995724 7:-0.984898 8:-0.952967 9:-0.858445 10:1 11:0.59699 12:-0.997726 13:-1 14:-1 15:-1 16:-1 17:-1 18:-1 26:-1 27:-1 28:-0.987825 29:-0.946976 30:-0.890669 31:-0.877373 32:-0.899559 33:-0.910132 34:-0.89996 35:-0.895074 36:-0.818182 37:-0.667841 38:-0.53376 39:-0.494995 40:-0.18182 41:0.206245 42:1 43:-0.622267 44:-0.922227 45:-0.965639 46:-0.990549 47:-0.997517 48:-0.99984 49:-1 50:-1 51:-1 52:-1 53:-1 54:-1 55:-1 56:-1 57:-1 58:-1 59:-1 60:-0.999201 61:-0.99035 62:-0.94757 63:-0.770184 64:0.046865 65:1 66:0.154735 67:-0.762254 68:-0.901779 69:-0.923968 70:-0.937859 71:-0.923415 72:-0.942776 73:-0.963428 74:-0.994222 75:-1 
1 1:1 2:0.661175 3:-0.58267 4:-0.893353 5:-0.95038 6:-0.971857 7:-0.988891 8:-0.985188 9:-0.988891 10:-0.995556 11:-0.98815 12:-0.977412 13:-0.974819 14:-0.952601 15:-0.917053 16:-0.880022 17:-0.50861 18:-0.57119 26:-0.573086 27:-0.70116 28:-0.722506 29:-0.651044 30:-0.458005 31:-0.627842 32:-0.639907 33:-0.557308 34:-0.29745 35:-0.28167 36:-0.35963 37:-0.47378 38:1 39:-0.549884 40:-0.50348 41:-0.6 42:-0.691879 43:-0.734571 44:-0.789327 45:-0.865429 46:-0.812529 47:-0.881206 48:-0.928538 49:-1 50:0.29745 51:1 52:-0.601425 53:-0.920665 54:-0.892161 55:-0.889311 56:-0.932542 57:-0.960095 58:-0.969596 59:-0.955819 60:-0.979097 61:-0.989074 62:-0.966746 63:-0.943943 64:-0.964846 65:-0.990499 66:-0.971971 67:-0.977197 68:-0.976247 69:-0.971021 70:-0.977197 71:-0.969596 72:-0.997625 73:-1 74:-0.925415 75:-0.21805 
0.5075399136899973 1:-0.394625 2:0.426645 3:0.31987 4:-0.49568 5:-0.899726 6:-0.95197 7:-0.949863 8:-0.933732 9:-0.825333 10:1 11:-0.921033 12:-0.986698 13:-0.990069 14:-0.993259 15:-0.991032 16:-0.980439 17:-0.934214 18:-0.947335 26:-1 27:-0.902006 28:-0.73525 29:-0.682539 30:-0.543695 31:-0.514345 32:-0.4711 33:-0.35921 34:-0.107395 35:0.067865 36:0.02833 37:0.31177 38:1 39:-0.363045 40:-0.585864 41:-0.683138 42:-0.706738 43:-0.798382 44:-0.8354 45:-0.870021 46:-0.883438 47:-0.919736 48:-0.931237 49:-0.948008 50:-0.309255 51:-1 52:-0.767066 53:-0.37545 54:-0.381435 55:-0.4247 56:-0.537125 57:-0.588024 58:-0.617216 59:-0.583683 60:-0.682185 61:-0.716617 62:-0.738174 63:-0.696557 64:-0.724251 65:-0.711826 66:-0.68967 67:-0.643713 68:-0.663024 69:-0.629491 70:-0.593563 71:-0.36916 72:0.692815 73:1 74:0.40898 75:-0.00928 
0.3862469771388113 1:-0.942535 2:-0.943719 3:-0.977449 4:-0.997911 5:-0.999503 6:-0.999881 7:-0.999871 8:-0.999433 9:-0.999602 10:-0.998478 11:1 12:-0.951945 13:-0.946434 14:-0.950512 15:-0.967323 16:-0.977071 17:-0.976485 18:-0.9905 26:-0.940274 27:-0.86789 28:-0.891019 29:-0.876239 30:-0.844996 31:-0.862907 32:-0.878462 33:-0.895295 34:-0.903139 35:-0.908863 36:-0.830586 37:-0.31538 38:0.983335 39:1 40:-0.035165 41:-0.580641 42:-0.689656 43:-0.823651 44:-0.917314 45:-0.966131 46:-0.989058 47:-0.996903 48:-0.999461 49:-1 50:-0.979497 51:-1 52:-0.973264 53:-0.951137 54:-0.93366 55:-0.888846 56:-0.831766 57:-0.864435 58:-0.934061 59:-0.934342 60:-0.816013 61:-0.574386 62:-0.45682 63:-0.178555 64:0.401785 65:1 66:0.7433 67:-0.16765 68:-0.793286 69:-0.929011 70:-0.963844 71:-0.98116 72:-0.9905 73:-0.993947 74:-0.995791 75:-0.857541 
0.9666750003203197 1:0.100175 2:-0.561088 3:1 4:0.44644 5:0.791545 6:-0.405905 7:-0.887667 8:-0.981471 9:-0.995368 10:-0.995368 11:-0.997684 12:-0.996526 13:-0.991893 14:-0.99421 15:-0.990735 16:-0.99421 17:-0.979155 18:-0.973364 26:-0.880794 27:-0.865894 28:-0.804636 29:-0.75 30:-0.602649 31:-0.445365 32:0.218545 33:1 34:0.69371 35:-0.09934 36:-0.501655 37:-0.673841 38:-0.372515 39:-0.549669 40:-0.475165 41:-0.503311 42:-0.566225 43:-0.966887 44:-0.998344 45:-1 46:-1 47:-1 48:-1 49:-1 50:-1 51:-1 52:-1 53:-1 54:-1 55:-1 56:-0.992553 57:-0.977658 58:-0.952834 59:-0.951179 60:-0.947869 61:-0.952007 62:-0.951179 63:-0.940422 64:-0.886636 65:-0.86595 66:-0.805544 67:-0.719487 68:-0.701283 69:-0.62019 70:-0.587091 71:-0.663219 72:-0.699627 73:-0.68556 74:-0.673976 75:1 
0.9716863586119882 1:1 2:-0.235965 3:-0.780926 4:-0.960763 5:-0.980381 6:-0.991281 7:-0.99346 8:-0.99673 9:-0.99564 10:-0.99782 11:-0.99564 12:-0.992371 13:-0.99673 14:-0.99891 15:-0.99455 16:-0.990191 17:-0.914987 18:-0.532425 26:-0.959911 27:-0.942093 28:-0.706013 29:-0.674833 30:-0.47439 31:-0.48775 32:-0.29176 33:-0.193765 34:0.03786 35:-0.367485 36:-0.46548 37:-0.113585 38:-0.10913 39:-0.41648 40:-0.52784 41:-0.39421 42:-0.05568 43:-0.135855 44:-0.41648 45:-0.501113 46:1 47:0.05568 48:-0.937639 49:-1 50:-1 51:-1 52:-1 53:-1 54:-1 55:-0.875312 56:-0.31172 57:-0.23691 58:-0.082295 59:-0.082295 60:-0.137155 61:-0.08728 62:0.08728 63:0.241895 64:0.062345 65:0.04738 66:-0.361595 67:-0.506234 68:-0.536159 69:-0.720698 70:-0.63591 71:-0.546134 72:-0.381545 73:-0.201995 74:-0.02743 75:1 
0.1958340629271015 1:1 2:-0.27606 3:-0.91379 4:-0.99375 5:-0.989777 6:-0.99826 7:-0.996241 8:-0.978694 9:-0.992247 10:-0.989519 11:-0.976761 12:-0.960396 13:-0.763039 14:-0.762524 15:-0.577668 16:-0.637804 17:-0.519013 18:-0.726055 26:-0.479245 27:-0.970738 28:-0.949745 29:-0.249285 30:0.124125 31:0.34502 32:0.76495 33:0.81083 34:1 35:0.511925 36:0.124525 37:-0.088345 38:-0.140665 39:-0.285625 40:-0.270595 41:-0.283955 42:-0.286975 43:-0.45913 44:-0.667064 45:-0.878817 46:-0.947439 47:-0.986562 48:-0.991253 49:-1 50:-0.918336 51:-1 52:1 53:0.710535 54:-0.26553 55:-0.531589 56:-0.718854 57:-0.767781 58:-0.792617 59:-0.57083 60:-0.33768 61:-0.629754 62:-0.644966 63:-0.503151 64:-0.559653 65:-0.518053 66:-0.508242 67:-0.457575 68:-0.558102 69:-0.59697 70:-0.655832 71:-0.650181 72:-0.680482 73:-0.650181 74:-0.593431 75:-0.008165 
0.1099898134256895 1:-0.992528 2:-0.999917 3:-0.999972 4:-1 5:-0.999972 6:-1 7:-1 8:-1 9:-0.999835 10:-0.998484 11:-0.996995 12:1 13:-0.579218 14:-0.764464 15:-0.770916 16:-0.816159 17:-0.752416 18:-0.967715 26:-0.564514 27:-0.380065 28:-0.51697 29:-0.025775 30:0.241585 31:0.063295 32:0.039525 33:0.199915 34:0.6238 35:0.766435 36:0.82171 37:0.79722 38:1 39:0.12559 40:-0.794501 41:-0.958614 42:-0.98883 43:-0.994558 44:-0.997566 45:-0.998711 46:-0.999427 47:-1 48:-1 49:-1 50:-1 51:-1 52:-1 53:-1 54:-0.999112 55:-0.998097 56:-0.995307 57:-0.976408 58:-0.89244 59:-0.823693 60:-0.864282 61:-0.785642 62:-0.587519 63:-0.188735 64:0.261925 65:0.29579 66:0.59234 67:1 68:0.961695 69:0.16502 70:0.29249 71:0.06177 72:-0.45789 73:-0.576991 74:-0.49759 75:-0.523084 
0.2241201989213482 1:1 2:-0.350345 3:-0.937751 4:-0.985697 5:-0.996361 6:-0.998011 7:-0.999577 8:-1 9:-1 10:-0.999958 11:-1 12:-1 13:-1 14:-1 15:-1 16:-1 17:-0.996234 18:-0.987136 26:-1 27:-0.999848 28:-0.997574 29:-0.992268 30:-0.986507 31:-0.978017 32:-0.935567 33:-0.831413 34:-0.727714 35:-0.644784 36:-0.570194 37:-0.47635 38:-0.19997 39:-0.009095 40:0.36704 41:0.782445 42:1 43:-0.457245 44:-0.710734 45:-0.839751 46:-0.948453 47:-0.996968 48:-0.998939 49:-0.999697 50:-1 51:-1 52:-1 53:-0.991816 54:-0.816611 55:-0.41649 56:0.021825 57:-0.125495 58:-0.072445 59:-0.12216 60:-0.354045 61:-0.1749 62:-0.038195 63:0.304335 64:0.699 65:0.75902 66:0.613215 67:1 68:-0.05638 69:0.00697 70:0.462565 71:-0.128525 72:-0.882085 73:-0.996969 74:-1 75:-1 
0.9051136158693073 1:1 2:-0.83743 3:-0.944095 4:-0.656692 5:-0.989447 6:-0.998464 7:-0.997996 8:-0.997929 9:-0.998798 10:-0.999399 11:-0.999733 12:-0.998998 13:-0.999666 14:-0.999332 15:-0.998931 16:-0.998597 17:-0.993989 18:-0.969076 26:-0.971866 27:-0.966487 28:-0.990484 29:-1 30:-0.967729 31:-0.983037 32:-0.980141 33:-0.946214 34:-0.940422 35:-0.882085 36:-0.796442 37:-0.592884 38:-0.217625 39:-0.251965 40:-0.330575 41:0.726105 42:-0.232105 43:-0.167565 44:-0.290855 45:-0.28258 46:0.8825 47:-0.374845 48:-0.11212 49:0.387255 50:1 51:1 52:-0.547697 53:-0.889046 54:-0.923306 55:-0.959453 56:-0.987113 57:-0.965111 58:-0.933365 59:-0.853528 60:-0.816439 61:-0.768348 62:-0.724029 63:-0.550526 64:-0.614647 65:-0.5653 66:-0.442715 67:-0.270785 68:-0.314475 69:-0.399025 70:-0.49269 71:-0.679082 72:-0.935565 73:-1 74:-0.983341 75:-0.851328 
1 1:0.61931 2:1 3:0.16464 4:-0.572998 5:-0.614011 6:-0.936029 7:-0.961538 8:-0.947214 9:-0.953493 10:-0.951923 11:-0.95938 12:-0.967033 13:-0.966641 14:-0.977826 15:-0.974097 16:-0.952316 17:-0.783556 18:-0.549647 26:-0.971328 27:-0.08888 28:0.401085 29:-0.115005 30:-0.463525 31:-0.601784 32:-0.604332 33:-0.594138 34:-0.3928 35:-0.311245 36:0.090155 37:0.637465 38:1 39:0.63364 40:0.35075 41:0.132845 42:0.19465 43:0.087605 44:-0.018795 45:-0.244345 46:-0.552724 47:-0.841351 48:-0.945842 49:-1 50:-0.950303 51:-0.999175 52:-1 53:-0.92241 54:-0.47627 55:-0.189845 56:-0.34833 57:-0.4416 58:-0.51754 59:-0.526207 60:-0.617416 61:-0.596781 62:-0.572431 63:-0.515889 64:-0.48535 65:-0.414775 66:-0.349565 67:-0.404045 68:-0.49773 69:-0.528271 70:-0.559637 71:-0.518779 72:-0.49278 73:-0.104415 74:0.204705 75:1 
0.2214740746212182 1:-0.517933 2:1 3:-0.679688 4:-0.938636 5:-0.976214 6:-0.97474 7:-0.97489 8:-0.927268 9:-0.720864 10:-0.82103 11:-0.97389 12:-0.997876 13:-0.999875 14:-0.999925 15:-0.99995 16:-0.999875 17:-0.99945 18:-0.99995 26:-1 27:-0.691737 28:-0.731893 29:-0.795374 30:-0.59393 31:-0.393015 32:-0.44576 33:-0.230135 34:-0.01955 35:-0.14585 36:-0.102245 37:0.469485 38:0.020875 39:-0.59181 40:-0.792989 41:-0.792459 42:-0.726327 43:-0.721954 44:-0.694653 45:-0.607713 46:-0.40799 47:-0.257705 48:-0.041815 49:-0.01398 50:1 51:-1 52:-0.82804 53:-0.849409 54:-0.766417 55:-0.825395 56:-0.919971 57:-0.97149 58:-0.978789 59:-0.954564 60:-0.947528 61:-0.910132 62:-0.883315 63:-0.874587 64:-0.885853 65:-0.894792 66:-0.889344 67:-0.814499 68:-0.736479 69:-0.686493 70:-0.719341 71:-0.751184 72:-0.712888 73:-0.527598 74:-0.112955 75:1 
1 1:1 2:-0.43955 3:-0.966785 4:-0.999557 5:-1 6:-1 7:-1 8:-1 9:-1 10:-1 11:-1 12:-1 13:-1 14:-1 15:-1 16:-0.999114 17:-0.971656 18:-0.873118 26:-1 27:-1 28:-1 29:-1 30:-1 31:-1 32:-0.98626 33:-0.945038 34:-0.774046 35:-0.642748 36:-0.46107 37:-0.23664 38:0.224425 39:0.175575 40:0.44275 41:0.48855 42:0.951145 43:1 44:0.980155 45:0.71145 46:0.332825 47:-0.137405 48:-0.485495 49:-0.656488 50:-0.019845 51:-1 52:-0.998249 53:-0.980736 54:-0.756567 55:-0.471105 56:-0.46585 57:-0.46935 58:-0.457095 59:-0.274955 60:-0.245185 61:-0.260945 62:-0.11734 63:0.1331 64:-0.02452 65:0.098075 66:0.13485 67:0.13135 68:0.18389 69:0.182135 70:0.25569 71:0.448335 72:0.38354 73:0.234675 74:0.087565 75:1 
1 1:0.464515 2:1 3:-0.969197 4:-0.998768 5:-0.999754 6:-1 7:-1 8:-1 9:-1 10:-1 11:-1 12:-1 13:-1 14:-1 15:-1 16:-1 17:-0.997536 18:-0.992361 26:-0.993185 27:-0.901797 28:1 29:-0.21964 30:-0.903655 31:-0.925341 32:-0.941759 33:-0.939591 34:-0.925031 35:-0.870818 36:-0.784696 37:-0.789653 38:-0.82342 39:-0.909542 40:-0.894672 41:-0.899008 42:-0.958798 43:-0.990706 44:-0.993494 45:-0.993185 46:-0.991636 47:-0.993185 48:-0.996592 49:-1 50:-0.998451 51:-1 52:-1 53:-1 54:-1 55:-1 56:-1 57:-1 58:-1 59:-1 60:-1 61:-1 62:-1 63:-1 64:-0.999669 65:-1 66:-0.999669 67:-0.99603 68:-0.994707 69:-0.993715 70:-0.982137 71:-0.955673 72:-0.919285 73:-0.35726 74:0.905725 75:1 
0.1014318877504599 1:0.70065 2:-0.23492 3:-0.62883 4:-0.605962 5:-0.962099 6:-0.987409 7:-0.994861 8:-0.991906 9:-0.992034 10:-0.973405 11:1 12:-0.201 13:-0.924199 14:-0.849297 15:-0.854692 16:-0.858162 17:-0.671099 18:-0.632685 26:-0.712224 27:-0.647717 28:0.3729 29:1 30:0.06215 31:-0.134315 32:-0.215905 33:-0.36642 34:-0.19411 35:-0.14315 36:0.00589 37:0.048305 38:0.45685 39:0.794995 40:0.270985 41:-0.538144 42:-0.880707 43:-0.94109 44:-0.95729 45:-0.978498 46:-0.986156 47:-0.989102 48:-0.991163 49:-1 50:-0.784978 51:-0.876109 52:-0.871756 53:-1 54:-0.905575 55:-0.830905 56:-0.746526 57:-0.784698 58:-0.542609 59:-0.514147 60:-0.696969 61:-0.637368 62:-0.557006 63:-0.311235 64:-0.03901 65:-0.248955 66:0.21346 67:0.61728 68:0.61594 69:0.95279 70:0.680565 71:1 72:-0.16625 73:-0.763937 74:-0.915955 75:-0.932027 
1 1:1 2:-0.985811 3:-0.959057 4:-0.97994 5:-0.988757 6:-0.994259 7:-0.993176 8:-0.982106 9:-0.944564 10:-0.985486 11:-0.941618 12:-0.959338 13:-0.996296 14:-0.996989 15:-0.962263 16:-0.99766 17:-0.985074 18:-0.990252 26:1 27:-0.964394 28:-0.988638 29:-0.993993 30:-0.996009 31:-0.997846 32:-0.998696 33:-0.999644 34:-0.999091 35:-1 36:-0.999704 37:-1 38:-0.999921 39:-0.999664 40:-0.999743 41:-0.999941 42:-0.99921 43:-0.999111 44:-0.99838 45:-0.996147 46:-0.992373 47:-0.989132 48:-0.988994 49:-0.992985 50:-0.994744 51:-0.967837 52:-0.942274 53:-0.964452 54:-0.971493 55:-0.968402 56:-0.967469 57:-0.969015 58:-0.967494 59:-0.968524 60:-0.972548 61:-0.977601 62:-0.979319 63:-0.976841 64:-0.983219 65:-0.984029 66:-0.986237 67:-0.986482 68:-0.988985 69:-0.992198 70:-0.996688 71:-0.998479 72:-1 73:-0.995142 74:-0.977111 75:1 
-1 1:1 2:-1 3:-1 4:-0.991952 5:-1 6:-1 7:-1 8:-0.991952 9:-0.794768 10:-0.27968 11:-0.959759 12:-0.995976 13:-0.991952 14:-0.991952 15:-0.95171 16:-0.983903 17:-0.81489 18:-0.307845 26:-0.975708 27:-0.94332 28:-0.967611 29:-0.878542 30:-0.967611 31:-0.886639 32:-0.838056 33:-0.886639 34:-0.789473 35:-0.619433 36:-0.732793 37:-0.724696 38:-0.327935 39:-0.20648 40:1 41:0.506075 42:-0.732793 43:-0.805668 44:-0.757085 45:-0.813765 46:-0.813765 47:-0.902834 48:-1 49:-1 50:-1 51:-1 52:-1 53:-1 54:-1 55:-1 56:-1 57:-1 58:-1 59:-1 60:-1 61:-1 62:-0.965347 63:-0.945545 64:-0.970297 65:-0.970297 66:-0.891089 67:-0.891089 68:-0.866336 69:-0.747525 70:-0.628713 71:-0.633663 72:-0.559406 73:-0.623762 74:-0.455445 75:1 
-1 1:1 2:-0.993039 3:-0.993039 4:-1 5:-0.99652 6:-0.99768 7:-0.99768 8:-0.99768 9:-0.914153 10:-0.596287 11:-0.960557 12:-0.987239 13:-0.99884 14:-1 15:-0.983759 16:-0.988399 17:-0.966357 18:-0.923434 26:-0.89071 27:-0.896175 28:-0.907104 29:-0.830601 30:-0.704918 31:-0.726776 32:-0.748634 33:-0.644808 34:-0.688524 35:-0.513661 36:-0.622951 37:-0.393445 38:-0.224045 39:0.19672 40:0.49727 41:1 42:0.67213 43:-0.06011 44:-0.688524 45:-0.617487 46:-0.584699 47:-0.885246 48:-0.994535 49:-1 50:-1 51:-1 52:-1 53:-1 54:-1 55:-1 56:-1 57:-1 58:-1 59:-1 60:-0.9375 61:-0.911458 62:-0.869792 63:-0.854167 64:-0.84375 65:-0.65625 66:-0.53125 67:-0.296875 68:-0.265625 69:0.239585 70:0.875 71:0.49479 72:0.34375 73:-0.28646 74:-0.354165 75:1 
-1 1:1 2:-1 3:-1 4:-1 5:-1 6:-1 7:-1 8:-0.984466 9:-0.836893 10:-0.33204 11:-0.965049 12:-0.980583 13:-1 14:-0.972816 15:-0.992233 16:-0.965049 17:-0.790292 18:-0.374755 26:-0.982906 27:-0.982906 28:-0.957265 29:-0.905983 30:-0.786325 31:-0.871795 32:-0.897436 33:-0.888889 34:-0.769231 35:-0.675213 36:-0.68376 37:-0.692307 38:-0.51282 39:-0.042735 40:1 41:0.735045 42:-0.717948 43:-0.777778 44:-0.615385 45:-0.692308 46:-0.905983 47:-1 48:-1 49:-1 50:-1 51:-1 52:-1 53:-1 54:-1 55:-1 56:-1 57:-1 58:-1 59:-1 60:-1 61:-1 62:-0.94235 63:-0.973392 64:-0.977827 65:-0.982262 66:-0.929046 67:-0.889135 68:-0.840355 69:-0.751663 70:-0.751663 71:-0.68071 72:-0.569845 73:-0.72949 74:-0.636363 75:1 
-1 1:1 2:-0.897751 3:-0.977914 4:-0.993456 5:-0.99182 6:-0.995092 7:-0.995092 8:-0.994274 9:-0.818405 10:-0.613088 11:-0.986094 12:-0.994274 13:-0.996728 14:-0.999182 15:-0.998364 16:-0.997546 17:-0.98364 18:-0.984458 26:-0.956522 27:-0.821256 28:-0.724637 29:-0.743961 30:-0.734299 31:-0.63285 32:-0.676328 33:-0.565217 34:-0.396135 35:-0.565217 36:-0.41063 37:-0.299515 38:0.10628 39:0.42512 40:1 41:0.37198 42:0.63285 43:0.541065 44:0.27536 45:-0.42029 46:-0.42995 47:-0.599034 48:-0.942029 49:-1 50:-1 51:-1 52:-1 53:-1 54:-1 55:-1 56:-1 57:-1 58:-1 59:-0.996109 60:-0.914397 61:-0.922179 62:-0.902724 63:-0.715954 64:-0.396885 65:-0.249025 66:0.17899 67:1 68:0.392995 69:-0.128405 70:-0.26459 71:-0.245135 72:0.198445 73:-0.06615 74:-0.533074 75:0.801555 
-1 1:1 2:-0.891276 3:-0.995616 4:-0.992109 5:-0.99737 6:-0.996493 7:-0.992986 8:-0.987725 9:-0.81324 10:-0.60982 11:-0.985094 12:-0.99737 13:-0.992986 14:-0.99737 15:-1 16:-0.996493 17:-0.987725 18:-0.985094 26:-0.92 27:-0.865 28:-0.85 29:-0.73 30:-0.64 31:-0.705 32:-0.61 33:-0.59 34:-0.455 35:-0.505 36:-0.555 37:-0.235 38:0.1 39:0.615 40:1 41:0.29 42:0.575 43:0.36 44:-0.07 45:-0.38 46:-0.335 47:-0.655 48:-0.98 49:-1 50:-1 51:-1 52:-1 53:-1 54:-1 55:-1 56:-1 57:-1 58:-1 59:-0.995699 60:-0.948387 61:-0.896774 62:-0.905377 63:-0.664516 64:-0.43226 65:-0.15269 66:0.24731 67:1 68:0.268815 69:0.04086 70:-0.255915 71:-0.230105 72:0.096775 73:-0.101075 74:-0.40645 75:0.978495 
-1 1:1 2:-0.936883 3:-1 4:-1 5:-1 6:-0.996055 7:-0.988166 8:-0.936883 9:-0.384615 10:-1 11:-1 12:-1 13:-1 14:-0.996055 15:-1 16:-1 17:-0.980276 18:-0.846154 26:-0.718593 27:-0.919598 28:-0.909547 29:-0.869346 30:-0.869347 31:-0.829145 32:-0.869347 33:-0.869346 34:-0.698492 35:-0.62814 36:-0.28643 37:0.075375 38:1 39:-0.005025 40:-0.909547 41:-0.577889 42:-0.849246 43:-0.859297 44:-0.929648 45:-1 46:-1 47:-1 48:-1 49:-1 50:-1 51:-0.897872 52:-1 53:-1 54:-1 55:-1 56:-1 57:-1 58:-1 59:-1 60:-1 61:-1 62:-1 63:-1 64:-1 65:-1 66:-1 67:-0.982979 68:-0.948936 69:-0.931915 70:-0.897872 71:-0.940426 72:-0.87234 73:-0.804255 74:-0.557447 75:1 
-1 1:1 2:-0.931818 3:-0.981818 4:-1 5:-0.995455 6:-0.977273 7:-0.990909 8:-0.977273 9:-0.386365 10:-0.990909 11:-0.981818 12:-0.990909 13:-0.995455 14:-1 15:-0.990909 16:-0.990909 17:-0.986364 18:-0.886363 26:-0.6 27:-0.952941 28:-0.882353 29:-0.882353 30:-0.976471 31:-0.976471 32:-0.776471 33:-0.811764 34:-0.62353 35:-0.729412 36:-0.35294 37:-0.29412 38:1 39:0.541175 40:-0.788235 41:-0.788235 42:-0.670588 43:-0.858823 44:-0.952941 45:-1 46:-1 47:-1 48:-1 49:-1 50:-1 51:-0.882927 52:-1 53:-1 54:-1 55:-1 56:-1 57:-1 58:-1 59:-1 60:-1 61:-1 62:-1 63:-1 64:-1 65:-1 66:-1 67:-0.985366 68:-0.907317 69:-0.946341 70:-0.97561 71:-0.931708 72:-0.868292 73:-0.814634 74:-0.526829 75:1 
-1 1:1 2:-0.958246 3:-0.974948 4:-1 5:-0.991649 6:-0.991649 7:-0.991649 8:-0.983299 9:-0.586639 10:-0.979123 11:-1 12:-0.995825 13:-1 14:-1 15:-0.995825 16:-1 17:-0.983299 18:-0.862213 26:-0.714285 27:-0.965714 28:-0.828571 29:-0.862857 30:-0.942857 31:-0.76 32:-0.84 33:-0.84 34:-0.691429 35:-0.622857 36:-0.405715 37:-0.097145 38:1 39:0.50857 40:-0.874286 41:-0.897143 42:-0.862857 43:-0.908571 44:-0.988571 45:-1 46:-1 47:-1 48:-1 49:-1 50:-1 51:-0.886525 52:-1 53:-1 54:-1 55:-1 56:-1 57:-1 58:-1 59:-1 60:-1 61:-1 62:-1 63:-1 64:-1 65:-1 66:-1 67:-1 68:-0.971631 69:-0.943263 70:-0.952719 71:-0.886525 72:-0.877068 73:-0.806146 74:-0.612293 75:1 
-1 1:1 2:-0.887276 3:-0.982921 4:-0.990606 5:-0.994022 6:-0.998292 7:-0.996584 8:-0.976089 9:-0.845432 10:-0.666951 11:-0.99146 12:-0.996584 13:-0.997438 14:-1 15:-1 16:-0.997438 17:-0.982067 18:-0.988044 26:-0.931873 27:-0.912409 28:-0.781022 29:-0.751825 30:-0.717761 31:-0.727494 32:-0.693431 33:-0.600973 34:-0.469585 35:-0.48905 36:-0.430655 37:-0.14842 38:-0.104625 39:0.309 40:1 41:0.56691 42:0.445255 43:0.14355 44:0.44039 45:-0.44039 46:-0.562044 47:-0.746958 48:-0.970803 49:-0.990268 50:-1 51:-1 52:-1 53:-1 54:-1 55:-1 56:-1 57:-1 58:-1 59:-1 60:-0.969631 61:-0.947939 62:-0.874186 63:-0.635575 64:-0.444685 65:-0.097615 66:0.475055 67:0.92191 68:0.38395 69:-0.123645 70:-0.284165 71:-0.127985 72:0.123645 73:-0.21909 74:-0.418655 75:1 
-1 1:1 2:-0.870054 3:-0.969179 4:-0.995835 5:-0.990004 6:-0.996668 7:-0.996668 8:-0.988338 9:-0.81591 10:-0.605997 11:-0.986672 12:-0.996668 13:-0.999167 14:-0.996668 15:-0.997501 16:-1 17:-0.976676 18:-0.984173 26:-0.918781 27:-0.862944 28:-0.791878 29:-0.766497 30:-0.57868 31:-0.675127 32:-0.664975 33:-0.593908 34:-0.43147 35:-0.324875 36:-0.34518 37:-0.294415 38:0.2132 39:0.6599 40:1 41:0.72589 42:0.35533 43:0.43147 44:0.42132 45:-0.34518 46:-0.31472 47:-0.629441 48:-1 49:-1 50:-1 51:-1 52:-1 53:-1 54:-1 55:-1 56:-1 57:-1 58:-1 59:-0.991718 60:-0.942029 61:-0.892339 62:-0.917185 63:-0.614907 64:-0.25466 65:-0.138715 66:0.341615 67:0.929605 68:0.5735 69:-0.229815 70:-0.238095 71:-0.30849 72:0.291925 73:-0.068325 74:-0.453415 75:1 
-0.4514433710495462 1:1 2:-1 3:-1 4:-1 5:-1 6:-1 7:-1 8:-1 9:-0.783985 10:-0.497205 11:-0.910614 12:-0.973929 13:-0.962756 14:-0.985102 15:-0.985102 16:-0.959032 17:-0.832402 18:-0.459965 26:-1 27:-0.94958 28:-0.857143 29:-0.873949 30:-0.89916 31:-0.848739 32:-0.848739 33:-0.773109 34:-0.781513 35:-0.882353 36:-0.747899 37:-0.663865 38:-0.210085 39:-0.109245 40:1 41:0.63025 42:-0.621849 43:-0.815126 44:-0.705882 45:-0.82353 46:-0.983193 47:-1 48:-1 49:-1 50:-1 51:-1 52:-1 53:-1 54:-1 55:-1 56:-1 57:-1 58:-1 59:-1 60:-1 61:-0.995316 62:-0.943794 63:-0.962529 64:-0.915691 65:-0.93911 66:-0.892271 67:-0.929743 68:-0.882904 69:-0.775176 70:-0.700234 71:-0.592506 72:-0.742388 73:-0.69555 74:-0.442625 75:1 
-1 1:1 2:-0.893334 3:-0.994667 4:-0.992 5:-0.997333 6:-0.998222 7:-0.996444 8:-0.985778 9:-0.796444 10:-0.608889 11:-0.987556 12:-0.992889 13:-0.992889 14:-0.993778 15:-1 16:-0.996444 17:-0.984 18:-0.969778 26:-0.943231 27:-0.860262 28:-0.838428 29:-0.786026 30:-0.659389 31:-0.742358 32:-0.620088 33:-0.655022 34:-0.550218 35:-0.650655 36:-0.471615 37:-0.25764 38:-0.19214 39:0.087335 40:1 41:0.432315 42:0.17904 43:-0.061135 44:0.087335 45:-0.60262 46:-0.379915 47:-0.663755 48:-1 49:-1 50:-1 51:-1 52:-1 53:-1 54:-1 55:-1 56:-1 57:-1 58:-1 59:-0.986813 60:-0.964835 61:-0.876923 62:-0.885714 63:-0.714286 64:-0.41978 65:-0.27033 66:0.076925 67:1 68:0.67912 69:-0.085715 70:-0.296705 71:0.01099 72:0.17802 73:-0.12088 74:-0.37143 75:0.99121 
-1 1:1 2:-1 3:-1 4:-1 5:-1 6:-1 7:-1 8:-1 9:-0.685484 10:-0.26613 11:-0.951613 12:-0.971774 13:-0.971774 14:-0.96371 15:-0.951613 16:-0.975806 17:-0.822581 18:-0.205645 26:-1 27:-0.976834 28:-0.930502 29:-0.92278 30:-0.72973 31:-0.80695 32:-0.891892 33:-0.899614 34:-0.814672 35:-0.822394 36:-0.621621 37:-0.528957 38:-0.49807 39:-0.243245 40:1 41:0.50579 42:-0.72973 43:-0.722007 44:-0.776062 45:-0.667953 46:-0.814672 47:-1 48:-1 49:-1 50:-1 51:-1 52:-1 53:-1 54:-1 55:-1 56:-1 57:-1 58:-1 59:-1 60:-1 61:-0.982418 62:-0.964835 63:-0.969231 64:-0.978022 65:-0.973626 66:-0.920879 67:-0.85934 68:-0.828572 69:-0.679121 70:-0.696703 71:-0.630769 72:-0.582417 73:-0.657143 74:-0.661538 75:1 
-0.05797256077900542 1:1 2:-0.872659 3:-0.970037 4:-0.992509 5:-0.987516 6:-0.992509 7:-0.990012 8:-0.977528 9:-0.18352 10:-0.970037 11:-0.957553 12:-0.970037 13:-0.990012 14:-0.995006 15:-1 16:-1 17:-0.985019 18:-0.890138 26:-0.746193 27:-0.898477 28:-0.86802 29:-0.857868 30:-0.827411 31:-0.77665 32:-0.47208 33:-0.695431 34:-0.634518 35:-0.573604 36:-0.32995 37:-0.045685 38:1 39:0.492385 40:0.167515 41:0.360405 42:-0.42132 43:-0.766498 44:-0.51269 45:-0.573604 46:-0.20812 47:-0.532995 48:-0.979695 49:-0.979695 50:-1 51:-0.870445 52:-1 53:-1 54:-1 55:-1 56:-1 57:-1 58:-1 59:-1 60:-1 61:-0.983806 62:-0.967611 63:-0.878543 64:-0.927125 65:-0.821863 66:-0.765182 67:-0.619433 68:-0.578947 69:-0.25506 70:-0.238865 71:-0.076925 72:0.00405002 73:0.65992 74:0.94332 75:1 
-0.3753015032908144 1:1 2:-0.98476 3:-1 4:-0.997655 5:-0.994138 6:-0.998828 7:-1 8:-1 9:-0.941384 10:-0.569754 11:-0.968347 12:-0.981243 13:-0.988277 14:-0.994138 15:-0.991794 16:-0.98476 17:-0.970692 18:-0.900351 26:-1 27:-0.848958 28:-0.802083 29:-0.911458 30:-0.78125 31:-0.786458 32:-0.822917 33:-0.723958 34:-0.59375 35:-0.625 36:-0.427085 37:-0.5625 38:-0.145835 39:0.11979 40:0.375 41:1 42:0.421875 43:0.08854 44:-0.776042 45:-0.661458 46:-0.520833 47:-0.869791 48:-1 49:-1 50:-1 51:-1 52:-1 53:-1 54:-1 55:-1 56:-1 57:-1 58:-1 59:-1 60:-0.944584 61:-0.95466 62:-0.944585 63:-0.944585 64:-0.793451 65:-0.617128 66:-0.49622 67:-0.460955 68:0.098235 69:0.214105 70:0.66247 71:0.48111 72:0.057935 73:-0.103275 74:-0.506297 75:1 
-0.9620162389875806 1:1 2:-0.885614 3:-0.985042 4:-0.99912 5:-0.990321 6:-0.994721 7:-0.991201 8:-0.987681 9:-0.828421 10:-0.609327 11:-0.988561 12:-0.991201 13:-0.994721 14:-0.99912 15:-0.99824 16:-0.992961 17:-0.994721 18:-0.978003 26:-0.904282 27:-0.738035 28:-0.843828 29:-0.879093 30:-0.662469 31:-0.627204 32:-0.677582 33:-0.586902 34:-0.465995 35:-0.571788 36:-0.486145 37:-0.234255 38:-0.10831 39:0.70277 40:1 41:0.75315 42:0.34005 43:0.26952 44:0.219145 45:-0.45592 46:-0.40554 47:-0.65743 48:-1 49:-1 50:-1 51:-1 52:-1 53:-1 54:-1 55:-1 56:-1 57:-1 58:-1 59:-1 60:-0.96129 61:-0.909677 62:-0.91828 63:-0.6 64:-0.52258 65:-0.096775 66:0.28602 67:1 68:0.264515 69:0.019355 70:-0.264515 71:-0.212905 72:0.15269 73:-0.178495 74:-0.410755 75:0.9957 
-1 1:1 2:-0.968476 3:-0.992995 4:-1 5:-1 6:-1 7:-0.985989 8:-0.964974 9:-0.29597 10:-0.961471 11:-0.992995 12:-1 13:-0.992995 14:-0.989492 15:-0.992995 16:-0.982487 17:-0.964974 18:-0.908932 26:-0.918367 27:-0.934694 28:-0.893877 29:-0.877551 30:-0.844898 31:-0.820408 32:-0.681633 33:-0.706122 34:-0.559183 35:-0.363265 36:-0.363265 37:-0.085715 38:1 39:-0.893877 40:-0.869388 41:-0.836734 42:-0.49388 43:-0.902041 44:-0.95102 45:-1 46:-1 47:-1 48:-1 49:-1 50:-1 51:-1 52:-1 53:-1 54:-1 55:-1 56:-1 57:-1 58:-1 59:-1 60:-1 61:-1 62:-1 63:-1 64:-1 65:-0.990719 66:-0.958237 67:-0.972158 68:-0.87471 69:-0.87471 70:-0.87471 71:-0.809745 72:-0.689095 73:-0.591647 74:-0.38283 75:1 
-1 1:1 2:-0.965591 3:-0.991398 4:-1 5:-1 6:-1 7:-1 8:-0.965591 9:-0.548387 10:-0.832258 11:-0.978495 12:-0.96129 13:-1 14:-1 15:-1 16:-1 17:-0.96129 18:-0.595699 26:-0.964444 27:-0.768889 28:-0.84 29:-0.928889 30:-0.928889 31:-0.866666 32:-0.653334 33:-0.724444 34:-0.493335 35:-0.537778 36:-0.36889 37:1 38:-0.02222 39:-0.822222 40:-0.866667 41:-0.84 42:-0.84 43:-0.928889 44:-0.991111 45:-1 46:-1 47:-1 48:-1 49:-1 50:-1 51:-1 52:-1 53:-1 54:-1 55:-1 56:-1 57:-1 58:-1 59:-1 60:-1 61:-1 62:-1 63:-1 64:-1 65:-1 66:-0.942583 67:-0.961723 68:-0.91866 69:-0.92823 70:-0.84689 71:-0.779905 72:-0.775119 73:-0.593301 74:-0.69378 75:1 
-1 1:1 2:-0.967078 3:-1 4:-0.983539 5:-0.983539 6:-1 7:-1 8:-1 9:-0.662551 10:-0.711934 11:-1 12:-1 13:-1 14:-1 15:-0.99177 16:-1 17:-0.925926 18:-0.711934 26:-0.96347 27:-0.881278 28:-0.863013 29:-0.835616 30:-0.92694 31:-0.863013 32:-0.726028 33:-0.69863 34:-0.543379 35:-0.598173 36:-0.077625 37:1 38:0.232875 39:-0.835616 40:-0.835616 41:-0.863013 42:-0.945206 43:-0.981735 44:-1 45:-1 46:-1 47:-1 48:-1 49:-1 50:-1 51:-1 52:-1 53:-1 54:-1 55:-1 56:-1 57:-1 58:-1 59:-1 60:-1 61:-1 62:-1 63:-1 64:-1 65:-1 66:-0.949657 67:-0.949657 68:-0.91762 69:-0.926774 70:-0.881007 71:-0.816933 72:-0.84897 73:-0.65675 74:-0.647597 75:1 
-0.4222519534809658 1:1 2:-0.953291 3:-1 4:-1 5:-1 6:-1 7:-1 8:-0.974522 9:-0.532909 10:-0.96603 11:-1 12:-1 13:-0.991507 14:-1 15:-1 16:-1 17:-0.96603 18:-0.660297 26:-0.903743 27:-0.946524 28:-0.828877 29:-0.828877 30:-0.914438 31:-0.796791 32:-0.689839 33:-0.700535 34:-0.604278 35:-0.48663 36:0.165775 37:1 38:0.433155 39:-0.871658 40:-0.946524 41:-0.882353 42:-0.786096 43:-0.967914 44:-1 45:-1 46:-1 47:-1 48:-1 49:-1 50:-1 51:-1 52:-1 53:-1 54:-1 55:-1 56:-1 57:-1 58:-1 59:-1 60:-1 61:-1 62:-1 63:-1 64:-1 65:-1 66:-0.995455 67:-0.981818 68:-0.945454 69:-0.918182 70:-0.890909 71:-0.840909 72:-0.85 73:-0.759091 74:-0.654545 75:1 
-1 1:1 2:-0.981524 3:-0.995381 4:-1 5:-0.986143 6:-1 7:-1 8:-1 9:-0.575057 10:-0.658199 11:-0.990762 12:-0.990762 13:-0.990762 14:-0.981524 15:-0.981524 16:-0.972286 17:-0.944573 18:-0.515011 26:-0.980676 27:-0.913043 28:-0.835749 29:-0.864734 30:-0.942029 31:-0.700483 32:-0.719807 33:-0.681159 34:-0.574879 35:-0.516908 36:-0.072465 37:1 38:0.014495 39:-0.913044 40:-0.816425 41:-0.623188 42:-0.768116 43:-0.913044 44:-0.990338 45:-1 46:-1 47:-1 48:-1 49:-1 50:-1 51:-1 52:-1 53:-1 54:-1 55:-1 56:-1 57:-1 58:-1 59:-1 60:-1 61:-1 62:-1 63:-1 64:-1 65:-1 66:-0.981693 67:-0.940504 68:-0.94508 69:-0.899313 70:-0.91762 71:-0.867277 72:-0.80778 73:-0.610984 74:-0.624714 75:1 
-1 1:1 2:-0.977901 3:-0.985267 4:-1 5:-1 6:-1 7:-1 8:-0.985267 9:-0.436465 10:-0.926335 11:-0.992633 12:-1 13:-0.996317 14:-0.996317 15:-0.98895 16:-0.974217 17:-0.922652 18:-0.734807 26:-0.940075 27:-0.925093 28:-0.925093 29:-0.805243 30:-0.805244 31:-0.850187 32:-0.820225 33:-0.692884 34:-0.625468 35:-0.602996 36:-0.41573 37:0.06367 38:1 39:-0.857678 40:-0.932585 41:-0.790262 42:-0.805244 43:-1 44:-1 45:-1 46:-1 47:-1 48:-1 49:-1 50:-1 51:-1 52:-1 53:-1 54:-1 55:-1 56:-1 57:-1 58:-1 59:-1 60:-1 61:-1 62:-1 63:-1 64:-1 65:-1 66:-0.991091 67:-0.946548 68:-0.879733 69:-0.884187 70:-0.910913 71:-0.857461 72:-0.755011 73:-0.532294 74:-0.514476 75:1 
-0.3242578159337151 1:1 2:-0.971119 3:-1 4:-1 5:-1 6:-0.99639 7:-0.960289 8:-0.967509 9:-0.476535 10:-0.949458 11:-1 12:-1 13:-1 14:-1 15:-0.99639 16:-0.981949 17:-0.953069 18:-0.837545 26:-0.928854 27:-0.857707 28:-0.905138 29:-0.889328 30:-0.865613 31:-0.897233 32:-0.794466 33:-0.75494 34:-0.660079 35:-0.644269 36:-0.49407 37:0.05929 38:1 39:-0.541502 40:-0.818182 41:-0.873518 42:-0.770751 43:-0.992095 44:-1 45:-1 46:-1 47:-1 48:-1 49:-1 50:-1 51:-1 52:-1 53:-1 54:-1 55:-1 56:-1 57:-1 58:-1 59:-1 60:-1 61:-1 62:-1 63:-1 64:-1 65:-1 66:-0.991379 67:-0.991379 68:-0.875 69:-0.926724 70:-0.875 71:-0.866379 72:-0.818965 73:-0.637931 74:-0.543103 75:1 
-1 1:1 2:-0.954972 3:-0.996248 4:-1 5:-0.984991 6:-1 7:-1 8:-0.962477 9:-0.429645 10:-0.849906 11:-0.977486 12:-1 13:-0.992495 14:-0.996248 15:-0.996248 16:-0.992495 17:-0.954972 18:-0.692308 26:-0.910931 27:-0.862348 28:-0.886639 29:-0.894737 30:-0.716599 31:-0.821862 32:-0.829959 33:-0.611336 34:-0.668016 35:-0.635627 36:-0.392715 37:0.182185 38:1 39:-0.740891 40:-0.846154 41:-0.870445 42:-0.659919 43:-0.902834 44:-0.983806 45:-1 46:-1 47:-1 48:-1 49:-1 50:-1 51:-1 52:-1 53:-1 54:-1 55:-1 56:-1 57:-1 58:-1 59:-1 60:-1 61:-1 62:-1 63:-1 64:-1 65:-0.970021 66:-0.965739 67:-0.957173 68:-0.910064 69:-0.871521 70:-0.854389 71:-0.802998 72:-0.80728 73:-0.734475 74:-0.45182 75:1 
-1 1:1 2:-1 3:-0.993266 4:-1 5:-1 6:-0.993266 7:-1 8:-1 9:-0.319865 10:-0.942761 11:-0.993266 12:-0.993266 13:-0.996633 14:-1 15:-1 16:-1 17:-0.959596 18:-0.69697 26:-0.757576 27:-0.924242 28:-0.886363 29:-0.840909 30:-0.878788 31:-0.871212 32:-0.863637 33:-0.727272 34:-0.69697 35:-0.643939 36:-0.28788 37:-0.14394 38:1 39:-0.28788 40:-0.75 41:-0.795454 42:-0.75 43:-0.901515 44:-0.992424 45:-1 46:-1 47:-1 48:-1 49:-1 50:-1 51:-0.873303 52:-1 53:-1 54:-1 55:-1 56:-1 57:-1 58:-1 59:-1 60:-1 61:-1 62:-1 63:-1 64:-1 65:-1 66:-0.99095 67:-0.9819 68:-0.900452 69:-0.927602 70:-0.904977 71:-0.719457 72:-0.746606 73:-0.31674 74:-0.457015 75:1 
-1 1:1 2:-0.987315 3:-0.995772 4:-0.995772 5:-0.987315 6:-0.983087 7:-1 8:-0.983087 9:-0.36998 10:-0.780127 11:-0.97463 12:-1 13:-0.987315 14:-0.970402 15:-0.991543 16:-0.983087 17:-0.961945 18:-0.640592 26:-0.830986 27:-0.840375 28:-0.821596 29:-0.924882 30:-0.830986 31:-0.906103 32:-0.605634 33:-0.737089 34:-0.568075 35:-0.248825 36:-0.3615 37:1 38:0.19249 39:-0.896713 40:-0.737089 41:-0.746479 42:-0.671361 43:-0.906103 44:-0.99061 45:-1 46:-1 47:-1 48:-1 49:-1 50:-1 51:-1 52:-1 53:-1 54:-1 55:-1 56:-1 57:-1 58:-1 59:-1 60:-1 61:-1 62:-1 63:-1 64:-1 65:-1 66:-0.956416 67:-0.941889 68:-0.956416 69:-0.859564 70:-0.869249 71:-0.777239 72:-0.680387 73:-0.457625 74:-0.598063 75:1 
-1 1:1 2:-0.969336 3:-0.986371 4:-1 5:-0.982964 6:-0.993186 7:-0.993186 8:-0.972743 9:-0.46167 10:-0.9523 11:-0.993186 12:-1 13:-1 14:-0.996593 15:-1 16:-0.993186 17:-0.982964 18:-0.798978 26:-0.755725 27:-0.862595 28:-0.961832 29:-0.862595 30:-0.877862 31:-0.946565 32:-0.923664 33:-0.709923 34:-0.70229 35:-0.572519 36:-0.33588 37:-0.14504 38:1 39:-0.42748 40:-0.740458 41:-0.816794 42:-0.816794 43:-0.992366 44:-1 45:-1 46:-1 47:-1 48:-1 49:-1 50:-1 51:-0.875598 52:-1 53:-1 54:-1 55:-1 56:-1 57:-1 58:-1 59:-1 60:-1 61:-1 62:-1 63:-1 64:-1 65:-0.995215 66:-0.980861 67:-0.976077 68:-0.956938 69:-0.913875 70:-0.899521 71:-0.751196 72:-0.741627 73:-0.44019 74:-0.363635 75:1 
